{"learner":{"attributes":{"best_iteration":"452","best_score":"0.10680870608376397","scikit_learn":"{\"_estimator_type\": \"regressor\"}"},"feature_names":[],"feature_types":[],"gradient_booster":{"model":{"gbtree_model_param":{"num_parallel_tree":"1","num_trees":"503"},"iteration_indptr":[0,1,2,3,4,5,6,7,8,9,10,11,12,13,14,15,16,17,18,19,20,21,22,23,24,25,26,27,28,29,30,31,32,33,34,35,36,37,38,39,40,41,42,43,44,45,46,47,48,49,50,51,52,53,54,55,56,57,58,59,60,61,62,63,64,65,66,67,68,69,70,71,72,73,74,75,76,77,78,79,80,81,82,83,84,85,86,87,88,89,90,91,92,93,94,95,96,97,98,99,100,101,102,103,104,105,106,107,108,109,110,111,112,113,114,115,116,117,118,119,120,121,122,123,124,125,126,127,128,129,130,131,132,133,134,135,136,137,138,139,140,141,142,143,144,145,146,147,148,149,150,151,152,153,154,155,156,157,158,159,160,161,162,163,164,165,166,167,168,169,170,171,172,173,174,175,176,177,178,179,180,181,182,183,184,185,186,187,188,189,190,191,192,193,194,195,196,197,198,199,200,201,202,203,204,205,206,207,208,209,210,211,212,213,214,215,216,217,218,219,220,221,222,223,224,225,226,227,228,229,230,231,232,233,234,235,236,237,238,239,240,241,242,243,244,245,246,247,248,249,250,251,252,253,254,255,256,257,258,259,260,261,262,263,264,265,266,267,268,269,270,271,272,273,274,275,276,277,278,279,280,281,282,283,284,285,286,287,288,289,290,291,292,293,294,295,296,297,298,299,300,301,302,303,304,305,306,307,308,309,310,311,312,313,314,315,316,317,318,319,320,321,322,323,324,325,326,327,328,329,330,331,332,333,334,335,336,337,338,339,340,341,342,343,344,345,346,347,348,349,350,351,352,353,354,355,356,357,358,359,360,361,362,363,364,365,366,367,368,369,370,371,372,373,374,375,376,377,378,379,380,381,382,383,384,385,386,387,388,389,390,391,392,393,394,395,396,397,398,399,400,401,402,403,404,405,406,407,408,409,410,411,412,413,414,415,416,417,418,419,420,421,422,423,424,425,426,427,428,429,430,431,432,433,434,435,436,437,438,439,440,441,442,443,444,445,446,447,448,449,450,451,452,453,454,455,456,457,458,459,460,461,462,463,464,465,466,467,468,469,470,471,472,473,474,475,476,477,478,479,480,481,482,483,484,485,486,487,488,489,490,491,492,493,494,495,496,497,498,499,500,501,502,503],"tree_info":[0,0,0,0,0,0,0,0,0,0,0,0,0,0,0,0,0,0,0,0,0,0,0,0,0,0,0,0,0,0,0,0,0,0,0,0,0,0,0,0,0,0,0,0,0,0,0,0,0,0,0,0,0,0,0,0,0,0,0,0,0,0,0,0,0,0,0,0,0,0,0,0,0,0,0,0,0,0,0,0,0,0,0,0,0,0,0,0,0,0,0,0,0,0,0,0,0,0,0,0,0,0,0,0,0,0,0,0,0,0,0,0,0,0,0,0,0,0,0,0,0,0,0,0,0,0,0,0,0,0,0,0,0,0,0,0,0,0,0,0,0,0,0,0,0,0,0,0,0,0,0,0,0,0,0,0,0,0,0,0,0,0,0,0,0,0,0,0,0,0,0,0,0,0,0,0,0,0,0,0,0,0,0,0,0,0,0,0,0,0,0,0,0,0,0,0,0,0,0,0,0,0,0,0,0,0,0,0,0,0,0,0,0,0,0,0,0,0,0,0,0,0,0,0,0,0,0,0,0,0,0,0,0,0,0,0,0,0,0,0,0,0,0,0,0,0,0,0,0,0,0,0,0,0,0,0,0,0,0,0,0,0,0,0,0,0,0,0,0,0,0,0,0,0,0,0,0,0,0,0,0,0,0,0,0,0,0,0,0,0,0,0,0,0,0,0,0,0,0,0,0,0,0,0,0,0,0,0,0,0,0,0,0,0,0,0,0,0,0,0,0,0,0,0,0,0,0,0,0,0,0,0,0,0,0,0,0,0,0,0,0,0,0,0,0,0,0,0,0,0,0,0,0,0,0,0,0,0,0,0,0,0,0,0,0,0,0,0,0,0,0,0,0,0,0,0,0,0,0,0,0,0,0,0,0,0,0,0,0,0,0,0,0,0,0,0,0,0,0,0,0,0,0,0,0,0,0,0,0,0,0,0,0,0,0,0,0,0,0,0,0,0,0,0,0,0,0,0,0,0,0,0,0,0,0,0,0,0,0,0,0,0,0,0,0,0,0,0,0,0,0,0,0,0,0,0,0,0,0,0,0,0,0,0,0,0,0,0,0,0,0,0,0,0,0,0,0,0,0,0,0,0,0,0,0,0,0,0,0,0,0,0,0,0,0,0,0,0,0,0,0,0,0],"trees":[{"base_weights":[5.6522967E-5,-5.9598036E-2,6.1373785E-2,-1.3732043E-1,-1.333561E-2,-6.4909615E-2,7.976784E-2,-9.258856E-2,-1.7020418E-1,-2.3485849E-2,8.1488244E-2,-9.25263E-2,-5.166265E-2,4.956197E-2,1.19751014E-1,7.295297E-2,-1.09643504E-1,-2.9866995E-2,-1.880253E-1,-9.475925E-3,-8.611654E-2,9.847919E-2,-6.755294E-2,-5.4160047E-2,-1.1760727E-1,-6.1763894E-2,1.0463245E-1,2.173122E-3,6.563751E-2,-2.2994569E-2,1.2662967E-1,-1.0879969E-1,9.808171E-2,-1.8072546E-1,-6.972598E-2,-1.9943468E-1,8.4006E-2,-9.758636E-2,-2.1107109E-1,6.547434E-3,-5.2232683E-2,-2.4738016E-2,-1.0399094E-1,7.468655E-2,2.492138E-1,-4.235071E-2,-1.2326452E-1,-2.4857756E-2,-1.1520408E-1,-1.6838692E-1,-1.0701453E-1,-9.37871E-2,-4.01337E-2,1.5920436E-1,2.9566076E-2,-1.6733167E-1,6.4613316E-3,-7.952316E-2,7.153176E-2,-6.581257E-2,1.2281769E-3,-9.5576264E-2,1.3063698E-1,-2.6448797E-3,-6.7435266E-3,3.3869357E-3,8.419558E-3,1.2796381E-3,-9.174606E-3,-4.0411977E-3,2.8818166E-3,-1.1484968E-2,-5.984448E-3,2.3361864E-3,7.5308504E-3,-8.274076E-3,4.2686164E-3,-6.1371303E-3,-1.1288294E-2,7.0947885E-5,4.956016E-3,-3.9133593E-3,-1.304647E-3,-3.722444E-3,8.112422E-3,-4.111679E-3,-7.611673E-3,8.613433E-3,2.2189054E-3,1.3684287E-2,6.5722386E-3,-1.1454684E-3,-2.8417993E-3,-4.465024E-3,-6.931973E-3,-2.5155835E-3,1.7599661E-3,-4.0886337E-3,-8.929555E-3,-7.037673E-3,-1.2161003E-2,-6.035825E-3,-2.0588834E-3,-5.6484523E-3,-3.1136225E-3,-2.9710054E-3,4.948847E-4,6.3349153E-3,1.1945142E-2,2.9522043E-3,-1.5263549E-3,-1.15027E-2,-4.828331E-3,-1.3567394E-3,1.409028E-3,6.634665E-3,-6.618924E-3,4.724008E-3,1.6422787E-3,-2.3070702E-3,-4.5321556E-3,6.27903E-4,-3.1696789E-3,-1.2650688E-2,-2.5542271E-3,8.826065E-3,5.571602E-3],"categories":[],"categories_nodes":[],"categories_segments":[],"categories_sizes":[],"default_left":[0,0,0,0,0,0,0,0,0,0,0,0,0,0,0,0,0,0,0,0,0,0,0,0,0,0,0,0,0,0,0,0,0,0,0,0,0,0,0,0,0,0,0,0,0,0,0,0,0,0,0,0,0,0,0,0,0,0,0,0,0,0,0,0,0,0,0,0,0,0,0,0,0,0,0,0,0,0,0,0,0,0,0,0,0,0,0,0,0,0,0,0,0,0,0,0,0,0,0,0,0,0,0,0,0,0,0,0,0,0,0,0,0,0,0,0,0,0,0,0,0,0,0,0,0,0,0],"id":0,"left_children":[1,3,5,7,9,11,13,15,17,19,21,23,25,27,29,31,33,35,37,39,41,43,45,47,49,51,53,55,57,59,61,63,65,67,69,71,73,75,77,79,81,83,85,87,89,91,93,95,97,99,101,103,105,107,109,111,113,115,117,119,121,123,125,-1,-1,-1,-1,-1,-1,-1,-1,-1,-1,-1,-1,-1,-1,-1,-1,-1,-1,-1,-1,-1,-1,-1,-1,-1,-1,-1,-1,-1,-1,-1,-1,-1,-1,-1,-1,-1,-1,-1,-1,-1,-1,-1,-1,-1,-1,-1,-1,-1,-1,-1,-1,-1,-1,-1,-1,-1,-1,-1,-1,-1,-1,-1,-1],"loss_changes":[2.5521947E2,1.2716109E2,7.992793E1,1.9394913E1,2.1341166E1,1.5957565E0,3.62657E1,1.5798725E1,1.9011719E1,1.7572777E1,5.436013E0,1.3571577E0,4.6780562E0,1.3034279E1,1.2692963E1,2.3993242E0,1.4375931E1,1.658403E1,1.4041763E1,1.1214171E1,4.0139236E0,6.8851566E0,3.0367208E-1,1.0024025E0,4.424181E-1,1.921854E0,7.326658E-1,3.1520715E0,1.0936996E1,6.171967E-1,1.0991699E1,8.6140215E-2,9.6995735E-1,1.0452881E0,4.597001E0,8.051586E-1,1.2694352E0,1.7057121E1,6.9501343E0,5.6528E0,3.0345068E0,7.699258E0,2.9631844E0,4.9137383E0,7.191181E-1,4.1784763E-2,2.3128629E-2,5.84201E-1,3.7107563E-1,2.676792E-1,6.3641834E-1,6.7001915E-1,1.6033301E0,2.3916268E-1,1.3820232E-1,4.5270944E-1,3.0865889E0,5.6147327E0,1.0897125E1,1.00833595E-1,2.7974787E-1,1.5210965E0,1.0653473E1,0E0,0E0,0E0,0E0,0E0,0E0,0E0,0E0,0E0,0E0,0E0,0E0,0E0,0E0,0E0,0E0,0E0,0E0,0E0,0E0,0E0,0E0,0E0,0E0,0E0,0E0,0E0,0E0,0E0,0E0,0E0,0E0,0E0,0E0,0E0,0E0,0E0,0E0,0E0,0E0,0E0,0E0,0E0,0E0,0E0,0E0,0E0,0E0,0E0,0E0,0E0,0E0,0E0,0E0,0E0,0E0,0E0,0E0,0E0,0E0,0E0,0E0,0E0,0E0],"parents":[2147483647,0,0,1,1,2,2,3,3,4,4,5,5,6,6,7,7,8,8,9,9,10,10,11,11,12,12,13,13,14,14,15,15,16,16,17,17,18,18,19,19,20,20,21,21,22,22,23,23,24,24,25,25,26,26,27,27,28,28,29,29,30,30,31,31,32,32,33,33,34,34,35,35,36,36,37,37,38,38,39,39,40,40,41,41,42,42,43,43,44,44,45,45,46,46,47,47,48,48,49,49,50,50,51,51,52,52,53,53,54,54,55,55,56,56,57,57,58,58,59,59,60,60,61,61,62,62],"right_children":[2,4,6,8,10,12,14,16,18,20,22,24,26,28,30,32,34,36,38,40,42,44,46,48,50,52,54,56,58,60,62,64,66,68,70,72,74,76,78,80,82,84,86,88,90,92,94,96,98,100,102,104,106,108,110,112,114,116,118,120,122,124,126,-1,-1,-1,-1,-1,-1,-1,-1,-1,-1,-1,-1,-1,-1,-1,-1,-1,-1,-1,-1,-1,-1,-1,-1,-1,-1,-1,-1,-1,-1,-1,-1,-1,-1,-1,-1,-1,-1,-1,-1,-1,-1,-1,-1,-1,-1,-1,-1,-1,-1,-1,-1,-1,-1,-1,-1,-1,-1,-1,-1,-1,-1,-1,-1],"split_conditions":[1.6608413E-1,7E0,-1.290763E0,4.6735922E-1,9.150242E-1,7.8029585E-1,7.7008545E-1,7E1,1.1E1,2.1E1,7.1E1,5.808003E-1,1.27E2,1.64E2,9.4E1,6.5E1,9.5E1,5E0,-3.4561232E-1,6.551564E-1,-3.4561232E-1,6.6E1,7.3276126E-1,1.52E2,1.33E2,-2.5119007E-1,6E0,3.536761E-1,-9.990741E-1,8E1,-9.9966663E-1,5.146913E-1,1.3946388E0,-1.1868788E0,9.8734945E-1,4E0,4.5875635E-2,-4.405188E-1,3.9014825E-1,5.947267E-1,-6.760801E-1,-4.405188E-1,2.3E1,1.1E1,-1.3837355E-1,-6.878028E-1,1.0269697E0,1.0269697E0,1.0269697E0,1.0269697E0,1.2527238E0,9.8752594E-1,9.6E1,1.6417016E0,5E-1,6E0,9.5E1,1.82E2,7.0710677E-1,4E0,6E0,7E0,-9.441875E-1,-2.6448797E-3,-6.7435266E-3,3.3869357E-3,8.419558E-3,1.2796381E-3,-9.174606E-3,-4.0411977E-3,2.8818166E-3,-1.1484968E-2,-5.984448E-3,2.3361864E-3,7.5308504E-3,-8.274076E-3,4.2686164E-3,-6.1371303E-3,-1.1288294E-2,7.0947885E-5,4.956016E-3,-3.9133593E-3,-1.304647E-3,-3.722444E-3,8.112422E-3,-4.111679E-3,-7.611673E-3,8.613433E-3,2.2189054E-3,1.3684287E-2,6.5722386E-3,-1.1454684E-3,-2.8417993E-3,-4.465024E-3,-6.931973E-3,-2.5155835E-3,1.7599661E-3,-4.0886337E-3,-8.929555E-3,-7.037673E-3,-1.2161003E-2,-6.035825E-3,-2.0588834E-3,-5.6484523E-3,-3.1136225E-3,-2.9710054E-3,4.948847E-4,6.3349153E-3,1.1945142E-2,2.9522043E-3,-1.5263549E-3,-1.15027E-2,-4.828331E-3,-1.3567394E-3,1.409028E-3,6.634665E-3,-6.618924E-3,4.724008E-3,1.6422787E-3,-2.3070702E-3,-4.5321556E-3,6.27903E-4,-3.1696789E-3,-1.2650688E-2,-2.5542271E-3,8.826065E-3,5.571602E-3],"split_indices":[11,20,19,29,19,28,11,23,23,20,23,28,23,23,23,23,23,23,28,28,28,23,10,23,23,29,21,28,29,23,29,18,10,11,28,23,19,28,10,28,19,28,20,23,15,10,10,10,10,10,10,11,23,8,26,20,23,23,26,21,21,20,29,0,0,0,0,0,0,0,0,0,0,0,0,0,0,0,0,0,0,0,0,0,0,0,0,0,0,0,0,0,0,0,0,0,0,0,0,0,0,0,0,0,0,0,0,0,0,0,0,0,0,0,0,0,0,0,0,0,0,0,0,0,0,0,0],"split_type":[0,0,0,0,0,0,0,0,0,0,0,0,0,0,0,0,0,0,0,0,0,0,0,0,0,0,0,0,0,0,0,0,0,0,0,0,0,0,0,0,0,0,0,0,0,0,0,0,0,0,0,0,0,0,0,0,0,0,0,0,0,0,0,0,0,0,0,0,0,0,0,0,0,0,0,0,0,0,0,0,0,0,0,0,0,0,0,0,0,0,0,0,0,0,0,0,0,0,0,0,0,0,0,0,0,0,0,0,0,0,0,0,0,0,0,0,0,0,0,0,0,0,0,0,0,0,0],"sum_hessian":[6.9771E4,3.5365E4,3.4406E4,1.3195E4,2.217E4,4.374E3,3.0032E4,5.592E3,7.603E3,2.0027E4,2.143E3,1.416E3,2.958E3,1.7109E4,1.2923E4,5.22E2,5.07E3,8.57E2,6.746E3,1.6367E4,3.66E3,1.924E3,2.19E2,5.61E2,8.55E2,2.779E3,1.79E2,4.334E3,1.2775E4,5.94E2,1.2329E4,6.3E1,4.59E2,1.822E3,3.248E3,3.44E2,5.13E2,1.371E3,5.375E3,1.1906E4,4.461E3,8.26E2,2.834E3,1.663E3,2.61E2,1.52E2,6.7E1,3.8E2,1.81E2,1.45E2,7.1E2,1.119E3,1.66E3,1.03E2,7.6E1,1.06E2,4.228E3,4.98E2,1.2277E4,2.14E2,3.8E2,2.18E2,1.2111E4,2.1E1,4.2E1,3.22E2,1.37E2,2.4E1,1.798E3,2.988E3,2.6E2,2.48E2,9.6E1,3.3E2,1.83E2,1E3,3.71E2,7.68E2,4.607E3,1.1282E4,6.24E2,2.234E3,2.227E3,6.53E2,1.73E2,1.955E3,8.79E2,3.93E2,1.27E3,2.15E2,4.6E1,6.6E1,8.6E1,2.3E1,4.4E1,2.67E2,1.13E2,1.2E2,6.1E1,1.08E2,3.7E1,5.87E2,1.23E2,6.94E2,4.25E2,1.198E3,4.62E2,7.5E1,2.8E1,5.1E1,2.5E1,5.5E1,5.1E1,1.66E3,2.568E3,9.9E1,3.99E2,7.705E3,4.572E3,1.21E2,9.3E1,3.24E2,5.6E1,4.7E1,1.71E2,3.571E3,8.54E3],"tree_param":{"num_deleted":"0","num_feature":"30","num_nodes":"127","size_leaf_vector":"1"}},{"base_weights":[-2.4227623E-4,-5.6963205E-2,5.8328133E-2,-1.2962747E-1,-1.3476398E-2,-6.1785676E-2,7.579461E-2,-8.7448396E-2,-1.609659E-1,-2.3274196E-2,7.8844905E-2,-7.5928435E-2,-3.9460707E-2,4.7399938E-2,1.13321625E-1,7.186802E-2,-1.0287999E-1,-2.5473727E-2,-1.7790617E-1,-9.263013E-3,-8.521012E-2,9.496251E-2,-6.478767E-2,-9.438508E-2,-5.908952E-2,-5.8199216E-2,9.767074E-3,2.112109E-3,6.275668E-2,7.729107E-2,1.3778043E-1,-9.6046925E-2,9.531214E-2,-1.684523E-1,-6.487308E-2,-1.945375E-1,8.06035E-2,-9.415416E-2,-1.995878E-1,5.828781E-3,-4.9699765E-2,-2.7742306E-2,-1.0142417E-1,7.2242446E-2,2.3846486E-1,-4.0780183E-2,-1.1643956E-1,-1.2571943E-1,-7.823482E-2,-1.0924689E-1,-4.810984E-2,-7.4526794E-2,1.3114274E-2,-3.6276523E-2,7.63835E-2,-2.643707E-2,1.9797312E-2,8.505292E-2,2.5166303E-2,-1.1423734E-1,9.0439714E-2,2.1251683E-1,1.1118941E-1,-1.928526E-3,-6.2272656E-3,7.7157947E-3,2.5834476E-3,-9.081687E-3,-5.318522E-3,-3.8901896E-3,3.0055267E-3,-1.0955318E-2,-6.198026E-3,2.0315796E-3,7.1961037E-3,-8.342372E-3,3.1465727E-3,-1.06628155E-2,-5.856978E-3,4.4484852E-5,4.713099E-3,-3.6927827E-3,-1.2420106E-3,-4.031484E-3,6.591677E-3,-2.1353867E-4,-5.5648456E-3,8.076922E-3,2.1305068E-3,6.059916E-3,1.3111214E-2,-1.185445E-3,-2.7803262E-3,-4.0712957E-3,-6.626298E-3,-5.1780757E-3,-8.848098E-3,2.0617871E-4,-4.7520674E-3,-4.6280283E-3,-7.2534825E-3,-3.081678E-4,-3.9138533E-3,-5.789099E-3,-3.3980932E-3,5.491379E-3,-4.061565E-3,-8.472686E-3,-4.2231512E-4,9.694865E-5,5.4295645E-3,1.5369329E-3,-3.0117377E-3,7.3265056E-3,4.5328765E-4,-3.120873E-3,4.537455E-3,-4.8271916E-3,1.4998663E-3,-4.115512E-3,-9.15189E-3,-1.0550236E-3,5.2807345E-3,6.6932077E-3,1.1667567E-2,-2.5551494E-3,6.4002234E-3],"categories":[],"categories_nodes":[],"categories_segments":[],"categories_sizes":[],"default_left":[0,0,0,0,0,0,0,0,0,0,0,0,0,0,0,0,0,0,0,0,0,0,0,0,0,0,0,0,0,0,0,0,0,0,0,0,0,0,0,0,0,0,0,0,0,0,0,0,0,0,0,0,0,0,0,0,0,0,0,0,0,0,0,0,0,0,0,0,0,0,0,0,0,0,0,0,0,0,0,0,0,0,0,0,0,0,0,0,0,0,0,0,0,0,0,0,0,0,0,0,0,0,0,0,0,0,0,0,0,0,0,0,0,0,0,0,0,0,0,0,0,0,0,0,0,0,0],"id":1,"left_children":[1,3,5,7,9,11,13,15,17,19,21,23,25,27,29,31,33,35,37,39,41,43,45,47,49,51,53,55,57,59,61,63,65,67,69,71,73,75,77,79,81,83,85,87,89,91,93,95,97,99,101,103,105,107,109,111,113,115,117,119,121,123,125,-1,-1,-1,-1,-1,-1,-1,-1,-1,-1,-1,-1,-1,-1,-1,-1,-1,-1,-1,-1,-1,-1,-1,-1,-1,-1,-1,-1,-1,-1,-1,-1,-1,-1,-1,-1,-1,-1,-1,-1,-1,-1,-1,-1,-1,-1,-1,-1,-1,-1,-1,-1,-1,-1,-1,-1,-1,-1,-1,-1,-1,-1,-1,-1],"loss_changes":[2.3256837E2,1.1237824E2,7.226068E1,1.758603E1,2.0127974E1,1.377718E0,3.203517E1,1.3966797E1,1.752678E1,1.7455788E1,4.948704E0,8.260975E-1,1.5668976E0,1.1905682E1,1.1402618E1,1.9853368E0,1.2891193E1,1.5259426E1,1.2309204E1,1.0012266E1,3.4550438E0,6.2427044E0,2.630986E-1,6.353893E-1,7.668419E-1,1.4331608E0,1.4413158E0,2.1897612E0,1.07124405E1,1.3203903E1,1.530455E1,9.675127E-2,1.1276512E0,1.5346832E0,5.303959E0,5.415888E-1,1.3178465E0,1.5974358E1,6.0515137E0,5.2185516E0,2.6758156E0,6.914179E0,2.77536E0,4.382908E0,6.982002E-1,3.6394194E-2,2.750951E-2,4.7217798E-1,1.1686215E0,1.3660765E-1,1.4572687E0,2.6323938E-1,2.1075504E0,1.0289341E0,4.6014667E-1,3.207715E0,3.64086E0,6.745949E0,2.802289E0,7.251878E-1,8.30114E0,3.2838364E0,1.5537033E1,0E0,0E0,0E0,0E0,0E0,0E0,0E0,0E0,0E0,0E0,0E0,0E0,0E0,0E0,0E0,0E0,0E0,0E0,0E0,0E0,0E0,0E0,0E0,0E0,0E0,0E0,0E0,0E0,0E0,0E0,0E0,0E0,0E0,0E0,0E0,0E0,0E0,0E0,0E0,0E0,0E0,0E0,0E0,0E0,0E0,0E0,0E0,0E0,0E0,0E0,0E0,0E0,0E0,0E0,0E0,0E0,0E0,0E0,0E0,0E0,0E0,0E0,0E0,0E0],"parents":[2147483647,0,0,1,1,2,2,3,3,4,4,5,5,6,6,7,7,8,8,9,9,10,10,11,11,12,12,13,13,14,14,15,15,16,16,17,17,18,18,19,19,20,20,21,21,22,22,23,23,24,24,25,25,26,26,27,27,28,28,29,29,30,30,31,31,32,32,33,33,34,34,35,35,36,36,37,37,38,38,39,39,40,40,41,41,42,42,43,43,44,44,45,45,46,46,47,47,48,48,49,49,50,50,51,51,52,52,53,53,54,54,55,55,56,56,57,57,58,58,59,59,60,60,61,61,62,62],"right_children":[2,4,6,8,10,12,14,16,18,20,22,24,26,28,30,32,34,36,38,40,42,44,46,48,50,52,54,56,58,60,62,64,66,68,70,72,74,76,78,80,82,84,86,88,90,92,94,96,98,100,102,104,106,108,110,112,114,116,118,120,122,124,126,-1,-1,-1,-1,-1,-1,-1,-1,-1,-1,-1,-1,-1,-1,-1,-1,-1,-1,-1,-1,-1,-1,-1,-1,-1,-1,-1,-1,-1,-1,-1,-1,-1,-1,-1,-1,-1,-1,-1,-1,-1,-1,-1,-1,-1,-1,-1,-1,-1,-1,-1,-1,-1,-1,-1,-1,-1,-1,-1,-1,-1,-1,-1,-1],"split_conditions":[1.6608413E-1,-6.218853E-1,-1.290763E0,4.6735922E-1,9.150242E-1,-2.5119007E-1,7.7008545E-1,7E1,1.1E1,7.0710677E-1,7.1E1,6.734452E-1,9.6E1,1.65E2,1.64E2,6.5E1,9.5E1,5E0,-3.4561232E-1,6.551564E-1,-3.4561232E-1,6.6E1,1.2838315E0,1.25E2,-1.3789738E0,-3.1989443E-1,9.8734945E-1,9.5E1,7.0710677E-1,3.536761E-1,7E0,5.70929E-1,-1.2082597E0,6E0,9.8734945E-1,4E0,4.5875635E-2,3.38E2,-7.684789E-1,5.947267E-1,-6.760801E-1,-4.559067E-1,1.1E1,1.1E1,-1.821045E-1,-6.878028E-1,1.430425E0,5E0,1.31E2,1E0,1.31E2,3E0,-1.4934143E0,1.02E2,9.8E1,7.1E1,1E2,-9.990741E-1,-9.990741E-1,7.3276126E-1,9.4E1,-1.2382267E0,1.87E2,-1.928526E-3,-6.2272656E-3,7.7157947E-3,2.5834476E-3,-9.081687E-3,-5.318522E-3,-3.8901896E-3,3.0055267E-3,-1.0955318E-2,-6.198026E-3,2.0315796E-3,7.1961037E-3,-8.342372E-3,3.1465727E-3,-1.06628155E-2,-5.856978E-3,4.4484852E-5,4.713099E-3,-3.6927827E-3,-1.2420106E-3,-4.031484E-3,6.591677E-3,-2.1353867E-4,-5.5648456E-3,8.076922E-3,2.1305068E-3,6.059916E-3,1.3111214E-2,-1.185445E-3,-2.7803262E-3,-4.0712957E-3,-6.626298E-3,-5.1780757E-3,-8.848098E-3,2.0617871E-4,-4.7520674E-3,-4.6280283E-3,-7.2534825E-3,-3.081678E-4,-3.9138533E-3,-5.789099E-3,-3.3980932E-3,5.491379E-3,-4.061565E-3,-8.472686E-3,-4.2231512E-4,9.694865E-5,5.4295645E-3,1.5369329E-3,-3.0117377E-3,7.3265056E-3,4.5328765E-4,-3.120873E-3,4.537455E-3,-4.8271916E-3,1.4998663E-3,-4.115512E-3,-9.15189E-3,-1.0550236E-3,5.2807345E-3,6.6932077E-3,1.1667567E-2,-2.5551494E-3,6.4002234E-3],"split_indices":[11,7,19,29,19,29,11,23,23,27,23,11,23,23,23,23,23,23,28,28,28,23,7,23,19,14,28,23,26,28,22,18,7,20,28,23,19,23,7,28,19,28,23,23,7,10,7,22,23,24,23,22,19,23,23,23,23,29,29,10,23,19,23,0,0,0,0,0,0,0,0,0,0,0,0,0,0,0,0,0,0,0,0,0,0,0,0,0,0,0,0,0,0,0,0,0,0,0,0,0,0,0,0,0,0,0,0,0,0,0,0,0,0,0,0,0,0,0,0,0,0,0,0,0,0,0,0],"split_type":[0,0,0,0,0,0,0,0,0,0,0,0,0,0,0,0,0,0,0,0,0,0,0,0,0,0,0,0,0,0,0,0,0,0,0,0,0,0,0,0,0,0,0,0,0,0,0,0,0,0,0,0,0,0,0,0,0,0,0,0,0,0,0,0,0,0,0,0,0,0,0,0,0,0,0,0,0,0,0,0,0,0,0,0,0,0,0,0,0,0,0,0,0,0,0,0,0,0,0,0,0,0,0,0,0,0,0,0,0,0,0,0,0,0,0,0,0,0,0,0,0,0,0,0,0,0,0],"sum_hessian":[7.0003E4,3.5563E4,3.444E4,1.3314E4,2.2249E4,4.372E3,3.0068E4,5.677E3,7.637E3,2.0115E4,2.134E3,2.675E3,1.697E3,1.7118E4,1.295E4,5.01E2,5.176E3,8.49E2,6.788E3,1.6405E4,3.71E3,1.919E3,2.15E2,1.274E3,1.401E3,1.229E3,4.68E2,4.335E3,1.2783E4,5.238E3,7.712E3,6.1E1,4.4E2,1.898E3,3.278E3,3.27E2,5.22E2,1.397E3,5.391E3,1.1947E4,4.458E3,8.17E2,2.893E3,1.658E3,2.61E2,1.48E2,6.7E1,4.31E2,8.43E2,2.5E2,1.151E3,1E3,2.29E2,2.77E2,1.91E2,1.658E3,2.677E3,8.023E3,4.76E3,3.36E2,4.902E3,2.022E3,5.69E3,2.1E1,4E1,1.86E2,2.54E2,1.564E3,3.34E2,2.971E3,3.07E2,2.41E2,8.6E1,3.21E2,2.01E2,9.55E2,4.42E2,4.623E3,7.68E2,1.1316E4,6.31E2,2.26E3,2.198E3,6.14E2,2.03E2,2.67E2,2.626E3,4.12E2,1.246E3,4.5E1,2.16E2,7E1,7.8E1,2.3E1,4.4E1,3.03E2,1.28E2,1.43E2,7E2,1.73E2,7.7E1,4.82E2,6.69E2,1.35E2,8.65E2,1.13E2,1.16E2,4.7E1,2.3E2,5.8E1,1.33E2,6.16E2,1.042E3,2.08E2,2.469E3,2.98E2,7.725E3,1.81E2,4.579E3,2.31E2,1.05E2,5.87E2,4.315E3,4.25E2,1.597E3,5.34E2,5.156E3],"tree_param":{"num_deleted":"0","num_feature":"30","num_nodes":"127","size_leaf_vector":"1"}},{"base_weights":[2.993736E-4,-5.37005E-2,5.6091283E-2,-1.228506E-1,-1.2074053E-2,-5.9262704E-2,7.284221E-2,-8.258183E-2,-1.5253997E-1,-2.1105966E-2,7.4000485E-2,-8.437126E-2,-4.7349613E-2,4.5355752E-2,1.0908716E-1,6.663526E-2,-9.800702E-2,-2.4143292E-2,-1.689391E-1,-8.531264E-3,-7.696585E-2,8.81761E-2,-6.167576E-2,-1.1002317E-1,-5.16095E-2,-5.6657124E-2,9.681786E-2,1.8099381E-3,6.008113E-2,7.4408814E-2,1.324533E-1,-2.70859E-2,1.0810852E-1,-1.602631E-1,-6.296175E-2,-1.8237157E-1,7.5866625E-2,-8.8813946E-2,-1.892746E-1,6.1406894E-3,-4.6517845E-2,-5.7328947E-2,-1.20524846E-1,6.50798E-2,2.287443E-1,-4.026389E-2,-1.0868503E-1,-9.963717E-2,-1.6072623E-1,-2.8849423E-2,-1.04724444E-1,-8.572274E-2,-3.697179E-2,1.5183347E-1,2.292779E-2,-2.7169468E-2,1.97991E-2,7.974338E-2,2.58712E-2,-1.1026254E-1,8.7017454E-2,2.0299844E-1,1.0649729E-1,-3.366048E-3,1.9243254E-3,9.735847E-3,3.5286613E-3,-8.616772E-3,-5.1309816E-3,-3.7153594E-3,2.625684E-3,-1.0341472E-2,-5.4149707E-3,1.953214E-3,6.8413215E-3,-7.5228587E-3,3.9170063E-3,-1.0119498E-2,-5.61063E-3,5.9561648E-5,5.689454E-3,-3.4259844E-3,-1.1438851E-3,-2.321461E-3,-6.0958876E-3,-1.6577533E-3,-6.7334436E-3,7.713247E-3,1.9132838E-3,7.0865676E-3,1.2788713E-2,-1.1497955E-3,-2.7780512E-3,-9.301326E-3,-4.9318536E-3,-5.825969E-3,-2.2897783E-3,-1.1113624E-2,-6.4767473E-3,-2.695951E-3,1.2946049E-3,-3.649681E-3,-8.401492E-3,-5.1320866E-3,-2.7967968E-3,-2.827273E-3,3.1639627E-4,4.842431E-3,8.762565E-3,-2.2497291E-3,2.2027206E-3,1.2213535E-3,-2.893131E-3,7.4539916E-3,4.7400148E-4,-2.9613834E-3,4.256306E-3,-4.2005936E-3,1.5023752E-3,-3.948551E-3,-8.750587E-3,-8.2980515E-4,5.051613E-3,5.457554E-3,1.0921922E-2,-2.613669E-3,6.1710556E-3],"categories":[],"categories_nodes":[],"categories_segments":[],"categories_sizes":[],"default_left":[0,0,0,0,0,0,0,0,0,0,0,0,0,0,0,0,0,0,0,0,0,0,0,0,0,0,0,0,0,0,0,0,0,0,0,0,0,0,0,0,0,0,0,0,0,0,0,0,0,0,0,0,0,0,0,0,0,0,0,0,0,0,0,0,0,0,0,0,0,0,0,0,0,0,0,0,0,0,0,0,0,0,0,0,0,0,0,0,0,0,0,0,0,0,0,0,0,0,0,0,0,0,0,0,0,0,0,0,0,0,0,0,0,0,0,0,0,0,0,0,0,0,0,0,0,0,0],"id":2,"left_children":[1,3,5,7,9,11,13,15,17,19,21,23,25,27,29,31,33,35,37,39,41,43,45,47,49,51,53,55,57,59,61,63,65,67,69,71,73,75,77,79,81,83,85,87,89,91,93,95,97,99,101,103,105,107,109,111,113,115,117,119,121,123,125,-1,-1,-1,-1,-1,-1,-1,-1,-1,-1,-1,-1,-1,-1,-1,-1,-1,-1,-1,-1,-1,-1,-1,-1,-1,-1,-1,-1,-1,-1,-1,-1,-1,-1,-1,-1,-1,-1,-1,-1,-1,-1,-1,-1,-1,-1,-1,-1,-1,-1,-1,-1,-1,-1,-1,-1,-1,-1,-1,-1,-1,-1,-1,-1],"loss_changes":[2.1079048E2,1.0233973E2,6.649816E1,1.5959991E1,1.7256346E1,1.3013668E0,2.9931213E1,1.3061783E1,1.6185852E1,1.4109588E1,4.059744E0,1.1734047E0,3.9800158E0,1.0959133E1,1.0490814E1,2.070771E0,1.1206451E1,1.381271E1,1.1092331E1,9.1395035E0,3.1502361E0,6.1828814E0,1.9693512E-1,3.9789486E-1,7.440789E-1,1.5891695E0,7.282381E-1,2.2526195E0,8.588947E0,1.2161802E1,1.4152679E1,4.352737E-1,1.1858301E0,1.2704124E0,4.315507E0,5.899372E-1,1.1949086E0,1.4251798E1,5.472458E0,6.3029003E0,2.3748913E0,1.786726E0,1.4117165E0,3.9184198E0,5.964241E-1,3.5439268E-2,2.9832661E-2,5.900359E-1,2.2460914E-1,5.969949E-1,3.5935044E-1,5.602093E-1,1.4081128E0,1.1565256E-1,1.1390987E-1,2.6223712E0,3.555183E0,6.071697E0,2.1423986E0,6.6289663E-1,7.0967484E0,2.991539E0,1.5217606E1,0E0,0E0,0E0,0E0,0E0,0E0,0E0,0E0,0E0,0E0,0E0,0E0,0E0,0E0,0E0,0E0,0E0,0E0,0E0,0E0,0E0,0E0,0E0,0E0,0E0,0E0,0E0,0E0,0E0,0E0,0E0,0E0,0E0,0E0,0E0,0E0,0E0,0E0,0E0,0E0,0E0,0E0,0E0,0E0,0E0,0E0,0E0,0E0,0E0,0E0,0E0,0E0,0E0,0E0,0E0,0E0,0E0,0E0,0E0,0E0,0E0,0E0,0E0,0E0],"parents":[2147483647,0,0,1,1,2,2,3,3,4,4,5,5,6,6,7,7,8,8,9,9,10,10,11,11,12,12,13,13,14,14,15,15,16,16,17,17,18,18,19,19,20,20,21,21,22,22,23,23,24,24,25,25,26,26,27,27,28,28,29,29,30,30,31,31,32,32,33,33,34,34,35,35,36,36,37,37,38,38,39,39,40,40,41,41,42,42,43,43,44,44,45,45,46,46,47,47,48,48,49,49,50,50,51,51,52,52,53,53,54,54,55,55,56,56,57,57,58,58,59,59,60,60,61,61,62,62],"right_children":[2,4,6,8,10,12,14,16,18,20,22,24,26,28,30,32,34,36,38,40,42,44,46,48,50,52,54,56,58,60,62,64,66,68,70,72,74,76,78,80,82,84,86,88,90,92,94,96,98,100,102,104,106,108,110,112,114,116,118,120,122,124,126,-1,-1,-1,-1,-1,-1,-1,-1,-1,-1,-1,-1,-1,-1,-1,-1,-1,-1,-1,-1,-1,-1,-1,-1,-1,-1,-1,-1,-1,-1,-1,-1,-1,-1,-1,-1,-1,-1,-1,-1,-1,-1,-1,-1,-1,-1,-1,-1,-1,-1,-1,-1,-1,-1,-1,-1,-1,-1,-1,-1,-1,-1,-1,-1],"split_conditions":[1.6608413E-1,-6.218853E-1,-1.290763E0,4.6735922E-1,9.150242E-1,7.8029585E-1,7.7008545E-1,7E1,1.1E1,2.1E1,7.1E1,1.46E2,1.27E2,1.65E2,1.64E2,6.6E1,9.5E1,5E0,-3.4561232E-1,6.4862955E-1,2.3E1,6.6E1,1.2838315E0,7.583058E-1,1.52E2,-2.5119007E-1,6E0,9.5E1,9.754485E-1,3.536761E-1,1.82E2,-3.0674362E-1,-5.829105E-1,6E0,9.8734945E-1,4E0,4.5875635E-2,-4.405188E-1,-7.684789E-1,5.947267E-1,-6.760801E-1,3.45E2,-6.450845E-2,1.1E1,-3.551091E-2,-6.878028E-1,-5.345574E-1,1.0269697E0,4.318447E-1,1.0269697E0,1.0269697E0,9.8752594E-1,-1.4317509E0,-3.551091E-2,3.352045E-1,7.1E1,1E2,-9.990741E-1,-9.990741E-1,7.3276126E-1,9.4E1,-1.2469155E0,1.87E2,-3.366048E-3,1.9243254E-3,9.735847E-3,3.5286613E-3,-8.616772E-3,-5.1309816E-3,-3.7153594E-3,2.625684E-3,-1.0341472E-2,-5.4149707E-3,1.953214E-3,6.8413215E-3,-7.5228587E-3,3.9170063E-3,-1.0119498E-2,-5.61063E-3,5.9561648E-5,5.689454E-3,-3.4259844E-3,-1.1438851E-3,-2.321461E-3,-6.0958876E-3,-1.6577533E-3,-6.7334436E-3,7.713247E-3,1.9132838E-3,7.0865676E-3,1.2788713E-2,-1.1497955E-3,-2.7780512E-3,-9.301326E-3,-4.9318536E-3,-5.825969E-3,-2.2897783E-3,-1.1113624E-2,-6.4767473E-3,-2.695951E-3,1.2946049E-3,-3.649681E-3,-8.401492E-3,-5.1320866E-3,-2.7967968E-3,-2.827273E-3,3.1639627E-4,4.842431E-3,8.762565E-3,-2.2497291E-3,2.2027206E-3,1.2213535E-3,-2.893131E-3,7.4539916E-3,4.7400148E-4,-2.9613834E-3,4.256306E-3,-4.2005936E-3,1.5023752E-3,-3.948551E-3,-8.750587E-3,-8.2980515E-4,5.051613E-3,5.457554E-3,1.0921922E-2,-2.613669E-3,6.1710556E-3],"split_indices":[11,7,19,29,19,28,11,23,23,20,23,23,23,23,23,23,23,23,28,28,20,23,7,28,23,29,21,23,9,28,23,14,14,20,28,23,19,28,7,28,19,23,29,23,7,10,11,10,11,10,10,11,19,7,11,23,23,29,29,10,23,19,23,0,0,0,0,0,0,0,0,0,0,0,0,0,0,0,0,0,0,0,0,0,0,0,0,0,0,0,0,0,0,0,0,0,0,0,0,0,0,0,0,0,0,0,0,0,0,0,0,0,0,0,0,0,0,0,0,0,0,0,0,0,0,0,0],"split_type":[0,0,0,0,0,0,0,0,0,0,0,0,0,0,0,0,0,0,0,0,0,0,0,0,0,0,0,0,0,0,0,0,0,0,0,0,0,0,0,0,0,0,0,0,0,0,0,0,0,0,0,0,0,0,0,0,0,0,0,0,0,0,0,0,0,0,0,0,0,0,0,0,0,0,0,0,0,0,0,0,0,0,0,0,0,0,0,0,0,0,0,0,0,0,0,0,0,0,0,0,0,0,0,0,0,0,0,0,0,0,0,0,0,0,0,0,0,0,0,0,0,0,0,0,0,0,0],"sum_hessian":[6.9964E4,3.5553E4,3.4411E4,1.3359E4,2.2194E4,4.363E3,3.0048E4,5.671E3,7.688E3,2.0087E4,2.107E3,1.402E3,2.961E3,1.709E4,1.2958E4,5.31E2,5.14E3,8.71E2,6.817E3,1.6397E4,3.69E3,1.908E3,1.99E2,7.85E2,6.17E2,2.782E3,1.79E2,4.319E3,1.2771E4,5.218E3,7.74E3,1.63E2,3.68E2,1.85E3,3.29E3,3.37E2,5.34E2,1.381E3,5.436E3,1.1829E4,4.568E3,2.545E3,1.145E3,1.64E3,2.68E2,1.38E2,6.1E1,6.54E2,1.31E2,4.33E2,1.84E2,1.122E3,1.66E3,1.02E2,7.7E1,1.654E3,2.665E3,8.109E3,4.662E3,3.33E2,4.885E3,2.08E3,5.66E3,1.01E2,6.2E1,1.1E2,2.58E2,1.528E3,3.22E2,2.996E3,2.94E2,2.52E2,8.5E1,3.34E2,2E2,1.009E3,3.72E2,4.644E3,7.92E2,1.131E4,5.19E2,2.365E3,2.203E3,2.179E3,3.66E2,1.6E2,9.85E2,3.78E2,1.262E3,6.5E1,2.03E2,6.6E1,7.2E1,5E0,5.6E1,4.97E2,1.57E2,4.2E1,8.9E1,2.97E2,1.36E2,1.24E2,6E1,7.14E2,4.08E2,1.143E3,5.17E2,3.2E1,7E1,1.8E1,5.9E1,6.17E2,1.037E3,1.96E2,2.469E3,3.02E2,7.807E3,1.7E2,4.492E3,2.26E2,1.07E2,5.82E2,4.303E3,2.95E2,1.785E3,5.45E2,5.115E3],"tree_param":{"num_deleted":"0","num_feature":"30","num_nodes":"127","size_leaf_vector":"1"}},{"base_weights":[1.1677418E-4,-5.098858E-2,5.2592292E-2,-1.1678487E-1,-1.1953434E-2,-5.5459607E-2,6.844923E-2,-1.3391513E-1,-5.249509E-2,-2.0468112E-2,6.9218226E-2,-7.84819E-2,-4.4672918E-2,4.1242056E-2,1.01279E-1,-2.2052191E-2,-1.4397989E-1,-9.737783E-2,-1.1681751E-2,-8.678496E-3,-7.3612675E-2,8.337214E-2,-5.9170574E-2,-4.357631E-2,-1.0181109E-1,-5.370289E-2,9.824019E-2,1.4875344E-3,5.4926958E-2,-1.6203498E-2,1.0735896E-1,-1.7226774E-1,7.319268E-2,-1.958866E-1,-1.2983577E-1,-3.9368305E-2,-1.0830729E-1,4.44835E-2,-3.1879827E-2,5.1420983E-3,-4.425473E-2,-2.2332324E-2,-8.823055E-2,6.2448565E-2,2.0891476E-1,-3.621553E-2,-1.0870559E-1,-1.8826427E-2,-9.68424E-2,-1.5267158E-1,-9.145049E-2,-3.5380177E-2,-8.1531025E-2,1.4465864E-1,2.8856434E-2,-1.0724979E-1,5.281885E-3,7.5172596E-2,2.205835E-2,-5.6665327E-2,5.878472E-3,1.2063039E-1,7.1439214E-2,-9.840778E-3,-5.2778516E-3,1.7283971E-3,6.965683E-3,-1.0491906E-2,-5.5438345E-3,3.1835989E-3,-7.1021765E-3,-2.0803898E-4,-2.4177495E-3,-4.8047076E-3,-1.0067483E-2,3.4096648E-3,8.1179384E-4,-3.2219538E-3,-1.7633129E-4,3.1828928E-5,5.318837E-3,-3.2711327E-3,-1.1334184E-3,-3.5287363E-3,5.9846523E-3,2.2462905E-4,-4.870924E-3,7.114548E-3,1.861105E-3,1.1490784E-2,5.2206097E-3,-9.996797E-4,-2.4757476E-3,-3.7303416E-3,-6.148021E-3,-2.1140396E-3,2.0690428E-3,-3.413011E-3,-7.920108E-3,-1.1883762E-2,-6.747967E-3,-5.4630274E-3,-2.1087935E-3,-2.6717344E-3,1.9213212E-4,-4.8078746E-3,-2.8286118E-3,5.8198227E-3,1.0363037E-2,-7.891065E-4,3.1089855E-3,-1.0903644E-2,-1.7341318E-3,-1.2042281E-3,1.2408652E-3,5.386377E-3,2.7084982E-3,4.741659E-4,2.4477455E-3,-1.9788044E-3,-3.964237E-3,8.381265E-4,-2.9327685E-3,3.0141107E-3,6.701232E-3,-5.812128E-4,4.16391E-3],"categories":[],"categories_nodes":[],"categories_segments":[],"categories_sizes":[],"default_left":[0,0,0,0,0,0,0,0,0,0,0,0,0,0,0,0,0,0,0,0,0,0,0,0,0,0,0,0,0,0,0,0,0,0,0,0,0,0,0,0,0,0,0,0,0,0,0,0,0,0,0,0,0,0,0,0,0,0,0,0,0,0,0,0,0,0,0,0,0,0,0,0,0,0,0,0,0,0,0,0,0,0,0,0,0,0,0,0,0,0,0,0,0,0,0,0,0,0,0,0,0,0,0,0,0,0,0,0,0,0,0,0,0,0,0,0,0,0,0,0,0,0,0,0,0,0,0],"id":3,"left_children":[1,3,5,7,9,11,13,15,17,19,21,23,25,27,29,31,33,35,37,39,41,43,45,47,49,51,53,55,57,59,61,63,65,67,69,71,73,75,77,79,81,83,85,87,89,91,93,95,97,99,101,103,105,107,109,111,113,115,117,119,121,123,125,-1,-1,-1,-1,-1,-1,-1,-1,-1,-1,-1,-1,-1,-1,-1,-1,-1,-1,-1,-1,-1,-1,-1,-1,-1,-1,-1,-1,-1,-1,-1,-1,-1,-1,-1,-1,-1,-1,-1,-1,-1,-1,-1,-1,-1,-1,-1,-1,-1,-1,-1,-1,-1,-1,-1,-1,-1,-1,-1,-1,-1,-1,-1,-1],"loss_changes":[1.8732771E2,9.088801E1,5.9053444E1,1.4504791E1,1.5353251E1,1.091897E0,2.6840225E1,1.1710419E1,5.0803146E0,1.2595603E1,3.8374166E0,1.1404963E0,3.8845243E0,8.941706E0,9.729645E0,1.2316852E1,6.9822693E0,8.3326817E-1,1.6508794E0,8.0909E0,2.734106E0,4.977873E0,2.3484969E-1,7.4303305E-1,4.2972565E-1,1.4390764E0,5.7232845E-1,1.73756E0,8.13475E0,5.9985614E-1,6.164261E0,5.261831E-1,1.3410921E0,2.3985748E0,1.7735725E1,6.65589E-2,1.243124E0,2.5674474E-1,9.875529E-1,5.405803E0,2.1022615E0,5.565131E0,2.4199314E0,3.2777543E0,5.6792164E-1,3.029266E-2,2.2907019E-2,5.4824144E-1,3.0413997E-1,1.8021345E-1,6.1145496E-1,1.2090151E0,4.0415573E-1,1.6518784E-1,1.0956906E-1,1.134417E0,2.3349254E0,5.1673355E0,1.5763412E0,8.8474214E-2,3.065229E-1,7.6337585E0,3.4388905E0,0E0,0E0,0E0,0E0,0E0,0E0,0E0,0E0,0E0,0E0,0E0,0E0,0E0,0E0,0E0,0E0,0E0,0E0,0E0,0E0,0E0,0E0,0E0,0E0,0E0,0E0,0E0,0E0,0E0,0E0,0E0,0E0,0E0,0E0,0E0,0E0,0E0,0E0,0E0,0E0,0E0,0E0,0E0,0E0,0E0,0E0,0E0,0E0,0E0,0E0,0E0,0E0,0E0,0E0,0E0,0E0,0E0,0E0,0E0,0E0,0E0,0E0,0E0,0E0],"parents":[2147483647,0,0,1,1,2,2,3,3,4,4,5,5,6,6,7,7,8,8,9,9,10,10,11,11,12,12,13,13,14,14,15,15,16,16,17,17,18,18,19,19,20,20,21,21,22,22,23,23,24,24,25,25,26,26,27,27,28,28,29,29,30,30,31,31,32,32,33,33,34,34,35,35,36,36,37,37,38,38,39,39,40,40,41,41,42,42,43,43,44,44,45,45,46,46,47,47,48,48,49,49,50,50,51,51,52,52,53,53,54,54,55,55,56,56,57,57,58,58,59,59,60,60,61,61,62,62],"right_children":[2,4,6,8,10,12,14,16,18,20,22,24,26,28,30,32,34,36,38,40,42,44,46,48,50,52,54,56,58,60,62,64,66,68,70,72,74,76,78,80,82,84,86,88,90,92,94,96,98,100,102,104,106,108,110,112,114,116,118,120,122,124,126,-1,-1,-1,-1,-1,-1,-1,-1,-1,-1,-1,-1,-1,-1,-1,-1,-1,-1,-1,-1,-1,-1,-1,-1,-1,-1,-1,-1,-1,-1,-1,-1,-1,-1,-1,-1,-1,-1,-1,-1,-1,-1,-1,-1,-1,-1,-1,-1,-1,-1,-1,-1,-1,-1,-1,-1,-1,-1,-1,-1,-1,-1,-1,-1],"split_conditions":[1.6608413E-1,7E0,-1.290763E0,-1.9631667E-1,9.150242E-1,7.8029585E-1,6.734452E-1,1.1E1,-5.974947E-1,2.1E1,7.1E1,5.808003E-1,1.27E2,1.65E2,9.5E1,5E0,3.5E1,-9.483616E-1,-2.217821E-1,6.4862955E-1,-3.4561232E-1,6.6E1,1.2838315E0,6E0,1.33E2,-1.4053752E0,6E0,3.536761E-1,7.0710677E-1,8E1,5E0,4E0,4.5875635E-2,6E0,4.2E1,-1.3548533E0,9E0,-9.1507244E-1,4E0,5.947267E-1,-6.760801E-1,-4.559067E-1,1.1E1,1.1E1,-1.3837355E-1,-6.878028E-1,1.430425E0,1.0269697E0,1.0269697E0,-9.1507244E-1,1.0269697E0,-1.4317509E0,9.8752594E-1,8.1153905E-1,-3.551091E-2,-7.684789E-1,9.5E1,8E0,-2.3043647E-1,4E0,6E0,1.33E2,-1.1941727E0,-9.840778E-3,-5.2778516E-3,1.7283971E-3,6.965683E-3,-1.0491906E-2,-5.5438345E-3,3.1835989E-3,-7.1021765E-3,-2.0803898E-4,-2.4177495E-3,-4.8047076E-3,-1.0067483E-2,3.4096648E-3,8.1179384E-4,-3.2219538E-3,-1.7633129E-4,3.1828928E-5,5.318837E-3,-3.2711327E-3,-1.1334184E-3,-3.5287363E-3,5.9846523E-3,2.2462905E-4,-4.870924E-3,7.114548E-3,1.861105E-3,1.1490784E-2,5.2206097E-3,-9.996797E-4,-2.4757476E-3,-3.7303416E-3,-6.148021E-3,-2.1140396E-3,2.0690428E-3,-3.413011E-3,-7.920108E-3,-1.1883762E-2,-6.747967E-3,-5.4630274E-3,-2.1087935E-3,-2.6717344E-3,1.9213212E-4,-4.8078746E-3,-2.8286118E-3,5.8198227E-3,1.0363037E-2,-7.891065E-4,3.1089855E-3,-1.0903644E-2,-1.7341318E-3,-1.2042281E-3,1.2408652E-3,5.386377E-3,2.7084982E-3,4.741659E-4,2.4477455E-3,-1.9788044E-3,-3.964237E-3,8.381265E-4,-2.9327685E-3,3.0141107E-3,6.701232E-3,-5.812128E-4,4.16391E-3],"split_indices":[12,20,19,12,19,28,12,23,19,20,23,28,23,23,23,23,23,28,19,28,28,23,7,22,23,19,21,28,26,23,21,23,19,20,23,7,22,7,21,28,19,28,23,23,15,10,7,10,10,7,10,19,12,28,7,7,23,22,19,21,21,23,19,0,0,0,0,0,0,0,0,0,0,0,0,0,0,0,0,0,0,0,0,0,0,0,0,0,0,0,0,0,0,0,0,0,0,0,0,0,0,0,0,0,0,0,0,0,0,0,0,0,0,0,0,0,0,0,0,0,0,0,0,0,0,0,0],"split_type":[0,0,0,0,0,0,0,0,0,0,0,0,0,0,0,0,0,0,0,0,0,0,0,0,0,0,0,0,0,0,0,0,0,0,0,0,0,0,0,0,0,0,0,0,0,0,0,0,0,0,0,0,0,0,0,0,0,0,0,0,0,0,0,0,0,0,0,0,0,0,0,0,0,0,0,0,0,0,0,0,0,0,0,0,0,0,0,0,0,0,0,0,0,0,0,0,0,0,0,0,0,0,0,0,0,0,0,0,0,0,0,0,0,0,0,0,0,0,0,0,0,0,0,0,0,0,0],"sum_hessian":[6.985E4,3.5387E4,3.4463E4,1.3176E4,2.2211E4,4.41E3,3.0053E4,1.0403E4,2.773E3,2.0103E4,2.108E3,1.405E3,3.005E3,1.6435E4,1.3618E4,8.59E2,9.544E3,1.32E3,1.453E3,1.6454E4,3.649E3,1.899E3,2.09E2,5.64E2,8.41E2,2.827E3,1.78E2,4.209E3,1.2226E4,6.7E2,1.2948E4,3.33E2,5.26E2,2.041E3,7.503E3,2.1E2,1.11E3,3.84E2,1.069E3,1.1851E4,4.603E3,8.1E2,2.839E3,1.629E3,2.7E2,1.44E2,6.5E1,3.86E2,1.78E2,1.4E2,7.01E2,1.706E3,1.121E3,1.06E2,7.2E1,1.41E2,4.068E3,7.565E3,4.661E3,2.36E2,4.34E2,9.453E3,3.495E3,2.42E2,9.1E1,3.33E2,1.93E2,1.752E3,2.89E2,4.45E2,7.058E3,4.3E1,1.67E2,9.83E2,1.27E2,2.08E2,1.76E2,4.97E2,5.72E2,1.1347E4,5.04E2,2.323E3,2.28E3,6.05E2,2.05E2,2.56E2,2.583E3,3.9E2,1.239E3,2.24E2,4.6E1,6.6E1,7.8E1,2.1E1,4.4E1,2.78E2,1.08E2,1.23E2,5.5E1,2.2E1,1.18E2,5.14E2,1.87E2,1.168E3,5.38E2,7.05E2,4.16E2,7.5E1,3.1E1,3.1E1,4.1E1,5.5E1,8.6E1,1.625E3,2.443E3,2.965E3,4.6E3,3.177E3,1.484E3,1.36E2,1E2,3.72E2,6.2E1,1.718E3,7.735E3,4.36E2,3.059E3],"tree_param":{"num_deleted":"0","num_feature":"30","num_nodes":"127","size_leaf_vector":"1"}},{"base_weights":[3.9420632E-4,-4.9090855E-2,4.9590193E-2,-1.1256847E-1,-1.1547536E-2,-5.090952E-2,6.511745E-2,-1.0218839E-1,-1.996419E-1,-2.0032626E-2,6.789136E-2,-5.3896446E-2,1.8892236E-1,4.46033E-2,1.0646288E-1,-1.0899511E-1,6.968922E-2,-2.1501938E-1,-1.0219865E-1,-8.2723005E-3,-7.2499484E-2,8.094496E-2,-5.6877777E-2,-3.7231058E-2,-6.408657E-2,2.4968857E-1,8.559603E-2,5.3895134E-3,5.7902496E-2,5.868508E-2,1.2098023E-1,-1.2533988E-1,-5.516891E-2,1.1398987E-1,-3.40919E-2,-2.2174467E-1,-1.801711E-1,-6.786277E-3,-8.325914E-2,1.0631051E-2,-2.4830125E-2,-5.4288108E-2,-1.1358584E-1,6.087684E-2,2.0358929E-1,-3.3902433E-2,-1.03359126E-1,-5.2565992E-2,2.047022E-3,-7.9782076E-2,-4.9103126E-2,1.3587785E-2,9.1454E-3,5.6210323E-3,3.475777E-3,1.4682222E-2,-5.2989986E-2,7.610264E-2,2.3895718E-2,7.455298E-2,-3.538817E-2,1.4015959E-1,6.6949636E-2,-1.2590999E-3,-6.8269544E-3,-4.847254E-3,-8.2684524E-4,8.289743E-3,3.5730738E-3,-3.8041223E-3,2.9792462E-4,-9.850281E-3,-1.1404014E-2,-9.960115E-3,-8.522659E-3,-3.7058634E-3,-7.0167235E-3,-5.880372E-4,1.4213021E-3,-2.4608984E-3,-6.7384745E-4,1.5372339E-3,-3.058559E-3,-7.2945952E-3,-4.3594292E-3,7.1208305E-3,1.78697E-3,5.28711E-3,1.1272299E-2,-3.980356E-3,-1.4002558E-3,-7.767342E-3,-4.621258E-3,-3.326434E-3,4.0701465E-4,1.0826637E-3,-8.28883E-3,-5.4442654E-3,-3.351833E-3,-2.7409352E-3,1.3385314E-3,-1.1626739E-3,2.1725537E-3,-6.0439385E-3,-3.1557583E-4,5.230058E-3,2.8567803E-3,3.2708198E-3,7.362025E-4,-1.0140217E-4,4.625072E-3,-1.9078594E-4,-6.655135E-3,3.9101234E-3,7.855247E-3,8.481442E-3,2.5905946E-3],"categories":[],"categories_nodes":[],"categories_segments":[],"categories_sizes":[],"default_left":[0,0,0,0,0,0,0,0,0,0,0,0,0,0,0,0,0,0,0,0,0,0,0,0,0,0,0,0,0,0,0,0,0,0,0,0,0,0,0,0,0,0,0,0,0,0,0,0,0,0,0,0,0,0,0,0,0,0,0,0,0,0,0,0,0,0,0,0,0,0,0,0,0,0,0,0,0,0,0,0,0,0,0,0,0,0,0,0,0,0,0,0,0,0,0,0,0,0,0,0,0,0,0,0,0,0,0,0,0,0,0,0,0,0,0,0,0],"id":4,"left_children":[1,3,5,7,9,11,13,15,17,19,21,23,25,27,29,31,33,35,37,39,41,43,45,47,49,51,53,55,57,59,61,63,65,67,69,71,73,-1,75,77,79,81,83,85,87,89,91,93,95,97,99,-1,-1,-1,-1,101,103,105,107,109,111,113,115,-1,-1,-1,-1,-1,-1,-1,-1,-1,-1,-1,-1,-1,-1,-1,-1,-1,-1,-1,-1,-1,-1,-1,-1,-1,-1,-1,-1,-1,-1,-1,-1,-1,-1,-1,-1,-1,-1,-1,-1,-1,-1,-1,-1,-1,-1,-1,-1,-1,-1,-1,-1,-1,-1],"loss_changes":[1.7037126E2,8.3144775E1,5.4766953E1,1.1698639E1,1.477915E1,3.3749266E0,2.5777832E1,1.3563477E1,2.0458565E0,1.2222094E1,3.4509048E0,7.855892E-1,3.427949E-1,1.0596287E1,6.9844513E0,9.799072E0,2.036012E0,2.391777E-1,1.0934651E-1,5.0655165E0,2.707695E0,4.7033463E0,2.111488E-1,1.0620093E0,6.7290974E-1,3.3454895E-3,2.106145E-3,2.7930443E0,9.389179E0,3.512083E0,8.001007E0,9.585876E0,4.1913037E0,6.7113924E-1,2.2412445E-1,1.1086655E-1,2.6640892E-3,0E0,5.4298937E-2,3.0115097E0,2.3879762E0,1.4738779E0,9.3643665E-1,3.372818E0,5.514469E-1,3.442736E-2,2.315855E-2,1.0753276E0,1.6356239E0,5.134907E-1,6.4111876E-1,0E0,0E0,0E0,0E0,4.8477693E0,2.2396805E0,5.3361053E0,2.013923E0,2.7657042E0,1.0484219E0,5.9762573E0,3.141842E0,0E0,0E0,0E0,0E0,0E0,0E0,0E0,0E0,0E0,0E0,0E0,0E0,0E0,0E0,0E0,0E0,0E0,0E0,0E0,0E0,0E0,0E0,0E0,0E0,0E0,0E0,0E0,0E0,0E0,0E0,0E0,0E0,0E0,0E0,0E0,0E0,0E0,0E0,0E0,0E0,0E0,0E0,0E0,0E0,0E0,0E0,0E0,0E0,0E0,0E0,0E0,0E0,0E0,0E0],"parents":[2147483647,0,0,1,1,2,2,3,3,4,4,5,5,6,6,7,7,8,8,9,9,10,10,11,11,12,12,13,13,14,14,15,15,16,16,17,17,18,18,19,19,20,20,21,21,22,22,23,23,24,24,25,25,26,26,27,27,28,28,29,29,30,30,31,31,32,32,33,33,34,34,35,35,36,36,38,38,39,39,40,40,41,41,42,42,43,43,44,44,45,45,46,46,47,47,48,48,49,49,50,50,55,55,56,56,57,57,58,58,59,59,60,60,61,61,62,62],"right_children":[2,4,6,8,10,12,14,16,18,20,22,24,26,28,30,32,34,36,38,40,42,44,46,48,50,52,54,56,58,60,62,64,66,68,70,72,74,-1,76,78,80,82,84,86,88,90,92,94,96,98,100,-1,-1,-1,-1,102,104,106,108,110,112,114,116,-1,-1,-1,-1,-1,-1,-1,-1,-1,-1,-1,-1,-1,-1,-1,-1,-1,-1,-1,-1,-1,-1,-1,-1,-1,-1,-1,-1,-1,-1,-1,-1,-1,-1,-1,-1,-1,-1,-1,-1,-1,-1,-1,-1,-1,-1,-1,-1,-1,-1,-1,-1,-1,-1],"split_conditions":[9.360397E-2,-6.218853E-1,-1.2821001E0,3.45E2,9.150242E-1,1.58E2,8.908857E-1,3.38E2,-7.684789E-1,2.1E1,7.1E1,-1.4053752E0,9.754485E-1,1.64E2,1.33E2,-2.4463677E-1,5E0,-9.1507244E-1,-1.5830716E-2,-6.878028E-1,2.3E1,6.6E1,1.2838315E0,9.6E1,6.734452E-1,3.4399253E-1,-7.684789E-1,6E0,7.0710677E-1,3.5177246E-2,5E0,1.1E1,-5.974947E-1,-1.2082597E0,6E0,-1.5014468E0,-8.0784637E-1,-6.786277E-3,6E0,-6.002958E-2,-7.992092E-1,1.1E1,6.4E1,1.1E1,-1.821045E-1,7.2E1,-1.0558201E0,-3.1989443E-1,6E0,1.25E2,1.2527238E0,1.3587785E-2,9.1454E-3,5.6210323E-3,3.475777E-3,9.5E1,1.56E2,8E0,7E0,9.5E1,3.9014825E-1,-1.132879E0,6E0,-1.2590999E-3,-6.8269544E-3,-4.847254E-3,-8.2684524E-4,8.289743E-3,3.5730738E-3,-3.8041223E-3,2.9792462E-4,-9.850281E-3,-1.1404014E-2,-9.960115E-3,-8.522659E-3,-3.7058634E-3,-7.0167235E-3,-5.880372E-4,1.4213021E-3,-2.4608984E-3,-6.7384745E-4,1.5372339E-3,-3.058559E-3,-7.2945952E-3,-4.3594292E-3,7.1208305E-3,1.78697E-3,5.28711E-3,1.1272299E-2,-3.980356E-3,-1.4002558E-3,-7.767342E-3,-4.621258E-3,-3.326434E-3,4.0701465E-4,1.0826637E-3,-8.28883E-3,-5.4442654E-3,-3.351833E-3,-2.7409352E-3,1.3385314E-3,-1.1626739E-3,2.1725537E-3,-6.0439385E-3,-3.1557583E-4,5.230058E-3,2.8567803E-3,3.2708198E-3,7.362025E-4,-1.0140217E-4,4.625072E-3,-1.9078594E-4,-6.655135E-3,3.9101234E-3,7.855247E-3,8.481442E-3,2.5905946E-3],"split_indices":[12,7,19,23,19,23,12,23,7,20,23,19,9,23,23,12,21,7,19,10,20,23,7,23,12,9,7,22,26,14,21,23,19,7,21,7,19,0,21,15,19,23,23,23,7,23,0,14,21,23,10,0,0,0,0,23,23,22,22,23,10,19,22,0,0,0,0,0,0,0,0,0,0,0,0,0,0,0,0,0,0,0,0,0,0,0,0,0,0,0,0,0,0,0,0,0,0,0,0,0,0,0,0,0,0,0,0,0,0,0,0,0,0,0,0,0,0],"split_type":[0,0,0,0,0,0,0,0,0,0,0,0,0,0,0,0,0,0,0,0,0,0,0,0,0,0,0,0,0,0,0,0,0,0,0,0,0,0,0,0,0,0,0,0,0,0,0,0,0,0,0,0,0,0,0,0,0,0,0,0,0,0,0,0,0,0,0,0,0,0,0,0,0,0,0,0,0,0,0,0,0,0,0,0,0,0,0,0,0,0,0,0,0,0,0,0,0,0,0,0,0,0,0,0,0,0,0,0,0,0,0,0,0,0,0,0,0],"sum_hessian":[6.9981E4,3.4888E4,3.5093E4,1.2965E4,2.1923E4,4.696E3,3.0397E4,1.1586E4,1.379E3,1.9808E4,2.115E3,4.639E3,5.7E1,2.0318E4,1.0079E4,1.1145E4,4.41E2,1.19E3,1.89E2,1.6182E4,3.626E3,1.915E3,2E2,1.762E3,2.877E3,3.5E1,2.2E1,5.146E3,1.5172E4,2.35E3,7.729E3,8.548E3,2.597E3,3.09E2,1.32E2,9.93E2,1.97E2,6.6E1,1.23E2,7.556E3,8.626E3,2.514E3,1.112E3,1.647E3,2.68E2,1.35E2,6.5E1,1.267E3,4.95E2,1.403E3,1.474E3,2.4E1,1.1E1,6E0,1.6E1,4.44E3,7.06E2,9.882E3,5.29E3,2.011E3,3.39E2,5.703E3,2.026E3,8.6E2,7.688E3,1.247E3,1.35E3,1.38E2,1.71E2,6.4E1,6.8E1,2.09E2,7.84E2,6E1,1.37E2,1.08E2,1.5E1,3.346E3,4.21E3,2.739E3,5.887E3,1.88E2,2.326E3,4.98E2,6.14E2,3.87E2,1.26E3,5E1,2.18E2,1.4E1,1.21E2,9E0,5.6E1,1.03E3,2.37E2,4.44E2,5.1E1,4.25E2,9.78E2,1.371E3,1.03E2,1.915E3,2.525E3,2.87E2,4.19E2,3.947E3,5.935E3,9.56E2,4.334E3,3.82E2,1.629E3,2.57E2,8.2E1,1.226E3,4.477E3,2.59E2,1.767E3],"tree_param":{"num_deleted":"0","num_feature":"30","num_nodes":"117","size_leaf_vector":"1"}},{"base_weights":[2.2080941E-4,-4.1376907E-2,5.3510707E-2,-9.576336E-2,-8.429041E-3,-4.8242275E-2,6.8287276E-2,-1.2146189E-1,-3.5457052E-2,1.9309493E-2,-2.5453396E-2,-5.9475325E-2,-2.8512431E-2,4.8482545E-2,9.9584505E-2,-2.0097768E-2,-1.3049096E-1,-7.9162605E-2,-8.1812526E-4,1.1135048E-2,9.515493E-2,-6.675329E-2,-1.53740235E-2,-4.727175E-2,-8.281935E-2,-4.502862E-2,1.1644612E-2,9.565613E-3,6.1437186E-2,-1.05480656E-1,1.0328121E-1,-1.6260321E-1,6.93131E-2,-1.1416262E-1,-1.8205723E-1,-1.0300673E-1,-4.5864783E-2,-2.1454005E-1,5.14117E-3,2.5523586E-2,-2.6432246E-2,1.08550824E-1,-2.283024E-2,-4.0720254E-2,-8.604424E-2,-5.839252E-3,-6.8501994E-2,2.8899044E-2,-6.963735E-2,-1.0036364E-1,-5.4559607E-2,-5.976985E-2,1.3141469E-2,3.0467795E-2,-7.529656E-3,-1.5537077E-1,1.4630502E-2,-2.8116819E-2,6.815306E-2,-2.524014E-1,-5.888495E-2,1.5133907E-1,8.361413E-2,-9.258124E-3,-4.9486933E-3,1.9263605E-3,6.3635143E-3,-6.272903E-3,3.1848922E-3,-9.801977E-3,-4.8910757E-3,-4.9879737E-3,-1.1908862E-2,-1.4020848E-5,-3.8188917E-3,-1.1979487E-2,-5.586425E-3,2.297568E-3,-7.935736E-4,3.1343463E-4,2.415147E-3,-5.512983E-4,-3.5143092E-3,4.5357267E-3,1.0848163E-2,-7.9829834E-4,-3.0211965E-3,-2.5265696E-3,4.5594713E-3,-5.5422406E-3,-3.257983E-3,-6.16928E-4,7.0770727E-3,-2.5879105E-3,-7.5650373E-3,-1.5328167E-3,4.9956287E-3,-4.7138706E-3,-1.9526382E-3,-7.011305E-3,-4.359605E-3,-4.1031805E-3,-1.8566772E-3,-5.010779E-3,-2.6510188E-3,4.480737E-3,-3.0987232E-3,3.8400893E-3,-2.4056887E-4,-3.6067923E-3,-1.0328475E-2,-1.0178991E-3,1.6059611E-3,6.2989085E-3,-4.8033968E-3,5.1678475E-3,2.2427335E-3,-1.305058E-2,-6.65199E-3,-8.397528E-4,-3.7986927E-3,9.548055E-3,4.9163788E-3,-1.8402567E-3,4.5123966E-3],"categories":[],"categories_nodes":[],"categories_segments":[],"categories_sizes":[],"default_left":[0,0,0,0,0,0,0,0,0,0,0,0,0,0,0,0,0,0,0,0,0,0,0,0,0,0,0,0,0,0,0,0,0,0,0,0,0,0,0,0,0,0,0,0,0,0,0,0,0,0,0,0,0,0,0,0,0,0,0,0,0,0,0,0,0,0,0,0,0,0,0,0,0,0,0,0,0,0,0,0,0,0,0,0,0,0,0,0,0,0,0,0,0,0,0,0,0,0,0,0,0,0,0,0,0,0,0,0,0,0,0,0,0,0,0,0,0,0,0,0,0,0,0,0,0],"id":5,"left_children":[1,3,5,7,9,11,13,15,17,19,21,23,25,27,29,31,33,35,37,39,41,43,45,47,49,51,53,55,57,59,61,63,65,67,69,71,73,75,77,79,81,83,85,87,89,91,93,95,97,99,101,103,105,107,-1,109,111,113,115,117,119,121,123,-1,-1,-1,-1,-1,-1,-1,-1,-1,-1,-1,-1,-1,-1,-1,-1,-1,-1,-1,-1,-1,-1,-1,-1,-1,-1,-1,-1,-1,-1,-1,-1,-1,-1,-1,-1,-1,-1,-1,-1,-1,-1,-1,-1,-1,-1,-1,-1,-1,-1,-1,-1,-1,-1,-1,-1,-1,-1,-1,-1,-1,-1],"loss_changes":[1.5485689E2,7.03015E1,4.6049812E1,2.2934021E1,1.1538504E1,8.591013E-1,1.6570755E1,9.495575E0,6.697489E0,5.7605467E0,6.3018236E0,7.008791E-1,9.3635786E-1,8.257473E0,7.866722E0,1.0841577E1,8.002563E0,1.548255E0,3.1457007E0,4.5357924E0,1.4312658E0,1.4880362E0,6.1654854E0,2.7737784E0,4.149599E-1,8.5828424E-1,1.2627664E0,3.4206657E0,7.392929E0,1.2447786E0,9.609047E0,4.5249557E-1,9.282665E-1,1.4553261E1,2.6780014E0,4.761839E-1,1.1377494E0,1.4578271E-1,2.0613737E0,2.660768E0,1.5693798E0,1.5504627E0,2.3034234E-2,1.643045E0,8.758812E-1,9.887948E0,2.5597143E0,1.5678809E0,9.4435453E-1,2.618494E-1,1.5367931E-1,2.1253014E-1,1.1716591E0,6.0518074E-1,0E0,5.050049E-1,2.4305239E0,8.996158E0,9.371822E0,1.0494709E-2,1.0014105E-1,6.187973E0,5.775715E0,0E0,0E0,0E0,0E0,0E0,0E0,0E0,0E0,0E0,0E0,0E0,0E0,0E0,0E0,0E0,0E0,0E0,0E0,0E0,0E0,0E0,0E0,0E0,0E0,0E0,0E0,0E0,0E0,0E0,0E0,0E0,0E0,0E0,0E0,0E0,0E0,0E0,0E0,0E0,0E0,0E0,0E0,0E0,0E0,0E0,0E0,0E0,0E0,0E0,0E0,0E0,0E0,0E0,0E0,0E0,0E0,0E0,0E0,0E0,0E0,0E0,0E0],"parents":[2147483647,0,0,1,1,2,2,3,3,4,4,5,5,6,6,7,7,8,8,9,9,10,10,11,11,12,12,13,13,14,14,15,15,16,16,17,17,18,18,19,19,20,20,21,21,22,22,23,23,24,24,25,25,26,26,27,27,28,28,29,29,30,30,31,31,32,32,33,33,34,34,35,35,36,36,37,37,38,38,39,39,40,40,41,41,42,42,43,43,44,44,45,45,46,46,47,47,48,48,49,49,50,50,51,51,52,52,53,53,55,55,56,56,57,57,58,58,59,59,60,60,61,61,62,62],"right_children":[2,4,6,8,10,12,14,16,18,20,22,24,26,28,30,32,34,36,38,40,42,44,46,48,50,52,54,56,58,60,62,64,66,68,70,72,74,76,78,80,82,84,86,88,90,92,94,96,98,100,102,104,106,108,-1,110,112,114,116,118,120,122,124,-1,-1,-1,-1,-1,-1,-1,-1,-1,-1,-1,-1,-1,-1,-1,-1,-1,-1,-1,-1,-1,-1,-1,-1,-1,-1,-1,-1,-1,-1,-1,-1,-1,-1,-1,-1,-1,-1,-1,-1,-1,-1,-1,-1,-1,-1,-1,-1,-1,-1,-1,-1,-1,-1,-1,-1,-1,-1,-1,-1,-1,-1],"split_conditions":[2.868844E-1,-6.218853E-1,-1.290763E0,-2.4463677E-1,-5E-1,-2.5119007E-1,8.667257E-1,1.1E1,-5.974947E-1,9.150242E-1,-1.2469155E0,8.498171E-1,9.6E1,1.64E2,-9.9966663E-1,5E0,9.413173E-1,1.63E2,-9.9966663E-1,6.4862955E-1,1.0691955E0,4.2E1,3.45E2,1.31E2,9.8752594E-1,-1.0785012E0,6E0,3.536761E-1,-9.970012E-1,-6.218853E-1,-9.441875E-1,4E0,4.5875635E-2,3.38E2,6E0,1.59E2,2.44E2,-7.684789E-1,-2.217821E-1,4.8837823E-1,2.5767627E-1,6.6E1,2.5767627E-1,3.8E1,8.543222E-1,3.4E2,8.660254E-1,1.27E2,1.46E2,8.758917E-1,-1.3789738E0,-1.5109378E0,-1.4934143E0,1.02E2,-7.529656E-3,2.5881904E-1,9.5E1,1.82E2,2.13E2,-7.684789E-1,2.5767627E-1,1.82E2,-9.3228924E-1,-9.258124E-3,-4.9486933E-3,1.9263605E-3,6.3635143E-3,-6.272903E-3,3.1848922E-3,-9.801977E-3,-4.8910757E-3,-4.9879737E-3,-1.1908862E-2,-1.4020848E-5,-3.8188917E-3,-1.1979487E-2,-5.586425E-3,2.297568E-3,-7.935736E-4,3.1343463E-4,2.415147E-3,-5.512983E-4,-3.5143092E-3,4.5357267E-3,1.0848163E-2,-7.9829834E-4,-3.0211965E-3,-2.5265696E-3,4.5594713E-3,-5.5422406E-3,-3.257983E-3,-6.16928E-4,7.0770727E-3,-2.5879105E-3,-7.5650373E-3,-1.5328167E-3,4.9956287E-3,-4.7138706E-3,-1.9526382E-3,-7.011305E-3,-4.359605E-3,-4.1031805E-3,-1.8566772E-3,-5.010779E-3,-2.6510188E-3,4.480737E-3,-3.0987232E-3,3.8400893E-3,-2.4056887E-4,-3.6067923E-3,-1.0328475E-2,-1.0178991E-3,1.6059611E-3,6.2989085E-3,-4.8033968E-3,5.1678475E-3,2.2427335E-3,-1.305058E-2,-6.65199E-3,-8.397528E-4,-3.7986927E-3,9.548055E-3,4.9163788E-3,-1.8402567E-3,4.5123966E-3],"split_indices":[11,7,19,11,27,29,11,23,19,19,19,28,23,23,29,23,29,23,29,28,19,23,23,23,11,15,21,28,29,7,29,23,19,23,20,23,23,7,19,15,7,23,7,23,28,23,27,23,23,28,19,19,19,23,0,27,23,23,23,7,7,23,29,0,0,0,0,0,0,0,0,0,0,0,0,0,0,0,0,0,0,0,0,0,0,0,0,0,0,0,0,0,0,0,0,0,0,0,0,0,0,0,0,0,0,0,0,0,0,0,0,0,0,0,0,0,0,0,0,0,0,0,0,0,0],"split_type":[0,0,0,0,0,0,0,0,0,0,0,0,0,0,0,0,0,0,0,0,0,0,0,0,0,0,0,0,0,0,0,0,0,0,0,0,0,0,0,0,0,0,0,0,0,0,0,0,0,0,0,0,0,0,0,0,0,0,0,0,0,0,0,0,0,0,0,0,0,0,0,0,0,0,0,0,0,0,0,0,0,0,0,0,0,0,0,0,0,0,0,0,0,0,0,0,0,0,0,0,0,0,0,0,0,0,0,0,0,0,0,0,0,0,0,0,0,0,0,0,0,0,0,0,0],"sum_hessian":[6.9856E4,3.9232E4,3.0624E4,1.48E4,2.4432E4,3.883E3,2.6741E4,1.0377E4,4.423E3,9.292E3,1.514E4,2.473E3,1.41E3,1.6379E4,1.0362E4,8.49E2,9.528E3,1.955E3,2.468E3,8.389E3,9.03E2,2.969E3,1.2171E4,1.626E3,8.47E2,9.99E2,4.11E2,4.091E3,1.2288E4,1.83E2,1.0179E4,3.27E2,5.22E2,7.239E3,2.289E3,1.138E3,8.17E2,6.6E1,2.402E3,6.066E3,2.323E3,8.11E2,9.2E1,1.265E3,1.704E3,1.032E4,1.851E3,3.69E2,1.257E3,5.21E2,3.26E2,7.97E2,2.02E2,3.69E2,4.2E1,1.21E2,3.97E3,8.57E2,1.1431E4,4.3E1,1.4E2,2.954E3,7.225E3,2.4E2,8.7E1,3.42E2,1.8E2,6.807E3,4.32E2,1.962E3,3.27E2,1.113E3,2.5E1,3.28E2,4.89E2,5.2E1,1.4E1,8.16E2,1.586E3,3.288E3,2.778E3,1.72E3,6.03E2,6.98E2,1.13E2,7.9E1,1.3E1,1.178E3,8.7E1,7.77E2,9.27E2,9.885E3,4.35E2,1.541E3,3.1E2,2.01E2,1.68E2,6.95E2,5.62E2,1.27E2,3.94E2,1.25E2,2.01E2,1.12E2,6.85E2,1E2,1.02E2,1.59E2,2.1E2,4.7E1,7.4E1,1.323E3,2.647E3,2.62E2,5.95E2,4.551E3,6.88E3,3.9E1,4E0,4.1E1,9.9E1,1.689E3,1.265E3,3.77E2,6.848E3],"tree_param":{"num_deleted":"0","num_feature":"30","num_nodes":"125","size_leaf_vector":"1"}},{"base_weights":[3.7063978E-4,-3.918532E-2,5.1264763E-2,-9.0462886E-2,-8.116506E-3,-4.2315386E-2,6.558282E-2,-3.0550405E-2,-1.13605484E-1,-1.4716658E-2,5.912965E-2,-4.5156717E-2,1.859512E-1,4.676494E-2,9.534295E-2,-8.042251E-2,-1.2325733E-3,-1.7460696E-2,-1.22102045E-1,-1.4735664E-4,-4.961721E-2,7.444273E-2,-5.263617E-2,-3.5626784E-2,-6.325779E-2,1.22080585E-2,1.1271702E-1,9.32925E-3,5.859877E-2,-1.0173875E-1,9.8715276E-2,-6.565752E-3,-9.569E-2,-2.0456481E-1,4.3870434E-3,-1.5561323E-1,6.617674E-2,-1.06657304E-1,-1.7246743E-1,1.0928784E-2,-4.344495E-2,-7.8781895E-2,-2.835503E-2,5.5804536E-2,1.8834321E-1,-3.6146056E-2,-9.610778E-2,-4.4430204E-2,9.756118E-2,-3.8175512E-2,-8.518271E-2,1.2811908E-1,2.8504631E-3,-1.4463478E-1,1.4469796E-2,-2.3216998E-2,6.483826E-2,-2.3557614E-1,-5.284611E-2,6.643618E-2,1.2431085E-1,-5.7911268E-3,7.361032E-4,-5.351561E-3,-2.5425266E-4,-1.1240668E-2,-5.3756316E-3,-2.4642184E-5,9.632583E-3,-8.842918E-3,-4.916952E-3,4.1227895E-3,-2.4255186E-3,-5.861922E-3,2.9312568E-3,-9.280289E-3,-4.6110847E-3,1.2146765E-4,7.0998757E-3,3.9679484E-4,-3.6704165E-3,-1.7645191E-3,-5.308704E-3,1.9789052E-3,-2.8934649E-3,6.5908986E-3,1.5525464E-3,1.3732676E-2,8.145369E-3,-1.3523398E-3,-2.7032073E-3,-8.326524E-3,-4.418341E-3,-3.3515815E-3,-1.4225045E-3,7.2839293E-3,1.4949333E-3,-4.2563278E-4,-3.612971E-3,-3.9312593E-3,-7.882224E-3,6.7951554E-3,2.194899E-3,-3.5329584E-3,-9.783139E-3,-1.0417833E-3,1.6061896E-3,6.1158556E-3,-4.601243E-3,4.85832E-3,2.146392E-3,-1.2350459E-2,-6.829537E-3,-5.8049354E-4,-3.6072917E-3,-5.289739E-3,3.9483965E-3,9.129872E-3,4.9606226E-3],"categories":[],"categories_nodes":[],"categories_segments":[],"categories_sizes":[],"default_left":[0,0,0,0,0,0,0,0,0,0,0,0,0,0,0,0,0,0,0,0,0,0,0,0,0,0,0,0,0,0,0,0,0,0,0,0,0,0,0,0,0,0,0,0,0,0,0,0,0,0,0,0,0,0,0,0,0,0,0,0,0,0,0,0,0,0,0,0,0,0,0,0,0,0,0,0,0,0,0,0,0,0,0,0,0,0,0,0,0,0,0,0,0,0,0,0,0,0,0,0,0,0,0,0,0,0,0,0,0,0,0,0,0,0,0,0,0,0,0],"id":6,"left_children":[1,3,5,7,9,11,13,15,17,19,21,23,25,27,29,31,33,35,37,39,41,43,45,47,49,-1,51,53,55,57,59,61,63,65,67,69,71,73,75,77,79,81,83,85,87,89,91,93,95,97,99,101,-1,103,105,107,109,111,113,115,117,-1,-1,-1,-1,-1,-1,-1,-1,-1,-1,-1,-1,-1,-1,-1,-1,-1,-1,-1,-1,-1,-1,-1,-1,-1,-1,-1,-1,-1,-1,-1,-1,-1,-1,-1,-1,-1,-1,-1,-1,-1,-1,-1,-1,-1,-1,-1,-1,-1,-1,-1,-1,-1,-1,-1,-1,-1,-1],"loss_changes":[1.4050891E2,6.2564796E1,4.0900116E1,2.0540749E1,1.0855296E1,2.6358E0,1.4821022E1,6.0385475E0,8.728912E0,1.1324276E1,3.7452106E0,6.8809986E-1,1.8562675E-1,7.1850395E0,6.825096E0,1.7234821E0,2.9740708E0,1.00513525E1,7.6203766E0,7.535961E0,4.065033E0,4.071825E0,1.8577498E-1,3.0809987E0,7.550974E-1,0E0,1.32884085E-2,3.086409E0,6.2927628E0,1.1196043E0,8.32151E0,6.1340064E-1,1.3013878E0,1.1339116E-1,2.3271875E0,3.817172E-1,1.015912E0,1.3154915E1,2.4109192E0,1.3939257E1,4.9286613E0,3.2902737E0,7.611253E0,3.1080847E0,5.4800797E-1,3.000471E-2,2.4534225E-2,8.8730145E-1,5.263308E-1,6.514967E-1,3.3685493E-1,5.83452E-3,0E0,4.6180296E-1,2.3516908E0,8.763396E0,8.106838E0,1.831913E-2,1.01030946E-1,9.636776E0,8.206314E0,0E0,0E0,0E0,0E0,0E0,0E0,0E0,0E0,0E0,0E0,0E0,0E0,0E0,0E0,0E0,0E0,0E0,0E0,0E0,0E0,0E0,0E0,0E0,0E0,0E0,0E0,0E0,0E0,0E0,0E0,0E0,0E0,0E0,0E0,0E0,0E0,0E0,0E0,0E0,0E0,0E0,0E0,0E0,0E0,0E0,0E0,0E0,0E0,0E0,0E0,0E0,0E0,0E0,0E0,0E0,0E0,0E0,0E0],"parents":[2147483647,0,0,1,1,2,2,3,3,4,4,5,5,6,6,7,7,8,8,9,9,10,10,11,11,12,12,13,13,14,14,15,15,16,16,17,17,18,18,19,19,20,20,21,21,22,22,23,23,24,24,26,26,27,27,28,28,29,29,30,30,31,31,32,32,33,33,34,34,35,35,36,36,37,37,38,38,39,39,40,40,41,41,42,42,43,43,44,44,45,45,46,46,47,47,48,48,49,49,50,50,51,51,53,53,54,54,55,55,56,56,57,57,58,58,59,59,60,60],"right_children":[2,4,6,8,10,12,14,16,18,20,22,24,26,28,30,32,34,36,38,40,42,44,46,48,50,-1,52,54,56,58,60,62,64,66,68,70,72,74,76,78,80,82,84,86,88,90,92,94,96,98,100,102,-1,104,106,108,110,112,114,116,118,-1,-1,-1,-1,-1,-1,-1,-1,-1,-1,-1,-1,-1,-1,-1,-1,-1,-1,-1,-1,-1,-1,-1,-1,-1,-1,-1,-1,-1,-1,-1,-1,-1,-1,-1,-1,-1,-1,-1,-1,-1,-1,-1,-1,-1,-1,-1,-1,-1,-1,-1,-1,-1,-1,-1,-1,-1,-1],"split_conditions":[2.868844E-1,-6.218853E-1,-1.2821001E0,-3.0120306E-2,9.150242E-1,1.58E2,8.667257E-1,-1.0625784E0,1.1E1,6.551564E-1,7.1E1,1.31E2,6.8371886E-1,1.64E2,-9.9966663E-1,-8.82048E-1,-9.9966663E-1,5E0,9.413173E-1,3.45E2,8.5876393E-1,6.6E1,1.2838315E0,1.27E2,5.808003E-1,1.22080585E-2,1.3400197E0,3.536761E-1,-9.970012E-1,-6.218853E-1,1.64E2,-5.135635E-2,9.8734945E-1,-7.684789E-1,6.9746375E-1,4E0,1.8643954E0,3.38E2,1E0,3.4E2,2.5767627E-1,2.5767627E-1,7E1,1.1E1,1.0603607E0,7.6E1,-5.345574E-1,-2.5119007E-1,6E0,1.52E2,7.6941484E-1,4.169722E-3,2.8504631E-3,2.5881904E-1,9.5E1,1.82E2,2.13E2,-7.684789E-1,2.5767627E-1,3.536761E-1,1.82E2,-5.7911268E-3,7.361032E-4,-5.351561E-3,-2.5425266E-4,-1.1240668E-2,-5.3756316E-3,-2.4642184E-5,9.632583E-3,-8.842918E-3,-4.916952E-3,4.1227895E-3,-2.4255186E-3,-5.861922E-3,2.9312568E-3,-9.280289E-3,-4.6110847E-3,1.2146765E-4,7.0998757E-3,3.9679484E-4,-3.6704165E-3,-1.7645191E-3,-5.308704E-3,1.9789052E-3,-2.8934649E-3,6.5908986E-3,1.5525464E-3,1.3732676E-2,8.145369E-3,-1.3523398E-3,-2.7032073E-3,-8.326524E-3,-4.418341E-3,-3.3515815E-3,-1.4225045E-3,7.2839293E-3,1.4949333E-3,-4.2563278E-4,-3.612971E-3,-3.9312593E-3,-7.882224E-3,6.7951554E-3,2.194899E-3,-3.5329584E-3,-9.783139E-3,-1.0417833E-3,1.6061896E-3,6.1158556E-3,-4.601243E-3,4.85832E-3,2.146392E-3,-1.2350459E-2,-6.829537E-3,-5.8049354E-4,-3.6072917E-3,-5.289739E-3,3.9483965E-3,9.129872E-3,4.9606226E-3],"split_indices":[11,7,19,29,19,23,11,19,23,28,23,23,9,23,29,29,29,23,29,23,28,23,7,23,28,0,9,28,29,7,23,11,28,7,18,23,18,23,26,23,7,7,23,23,19,23,11,29,21,23,28,6,0,27,23,23,23,7,7,28,23,0,0,0,0,0,0,0,0,0,0,0,0,0,0,0,0,0,0,0,0,0,0,0,0,0,0,0,0,0,0,0,0,0,0,0,0,0,0,0,0,0,0,0,0,0,0,0,0,0,0,0,0,0,0,0,0,0,0],"split_type":[0,0,0,0,0,0,0,0,0,0,0,0,0,0,0,0,0,0,0,0,0,0,0,0,0,0,0,0,0,0,0,0,0,0,0,0,0,0,0,0,0,0,0,0,0,0,0,0,0,0,0,0,0,0,0,0,0,0,0,0,0,0,0,0,0,0,0,0,0,0,0,0,0,0,0,0,0,0,0,0,0,0,0,0,0,0,0,0,0,0,0,0,0,0,0,0,0,0,0,0,0,0,0,0,0,0,0,0,0,0,0,0,0,0,0,0,0,0,0],"sum_hessian":[6.9793E4,3.9271E4,3.0522E4,1.4816E4,2.4455E4,4.05E3,2.6472E4,4.129E3,1.0687E4,2.227E4,2.185E3,4.001E3,4.9E1,1.6219E4,1.0253E4,1.528E3,2.601E3,8.68E2,9.819E3,1.5712E4,6.558E3,1.922E3,2.63E2,2.623E3,1.378E3,2.6E1,2.3E1,3.896E3,1.2323E4,1.72E2,1.0081E4,2.62E2,1.266E3,6.9E1,2.532E3,3.27E2,5.41E2,7.517E3,2.302E3,1.2512E4,3.2E3,2.764E3,3.794E3,1.653E3,2.69E2,1.92E2,7.1E1,2.461E3,1.62E2,6.44E2,7.34E2,1.7E1,6E0,1.25E2,3.771E3,8.73E2,1.145E4,4.5E1,1.27E2,4.46E3,5.621E3,4.2E1,2.2E2,1.125E3,1.41E2,5.6E1,1.3E1,2.469E3,6.3E1,2.37E2,9E1,4.74E2,6.7E1,7.065E3,4.52E2,1.977E3,3.25E2,1.1751E4,7.61E2,1.179E3,2.021E3,1.069E3,1.695E3,1.149E3,2.645E3,4.05E2,1.248E3,5.9E1,2.1E2,1.29E2,6.3E1,5E0,6.6E1,1.018E3,1.443E3,9.4E1,6.8E1,3.45E2,2.99E2,6.75E2,5.9E1,1.5E1,2E0,5.2E1,7.3E1,1.257E3,2.514E3,2.8E2,5.93E2,4.624E3,6.826E3,3.9E1,6E0,4.1E1,8.6E1,3.02E2,4.158E3,1.69E3,3.931E3],"tree_param":{"num_deleted":"0","num_feature":"30","num_nodes":"119","size_leaf_vector":"1"}},{"base_weights":[-1.1150549E-4,-4.2873956E-2,4.2564124E-2,-9.7853564E-2,-1.0374025E-2,-4.3164432E-2,5.5909727E-2,-6.4602666E-2,-1.2110938E-1,-1.863311E-3,-7.404898E-2,-4.5739233E-2,1.6786824E-1,3.0217286E-2,7.992936E-2,8.763683E-2,-8.038923E-2,-2.1627823E-2,-1.3407947E-1,-8.970247E-3,6.1625782E-2,3.3057872E-2,-8.3431356E-2,-6.4015456E-2,-3.5944294E-2,2.1690275E-1,8.595189E-2,4.2317875E-2,-8.683453E-4,3.5903826E-2,9.146762E-2,-6.592123E-2,1.1184851E-1,-1.3054293E-1,-5.072577E-2,-1.4885151E-1,6.053827E-2,-6.600616E-2,-1.5166314E-1,2.8458785E-3,-4.0253483E-2,7.310203E-2,-4.1330747E-2,-1.4504626E-1,1.4919634E-1,5.228163E-3,-9.4270445E-2,-3.8069032E-2,-8.5342035E-2,-4.409809E-2,8.62943E-2,1.1525488E-2,6.4772344E-3,5.326429E-3,3.0964585E-3,5.688588E-2,-8.025306E-3,-8.815743E-3,4.372821E-2,-1.3693228E-1,4.3963518E-2,4.0738877E-2,1.041329E-1,-4.502662E-4,-4.531717E-3,9.105074E-3,4.109652E-3,2.6290934E-3,-6.668304E-3,-3.1263556E-3,3.0506905E-3,-8.4722815E-3,-4.5502335E-3,5.659753E-3,1.23206E-3,-5.9423703E-3,3.5913512E-3,-6.048013E-3,-8.90703E-3,-1.013276E-4,4.4378E-3,-3.0146544E-3,-9.7392825E-4,2.883129E-3,8.911629E-3,-1.4771264E-3,-4.011513E-3,-7.5133203E-4,-7.841202E-3,4.5925505E-3,1.137652E-2,1.0577981E-2,-1.1302232E-3,-2.1583636E-3,-5.319709E-3,-5.787879E-4,-3.3083507E-3,-3.8244338E-3,-6.6516097E-3,-3.320394E-3,-1.4707885E-3,6.7647486E-3,7.0999097E-4,2.0844508E-3,5.0885766E-3,7.5273355E-4,-2.561546E-3,-4.5092576E-3,-2.739247E-4,-5.956137E-4,3.552104E-3,-4.347532E-3,-1.0856975E-2,-9.771866E-4,3.1571854E-3,-5.617961E-3,2.4702342E-3,6.034001E-3,3.013972E-3],"categories":[],"categories_nodes":[],"categories_segments":[],"categories_sizes":[],"default_left":[0,0,0,0,0,0,0,0,0,0,0,0,0,0,0,0,0,0,0,0,0,0,0,0,0,0,0,0,0,0,0,0,0,0,0,0,0,0,0,0,0,0,0,0,0,0,0,0,0,0,0,0,0,0,0,0,0,0,0,0,0,0,0,0,0,0,0,0,0,0,0,0,0,0,0,0,0,0,0,0,0,0,0,0,0,0,0,0,0,0,0,0,0,0,0,0,0,0,0,0,0,0,0,0,0,0,0,0,0,0,0,0,0,0,0,0,0,0,0],"id":7,"left_children":[1,3,5,7,9,11,13,15,17,19,21,23,25,27,29,31,33,35,37,39,41,43,45,47,49,51,53,55,57,59,61,63,65,67,69,71,73,75,77,79,81,83,85,87,89,91,93,95,97,99,101,-1,-1,-1,-1,103,105,107,109,111,113,115,117,-1,-1,-1,-1,-1,-1,-1,-1,-1,-1,-1,-1,-1,-1,-1,-1,-1,-1,-1,-1,-1,-1,-1,-1,-1,-1,-1,-1,-1,-1,-1,-1,-1,-1,-1,-1,-1,-1,-1,-1,-1,-1,-1,-1,-1,-1,-1,-1,-1,-1,-1,-1,-1,-1,-1,-1],"loss_changes":[1.275013E2,6.235589E1,4.0010414E1,1.0017715E1,1.188632E1,2.567481E0,1.8671112E1,1.2836069E1,9.839394E0,8.73107E0,2.6014729E0,8.310118E-1,2.103101E-1,5.500166E0,7.940483E0,1.8737583E0,7.1895447E0,9.218522E0,8.067184E0,6.4327044E0,2.3046894E0,4.3447523E0,2.2857246E0,8.948355E-1,3.0268219E0,1.1742592E-2,4.7718585E-3,7.71949E0,1.4528255E0,4.5318933E0,7.9562607E0,9.623706E-2,8.8922167E-1,9.3603706E-1,4.013912E0,3.9677143E-1,1.010371E0,1.0110441E1,4.33741E0,5.2878222E0,1.9850945E0,2.8351164E0,8.750677E-2,1.2474477E-1,5.49597E-1,1.4978962E0,1.3082561E0,5.4562926E-1,3.6559868E-1,9.29626E-1,6.6928744E-1,0E0,0E0,0E0,0E0,5.5639133E0,2.3571184E0,9.442284E-1,9.430958E-1,5.6240845E-1,3.7833767E0,3.291831E0,7.186798E0,0E0,0E0,0E0,0E0,0E0,0E0,0E0,0E0,0E0,0E0,0E0,0E0,0E0,0E0,0E0,0E0,0E0,0E0,0E0,0E0,0E0,0E0,0E0,0E0,0E0,0E0,0E0,0E0,0E0,0E0,0E0,0E0,0E0,0E0,0E0,0E0,0E0,0E0,0E0,0E0,0E0,0E0,0E0,0E0,0E0,0E0,0E0,0E0,0E0,0E0,0E0,0E0,0E0,0E0,0E0,0E0],"parents":[2147483647,0,0,1,1,2,2,3,3,4,4,5,5,6,6,7,7,8,8,9,9,10,10,11,11,12,12,13,13,14,14,15,15,16,16,17,17,18,18,19,19,20,20,21,21,22,22,23,23,24,24,25,25,26,26,27,27,28,28,29,29,30,30,31,31,32,32,33,33,34,34,35,35,36,36,37,37,38,38,39,39,40,40,41,41,42,42,43,43,44,44,45,45,46,46,47,47,48,48,49,49,50,50,55,55,56,56,57,57,58,58,59,59,60,60,61,61,62,62],"right_children":[2,4,6,8,10,12,14,16,18,20,22,24,26,28,30,32,34,36,38,40,42,44,46,48,50,52,54,56,58,60,62,64,66,68,70,72,74,76,78,80,82,84,86,88,90,92,94,96,98,100,102,-1,-1,-1,-1,104,106,108,110,112,114,116,118,-1,-1,-1,-1,-1,-1,-1,-1,-1,-1,-1,-1,-1,-1,-1,-1,-1,-1,-1,-1,-1,-1,-1,-1,-1,-1,-1,-1,-1,-1,-1,-1,-1,-1,-1,-1,-1,-1,-1,-1,-1,-1,-1,-1,-1,-1,-1,-1,-1,-1,-1,-1,-1,-1,-1,-1],"split_conditions":[9.360397E-2,7E0,-1.2821001E0,4.6735922E-1,2.2E1,1.58E2,6.492852E-1,7E1,1.1E1,9.150242E-1,1.1E1,7.8029585E-1,9.754485E-1,8.660254E-1,1.33E2,6.5E1,9.5E1,5E0,-3.4561232E-1,6.551564E-1,7.1E1,5E0,-6.450845E-2,5.808003E-1,1.27E2,-7.506563E-1,-7.684789E-1,4.3035382E-3,4.9838603E-1,7.8029585E-1,-1.132879E0,5.70929E-1,6.8371886E-1,-1.1868788E0,9.8734945E-1,4E0,-1.2082597E0,-4.405188E-1,4.2E1,5.947267E-1,-6.760801E-1,6.6E1,1.2838315E0,1.831439E-2,4.5875635E-2,1E2,-3.4561232E-1,1.52E2,7.583058E-1,-2.5119007E-1,6E0,1.1525488E-2,6.4772344E-3,5.326429E-3,3.0964585E-3,4.2824876E-1,9.3985605E-1,-9.990741E-1,6.4506614E-1,7.3276126E-1,9.4E1,-9.9966663E-1,5E0,-4.502662E-4,-4.531717E-3,9.105074E-3,4.109652E-3,2.6290934E-3,-6.668304E-3,-3.1263556E-3,3.0506905E-3,-8.4722815E-3,-4.5502335E-3,5.659753E-3,1.23206E-3,-5.9423703E-3,3.5913512E-3,-6.048013E-3,-8.90703E-3,-1.013276E-4,4.4378E-3,-3.0146544E-3,-9.7392825E-4,2.883129E-3,8.911629E-3,-1.4771264E-3,-4.011513E-3,-7.5133203E-4,-7.841202E-3,4.5925505E-3,1.137652E-2,1.0577981E-2,-1.1302232E-3,-2.1583636E-3,-5.319709E-3,-5.787879E-4,-3.3083507E-3,-3.8244338E-3,-6.6516097E-3,-3.320394E-3,-1.4707885E-3,6.7647486E-3,7.0999097E-4,2.0844508E-3,5.0885766E-3,7.5273355E-4,-2.561546E-3,-4.5092576E-3,-2.739247E-4,-5.956137E-4,3.552104E-3,-4.347532E-3,-1.0856975E-2,-9.771866E-4,3.1571854E-3,-5.617961E-3,2.4702342E-3,6.034001E-3,3.013972E-3],"split_indices":[12,20,19,29,20,23,12,23,23,19,23,28,9,26,23,23,23,23,28,28,23,23,29,28,23,18,7,29,19,28,19,18,9,12,28,23,7,28,23,28,19,23,7,15,19,23,28,23,28,29,21,0,0,0,0,19,28,29,15,10,23,29,21,0,0,0,0,0,0,0,0,0,0,0,0,0,0,0,0,0,0,0,0,0,0,0,0,0,0,0,0,0,0,0,0,0,0,0,0,0,0,0,0,0,0,0,0,0,0,0,0,0,0,0,0,0,0,0,0],"split_type":[0,0,0,0,0,0,0,0,0,0,0,0,0,0,0,0,0,0,0,0,0,0,0,0,0,0,0,0,0,0,0,0,0,0,0,0,0,0,0,0,0,0,0,0,0,0,0,0,0,0,0,0,0,0,0,0,0,0,0,0,0,0,0,0,0,0,0,0,0,0,0,0,0,0,0,0,0,0,0,0,0,0,0,0,0,0,0,0,0,0,0,0,0,0,0,0,0,0,0,0,0,0,0,0,0,0,0,0,0,0,0,0,0,0,0,0,0,0,0],"sum_hessian":[6.9865E4,3.4897E4,3.4968E4,1.2964E4,2.1933E4,4.71E3,3.0258E4,5.337E3,7.627E3,1.9348E4,2.585E3,4.654E3,5.6E1,1.4621E4,1.5637E4,5.01E2,4.836E3,8.8E2,6.747E3,1.7401E4,1.947E3,2.08E2,2.377E3,1.622E3,3.032E3,3.4E1,2.2E1,1.0524E4,4.097E3,3.248E3,1.2389E4,6.8E1,4.33E2,1.796E3,3.04E3,3.45E2,5.35E2,1.386E3,5.361E3,1.2631E4,4.77E3,1.752E3,1.95E2,8.2E1,1.26E2,2.59E2,2.118E3,7.33E2,8.89E2,2.843E3,1.89E2,2.8E1,6E0,1E1,1.2E1,8.162E3,2.362E3,3.478E3,6.19E2,1.44E2,3.104E3,2.476E3,9.913E3,2.1E1,4.7E1,1.27E2,3.06E2,2.7E1,1.769E3,2.75E3,2.9E2,2.53E2,9.2E1,2.16E2,3.19E2,1.002E3,3.84E2,2.485E3,2.876E3,1.1954E4,6.77E2,2.427E3,2.343E3,1.529E3,2.23E2,1.51E2,4.4E1,7E0,7.5E1,7.4E1,5.2E1,3E1,2.29E2,4.07E2,1.711E3,3.78E2,3.55E2,7.52E2,1.37E2,1.127E3,1.716E3,1.12E2,7.7E1,6.099E3,2.063E3,1.54E3,8.22E2,1.36E2,3.342E3,2.04E2,4.15E2,9E1,5.4E1,7.2E2,2.384E3,1.32E2,2.344E3,7.196E3,2.717E3],"tree_param":{"num_deleted":"0","num_feature":"30","num_nodes":"119","size_leaf_vector":"1"}},{"base_weights":[-3.737173E-4,-4.1038647E-2,4.0351663E-2,-1.0083529E-1,-1.3570474E-2,-4.365753E-2,5.2607927E-2,-6.5308645E-2,-1.2521966E-1,1.804771E-2,-3.0945726E-2,-5.3840004E-2,-2.7404174E-2,2.0976987E-2,7.0892565E-2,9.472235E-2,-8.337327E-2,-1.5310504E-2,-1.390929E-1,9.809932E-3,8.8445716E-2,3.2005027E-2,-3.666433E-2,-4.2961523E-2,-7.4105315E-2,-4.2455185E-2,7.1618543E-3,-1.1313407E-1,2.3180615E-2,-2.4348138E-2,7.609563E-2,-6.834638E-2,1.2007815E-1,-1.3288718E-1,-5.2415937E-2,-1.549574E-1,6.918185E-2,-7.01897E-2,-1.5569246E-1,2.4556091E-2,-1.5681485E-2,9.60642E-2,-8.356281E-3,-5.853644E-2,1.1865685E-1,-5.947939E-2,-2.163998E-2,2.5675325E-2,-6.1931122E-2,-9.1421634E-2,-5.135294E-2,-9.329378E-3,-5.8391586E-2,2.4284482E-2,-7.2407722E-3,2.9224014E-2,-1.8049987E-1,3.0335959E-2,-2.2361072E-2,1.1605514E-2,-2.6903708E-2,8.494074E-2,2.6831511E-2,-4.771086E-4,-4.7053862E-3,2.610551E-3,7.5836563E-3,5.273624E-3,-6.803389E-3,-3.2610581E-3,3.3819024E-3,-8.762672E-3,-4.8456085E-3,6.8088556E-3,1.8378871E-3,-6.1176126E-3,3.7840449E-3,-6.239107E-3,-9.113633E-3,-1.3289865E-4,2.2266456E-3,2.7204533E-3,-1.2175994E-3,4.1139903E-3,9.166407E-3,9.993952E-5,-1.7038326E-3,-3.6292195E-3,-3.6247098E-4,9.1218756E-4,7.99065E-3,-2.4975317E-3,-5.126926E-3,1.0641043E-3,-1.4618926E-3,-1.223173E-3,4.1437256E-3,-1.7349584E-3,-3.9618653E-3,-7.13176E-3,-3.7764383E-3,-3.9320723E-3,-1.4954546E-3,-3.996234E-3,5.795288E-3,-3.8792298E-3,-2.3112684E-3,-6.8932184E-4,3.1534077E-3,4.327116E-3,-1.1945119E-4,-1.1118544E-2,-5.2788644E-3,2.4285053E-3,3.4677063E-4,-2.512112E-3,7.7391876E-4,-2.754775E-3,-2.5675556E-4,-1.8092458E-3,4.4317385E-3,2.9156724E-4,2.6823021E-3],"categories":[],"categories_nodes":[],"categories_segments":[],"categories_sizes":[],"default_left":[0,0,0,0,0,0,0,0,0,0,0,0,0,0,0,0,0,0,0,0,0,0,0,0,0,0,0,0,0,0,0,0,0,0,0,0,0,0,0,0,0,0,0,0,0,0,0,0,0,0,0,0,0,0,0,0,0,0,0,0,0,0,0,0,0,0,0,0,0,0,0,0,0,0,0,0,0,0,0,0,0,0,0,0,0,0,0,0,0,0,0,0,0,0,0,0,0,0,0,0,0,0,0,0,0,0,0,0,0,0,0,0,0,0,0,0,0,0,0,0,0,0,0],"id":8,"left_children":[1,3,5,7,9,11,13,15,17,19,21,23,25,27,29,31,33,35,37,39,41,43,45,47,49,51,53,55,57,59,61,63,65,67,69,71,73,75,77,79,81,83,85,87,89,91,93,95,97,99,101,103,105,107,-1,109,111,113,115,-1,117,119,121,-1,-1,-1,-1,-1,-1,-1,-1,-1,-1,-1,-1,-1,-1,-1,-1,-1,-1,-1,-1,-1,-1,-1,-1,-1,-1,-1,-1,-1,-1,-1,-1,-1,-1,-1,-1,-1,-1,-1,-1,-1,-1,-1,-1,-1,-1,-1,-1,-1,-1,-1,-1,-1,-1,-1,-1,-1,-1,-1,-1],"loss_changes":[1.1596968E2,5.755036E1,3.602628E1,9.546181E0,1.3191576E1,7.3582363E-1,1.7657585E1,1.2990931E1,9.968521E0,4.937759E0,5.579586E0,6.0042477E-1,8.9409983E-1,3.3084307E0,9.589638E0,1.8936472E0,6.179489E0,8.671256E0,6.6297607E0,2.8666267E0,6.586385E-1,1.0135593E1,4.8682632E0,2.3243816E0,3.7156296E-1,6.3135886E-1,1.3618916E0,1.7410765E0,3.5871644E0,6.63608E-1,7.9919205E0,9.302431E-2,8.390641E-1,1.1909599E0,3.8246489E0,3.0934668E-1,9.898906E-1,8.599802E0,3.8207016E0,2.6264937E0,1.6999029E0,9.796982E-1,1.7646309E-2,4.5481563E-1,2.7246103E0,2.3089695E0,2.7944608E0,1.1119037E0,6.561017E-1,4.2956352E-1,2.4049377E-1,3.4572582E0,1.8508673E-1,6.948386E-1,0E0,1.071151E-1,3.6238384E-1,4.0583286E0,1.5780147E0,0E0,6.097307E-1,6.962265E0,1.5730152E0,0E0,0E0,0E0,0E0,0E0,0E0,0E0,0E0,0E0,0E0,0E0,0E0,0E0,0E0,0E0,0E0,0E0,0E0,0E0,0E0,0E0,0E0,0E0,0E0,0E0,0E0,0E0,0E0,0E0,0E0,0E0,0E0,0E0,0E0,0E0,0E0,0E0,0E0,0E0,0E0,0E0,0E0,0E0,0E0,0E0,0E0,0E0,0E0,0E0,0E0,0E0,0E0,0E0,0E0,0E0,0E0,0E0,0E0,0E0,0E0],"parents":[2147483647,0,0,1,1,2,2,3,3,4,4,5,5,6,6,7,7,8,8,9,9,10,10,11,11,12,12,13,13,14,14,15,15,16,16,17,17,18,18,19,19,20,20,21,21,22,22,23,23,24,24,25,25,26,26,27,27,28,28,29,29,30,30,31,31,32,32,33,33,34,34,35,35,36,36,37,37,38,38,39,39,40,40,41,41,42,42,43,43,44,44,45,45,46,46,47,47,48,48,49,49,50,50,51,51,52,52,53,53,55,55,56,56,57,57,58,58,60,60,61,61,62,62],"right_children":[2,4,6,8,10,12,14,16,18,20,22,24,26,28,30,32,34,36,38,40,42,44,46,48,50,52,54,56,58,60,62,64,66,68,70,72,74,76,78,80,82,84,86,88,90,92,94,96,98,100,102,104,106,108,-1,110,112,114,116,-1,118,120,122,-1,-1,-1,-1,-1,-1,-1,-1,-1,-1,-1,-1,-1,-1,-1,-1,-1,-1,-1,-1,-1,-1,-1,-1,-1,-1,-1,-1,-1,-1,-1,-1,-1,-1,-1,-1,-1,-1,-1,-1,-1,-1,-1,-1,-1,-1,-1,-1,-1,-1,-1,-1,-1,-1,-1,-1,-1,-1,-1,-1],"split_conditions":[9.360397E-2,6E0,-1.290763E0,4.6735922E-1,-6.878028E-1,-2.5119007E-1,5.2848494E-1,7E1,1.1E1,9.150242E-1,1.1E1,8.498171E-1,-1.4317509E0,-9.9966663E-1,9.5E1,6.5E1,9.5E1,5E0,-3.4561232E-1,2.5767627E-1,1.0691955E0,6E0,-6.6746867E-1,1.31E2,8.908857E-1,-1.4934143E0,6E0,6.123234E-17,9.307239E-1,-6.5019435E-1,9.754485E-1,5.70929E-1,5.70929E-1,-1.1868788E0,9.8734945E-1,4E0,-1.3548533E0,-4.405188E-1,4.2E1,7.721566E-1,1.1E1,6.6E1,1.2176622E0,5E0,-3.286981E-1,2.2E1,-1.5830716E-2,1.27E2,5.808003E-1,8.758917E-1,-1.3789738E0,6.5E1,-1.0784063E-1,3E0,-7.2407722E-3,-6.878028E-1,-7.684789E-1,7.0710677E-1,9.5E1,1.1605514E-2,8E1,-9.990741E-1,-4.3201342E-1,-4.771086E-4,-4.7053862E-3,2.610551E-3,7.5836563E-3,5.273624E-3,-6.803389E-3,-3.2610581E-3,3.3819024E-3,-8.762672E-3,-4.8456085E-3,6.8088556E-3,1.8378871E-3,-6.1176126E-3,3.7840449E-3,-6.239107E-3,-9.113633E-3,-1.3289865E-4,2.2266456E-3,2.7204533E-3,-1.2175994E-3,4.1139903E-3,9.166407E-3,9.993952E-5,-1.7038326E-3,-3.6292195E-3,-3.6247098E-4,9.1218756E-4,7.99065E-3,-2.4975317E-3,-5.126926E-3,1.0641043E-3,-1.4618926E-3,-1.223173E-3,4.1437256E-3,-1.7349584E-3,-3.9618653E-3,-7.13176E-3,-3.7764383E-3,-3.9320723E-3,-1.4954546E-3,-3.996234E-3,5.795288E-3,-3.8792298E-3,-2.3112684E-3,-6.8932184E-4,3.1534077E-3,4.327116E-3,-1.1945119E-4,-1.1118544E-2,-5.2788644E-3,2.4285053E-3,3.4677063E-4,-2.512112E-3,7.7391876E-4,-2.754775E-3,-2.5675556E-4,-1.8092458E-3,4.4317385E-3,2.9156724E-4,2.6823021E-3],"split_indices":[11,20,19,29,10,29,11,23,23,19,23,28,19,29,23,23,23,23,28,7,19,23,19,23,11,19,21,27,28,19,9,18,18,11,28,23,7,28,23,29,23,23,18,23,7,20,19,23,28,28,19,23,0,21,0,10,7,26,23,0,23,29,19,0,0,0,0,0,0,0,0,0,0,0,0,0,0,0,0,0,0,0,0,0,0,0,0,0,0,0,0,0,0,0,0,0,0,0,0,0,0,0,0,0,0,0,0,0,0,0,0,0,0,0,0,0,0,0,0,0,0,0,0],"split_type":[0,0,0,0,0,0,0,0,0,0,0,0,0,0,0,0,0,0,0,0,0,0,0,0,0,0,0,0,0,0,0,0,0,0,0,0,0,0,0,0,0,0,0,0,0,0,0,0,0,0,0,0,0,0,0,0,0,0,0,0,0,0,0,0,0,0,0,0,0,0,0,0,0,0,0,0,0,0,0,0,0,0,0,0,0,0,0,0,0,0,0,0,0,0,0,0,0,0,0,0,0,0,0,0,0,0,0,0,0,0,0,0,0,0,0,0,0,0,0,0,0,0,0],"sum_hessian":[7.0024E4,3.5038E4,3.4986E4,1.1028E4,2.401E4,4.454E3,3.0532E4,4.49E3,6.538E3,8.515E3,1.5495E4,2.737E3,1.717E3,1.1185E4,1.9347E4,4.55E2,4.035E3,7.33E2,5.805E3,7.624E3,8.91E2,1.29E3,1.4205E4,1.783E3,9.54E2,1.196E3,5.21E2,1.8E2,1.1005E4,1.002E3,1.8345E4,6.1E1,3.94E2,1.551E3,2.484E3,2.76E2,4.57E2,1.128E3,4.677E3,4.83E3,2.794E3,8.26E2,6.5E1,6.31E2,6.59E2,5.639E3,8.566E3,3.86E2,1.397E3,5.4E2,4.14E2,3.89E2,8.07E2,4.69E2,5.2E1,5.8E1,1.22E2,9.511E3,1.494E3,9E0,9.93E2,1.5552E4,2.793E3,1.9E1,4.2E1,1.26E2,2.68E2,2E1,1.531E3,2.245E3,2.39E2,2.03E2,7.3E1,1.48E2,3.09E2,8.31E2,2.97E2,2.165E3,2.512E3,2.045E3,2.785E3,3.07E2,2.487E3,7.15E2,1.11E2,4.7E1,1.8E1,4.95E2,1.36E2,1.92E2,4.67E2,4.619E3,1.02E3,1.288E3,7.278E3,2.06E2,1.8E2,5.44E2,8.53E2,1.26E2,4.14E2,1.81E2,2.33E2,2.49E2,1.4E2,3.11E2,4.96E2,2.37E2,2.32E2,2E1,3.8E1,7.7E1,4.5E1,5.345E3,4.166E3,8.6E2,6.34E2,4.32E2,5.61E2,4.6E2,1.5092E4,1.567E3,1.226E3],"tree_param":{"num_deleted":"0","num_feature":"30","num_nodes":"123","size_leaf_vector":"1"}},{"base_weights":[-1.07032465E-4,-3.8779583E-2,3.8350496E-2,-9.6145734E-2,-1.2542273E-2,-3.541586E-2,5.1175676E-2,-6.2454578E-2,-1.1874271E-1,1.7664483E-2,-2.9135915E-2,-4.18604E-2,1.8106047E-2,2.7051566E-2,7.353521E-2,9.210716E-2,-7.9408616E-2,-1.9799499E-2,-1.3141821E-1,1.0220974E-2,8.215196E-2,3.397271E-2,-3.494238E-2,-5.8213357E-2,-3.3043586E-2,8.044849E-2,-1.06342286E-1,-7.3344566E-2,3.007885E-2,1.0147515E-1,5.5752855E-2,3.945E-3,1.3050142E-1,-1.2737541E-1,-4.940418E-2,-1.4628191E-1,6.484937E-2,-6.654983E-2,-1.476524E-1,2.112234E-2,-2.138259E-2,9.005039E-2,-1.3256638E-2,-5.4252837E-2,1.18305594E-1,-2.9481377E-2,-1.00653626E-1,-7.842841E-2,-3.716434E-2,-4.0095452E-2,7.694565E-2,1.2531124E-1,2.841977E-2,-1.461318E-1,-5.6360574E-3,1.061596E-1,-1.259797E-1,6.6016644E-2,1.6655814E-2,-2.4357408E-2,1.1226583E-1,-1.7463451E-2,6.332458E-2,-1.9498181E-3,3.9177304E-3,1.0785318E-2,4.7869766E-3,3.1769518E-3,-6.484973E-3,-3.0573783E-3,2.848643E-3,-8.3586415E-3,-4.5410483E-3,1.5338717E-3,5.9653185E-3,-5.931982E-3,3.650222E-3,-5.8906674E-3,-8.658059E-3,8.353982E-4,7.1703824E-3,-3.952301E-4,-3.211197E-3,3.8720183E-3,8.402952E-3,1.4407982E-4,-1.9718462E-3,-3.3378308E-3,-4.278087E-4,1.2840535E-3,7.7476017E-3,-2.7000841E-3,-8.584248E-4,-2.2664221E-3,-6.563163E-3,-3.4679144E-3,-6.3044163E-3,-9.462453E-4,-3.2728326E-3,-3.0537131E-3,-1.2813779E-3,6.15715E-3,4.6977607E-4,1.0304804E-2,5.3462996E-3,5.124299E-4,4.659187E-3,-9.17228E-3,-5.122674E-3,-1.1737583E-3,4.3083923E-3,6.225139E-3,3.4524214E-3,6.6788704E-4,-9.252935E-3,4.839733E-3,1.6219862E-3,1.739572E-3,-4.1589877E-4,9.108379E-3,-4.52347E-3,3.4197469E-3,6.9648228E-3,-2.0713697E-3,8.29046E-3,5.074371E-3,2.2424299E-3],"categories":[],"categories_nodes":[],"categories_segments":[],"categories_sizes":[],"default_left":[0,0,0,0,0,0,0,0,0,0,0,0,0,0,0,0,0,0,0,0,0,0,0,0,0,0,0,0,0,0,0,0,0,0,0,0,0,0,0,0,0,0,0,0,0,0,0,0,0,0,0,0,0,0,0,0,0,0,0,0,0,0,0,0,0,0,0,0,0,0,0,0,0,0,0,0,0,0,0,0,0,0,0,0,0,0,0,0,0,0,0,0,0,0,0,0,0,0,0,0,0,0,0,0,0,0,0,0,0,0,0,0,0,0,0,0,0,0,0,0,0,0,0,0,0,0,0],"id":9,"left_children":[1,3,5,7,9,11,13,15,17,19,21,23,25,27,29,31,33,35,37,39,41,43,45,47,49,51,53,55,57,59,61,63,65,67,69,71,73,75,77,79,81,83,85,87,89,91,93,95,97,99,101,103,105,107,109,111,113,115,117,119,121,123,125,-1,-1,-1,-1,-1,-1,-1,-1,-1,-1,-1,-1,-1,-1,-1,-1,-1,-1,-1,-1,-1,-1,-1,-1,-1,-1,-1,-1,-1,-1,-1,-1,-1,-1,-1,-1,-1,-1,-1,-1,-1,-1,-1,-1,-1,-1,-1,-1,-1,-1,-1,-1,-1,-1,-1,-1,-1,-1,-1,-1,-1,-1,-1,-1],"loss_changes":[1.04028725E2,5.2491833E1,3.3181316E1,8.325203E0,1.1996193E1,1.7926378E0,1.6113777E1,1.1526793E1,8.212112E0,4.072552E0,5.661558E0,6.666441E-1,4.3455086E0,4.3705597E0,7.697815E0,1.4719257E0,5.6958847E0,7.985898E0,6.1043854E0,2.6219199E0,6.628356E-1,9.693708E0,5.0733147E0,6.876826E-1,2.3416085E0,8.6707735E-1,7.484951E-1,3.9910777E0,6.7297487E0,8.18903E0,5.2549095E0,4.280237E-1,8.767996E-1,6.8442917E-1,3.0503478E0,3.312478E-1,8.2816255E-1,8.470188E0,3.5136642E0,3.0518682E0,1.1266066E0,7.8475904E-1,2.8843883E-2,3.6339808E-1,2.2566633E0,3.9426956E0,1.83148E0,3.4875202E-1,4.100418E-1,8.5860825E-1,5.667989E-1,2.750125E-1,2.0381469E-1,1.9959927E-1,9.0458594E-2,5.6753874E-2,2.6860762E0,3.917698E0,4.6019087E0,6.529332E0,6.5755386E0,3.911299E0,6.0515137E0,0E0,0E0,0E0,0E0,0E0,0E0,0E0,0E0,0E0,0E0,0E0,0E0,0E0,0E0,0E0,0E0,0E0,0E0,0E0,0E0,0E0,0E0,0E0,0E0,0E0,0E0,0E0,0E0,0E0,0E0,0E0,0E0,0E0,0E0,0E0,0E0,0E0,0E0,0E0,0E0,0E0,0E0,0E0,0E0,0E0,0E0,0E0,0E0,0E0,0E0,0E0,0E0,0E0,0E0,0E0,0E0,0E0,0E0,0E0,0E0,0E0,0E0,0E0,0E0],"parents":[2147483647,0,0,1,1,2,2,3,3,4,4,5,5,6,6,7,7,8,8,9,9,10,10,11,11,12,12,13,13,14,14,15,15,16,16,17,17,18,18,19,19,20,20,21,21,22,22,23,23,24,24,25,25,26,26,27,27,28,28,29,29,30,30,31,31,32,32,33,33,34,34,35,35,36,36,37,37,38,38,39,39,40,40,41,41,42,42,43,43,44,44,45,45,46,46,47,47,48,48,49,49,50,50,51,51,52,52,53,53,54,54,55,55,56,56,57,57,58,58,59,59,60,60,61,61,62,62],"right_children":[2,4,6,8,10,12,14,16,18,20,22,24,26,28,30,32,34,36,38,40,42,44,46,48,50,52,54,56,58,60,62,64,66,68,70,72,74,76,78,80,82,84,86,88,90,92,94,96,98,100,102,104,106,108,110,112,114,116,118,120,122,124,126,-1,-1,-1,-1,-1,-1,-1,-1,-1,-1,-1,-1,-1,-1,-1,-1,-1,-1,-1,-1,-1,-1,-1,-1,-1,-1,-1,-1,-1,-1,-1,-1,-1,-1,-1,-1,-1,-1,-1,-1,-1,-1,-1,-1,-1,-1,-1,-1,-1,-1,-1,-1,-1,-1,-1,-1,-1,-1,-1,-1,-1,-1,-1,-1],"split_conditions":[9.360397E-2,6E0,-1.2644476E0,4.6735922E-1,-5E-1,1.58E2,6.251251E-1,7E1,1.1E1,9.150242E-1,1.1E1,7.8029585E-1,4E0,-9.990741E-1,-8.977434E-1,6.6E1,9.5E1,5E0,-3.4561232E-1,6.4862955E-1,1.0691955E0,6E0,2.3E1,1.46E2,1.27E2,6.8371886E-1,6E0,7E0,-8.900276E-1,-9.990741E-1,-8.382797E-1,-3.0674362E-1,-5.829105E-1,-1.1868788E0,9.8734945E-1,4E0,4.5875635E-2,-4.405188E-1,4.2E1,6.084769E-1,1.3E1,6.6E1,1.2176622E0,5E0,-3.286981E-1,-7.289344E-1,4.6735922E-1,7.583058E-1,1.53E2,-2.5119007E-1,6E0,1.59E2,-1.1302606E0,-1.4536272E0,1.430425E0,9.754485E-1,6.123234E-17,9.754485E-1,-5.6670177E-1,7E0,-4.3201342E-1,4.106908E-1,-5.3437257E-1,-1.9498181E-3,3.9177304E-3,1.0785318E-2,4.7869766E-3,3.1769518E-3,-6.484973E-3,-3.0573783E-3,2.848643E-3,-8.3586415E-3,-4.5410483E-3,1.5338717E-3,5.9653185E-3,-5.931982E-3,3.650222E-3,-5.8906674E-3,-8.658059E-3,8.353982E-4,7.1703824E-3,-3.952301E-4,-3.211197E-3,3.8720183E-3,8.402952E-3,1.4407982E-4,-1.9718462E-3,-3.3378308E-3,-4.278087E-4,1.2840535E-3,7.7476017E-3,-2.7000841E-3,-8.584248E-4,-2.2664221E-3,-6.563163E-3,-3.4679144E-3,-6.3044163E-3,-9.462453E-4,-3.2728326E-3,-3.0537131E-3,-1.2813779E-3,6.15715E-3,4.6977607E-4,1.0304804E-2,5.3462996E-3,5.124299E-4,4.659187E-3,-9.17228E-3,-5.122674E-3,-1.1737583E-3,4.3083923E-3,6.225139E-3,3.4524214E-3,6.6788704E-4,-9.252935E-3,4.839733E-3,1.6219862E-3,1.739572E-3,-4.1589877E-4,9.108379E-3,-4.52347E-3,3.4197469E-3,6.9648228E-3,-2.0713697E-3,8.29046E-3,5.074371E-3,2.2424299E-3],"split_indices":[11,20,19,29,27,23,11,23,23,19,23,28,21,29,29,23,23,23,28,28,19,23,20,23,23,9,21,22,29,29,29,14,14,11,28,23,19,28,23,28,20,23,18,23,7,19,29,28,23,29,21,23,18,18,7,9,27,9,28,22,19,19,29,0,0,0,0,0,0,0,0,0,0,0,0,0,0,0,0,0,0,0,0,0,0,0,0,0,0,0,0,0,0,0,0,0,0,0,0,0,0,0,0,0,0,0,0,0,0,0,0,0,0,0,0,0,0,0,0,0,0,0,0,0,0,0,0],"split_type":[0,0,0,0,0,0,0,0,0,0,0,0,0,0,0,0,0,0,0,0,0,0,0,0,0,0,0,0,0,0,0,0,0,0,0,0,0,0,0,0,0,0,0,0,0,0,0,0,0,0,0,0,0,0,0,0,0,0,0,0,0,0,0,0,0,0,0,0,0,0,0,0,0,0,0,0,0,0,0,0,0,0,0,0,0,0,0,0,0,0,0,0,0,0,0,0,0,0,0,0,0,0,0,0,0,0,0,0,0,0,0,0,0,0,0,0,0,0,0,0,0,0,0,0,0,0,0],"sum_hessian":[6.9945E4,3.4875E4,3.507E4,1.0944E4,2.3931E4,5.194E3,2.9876E4,4.395E3,6.549E3,8.485E3,1.5446E4,4.636E3,5.58E2,1.4372E4,1.5504E4,4.34E2,3.961E3,7.44E2,5.805E3,7.608E3,8.77E2,1.301E3,1.4145E4,1.622E3,3.014E3,3.72E2,1.86E2,4.2E2,1.3952E4,6.028E3,9.476E3,1.32E2,3.02E2,1.523E3,2.438E3,2.98E2,4.46E2,1.163E3,4.642E3,5.657E3,1.951E3,8.1E2,6.7E1,6.36E2,6.65E2,1.3061E4,1.084E3,8.26E2,7.96E2,2.833E3,1.81E2,1.99E2,1.73E2,1.33E2,5.3E1,9.5E1,3.25E2,3.793E3,1.0159E4,4.76E2,5.552E3,8.88E2,8.588E3,8.4E1,4.8E1,8.6E1,2.16E2,1.8E1,1.505E3,2.196E3,2.42E2,2.15E2,8.3E1,2.75E2,1.71E2,8.47E2,3.16E2,2.142E3,2.5E3,5.461E3,1.96E2,1.485E3,4.66E2,6.99E2,1.11E2,4.2E1,2.5E1,4.99E2,1.37E2,1.89E2,4.76E2,4.365E3,8.696E3,3.87E2,6.97E2,6.96E2,1.3E2,4.85E2,3.11E2,1.155E3,1.678E3,1.07E2,7.4E1,3.5E1,1.64E2,1.36E2,3.7E1,7E1,6.3E1,4.5E1,8E0,6.2E1,3.3E1,9.7E1,2.28E2,1.978E3,1.815E3,5.885E3,4.274E3,1.15E2,3.61E2,2.118E3,3.434E3,7.86E2,1.02E2,2.8E3,5.788E3],"tree_param":{"num_deleted":"0","num_feature":"30","num_nodes":"127","size_leaf_vector":"1"}},{"base_weights":[-1.7921942E-5,-3.6871117E-2,3.661631E-2,-8.464613E-2,-8.628618E-3,-3.413628E-2,4.828281E-2,-5.6209408E-2,-1.0462908E-1,1.0163386E-3,-5.2094314E-2,-3.845625E-2,3.1635948E-2,2.913694E-2,7.4069515E-2,7.1908675E-2,-6.987537E-2,-2.3229385E-2,-1.1501065E-1,-5.417816E-3,5.9328232E-2,3.6882248E-2,-6.021989E-2,-3.0239152E-2,-5.4640096E-2,8.301521E-2,-1.7608428E-1,3.3866022E-6,3.89256E-2,9.14266E-2,4.3485906E-2,-9.909315E-3,1.07817434E-1,-1.12838045E-1,-4.4265036E-2,-1.10673144E-1,6.406539E-2,-1.4751978E-1,-1.0114428E-1,-2.4344398E-2,7.4615036E-3,6.782797E-2,-2.8916381E-2,-1.19764306E-1,1.2802275E-1,2.0071162E-2,-6.833764E-2,-3.6781434E-2,7.0839874E-2,-3.2848556E-2,-7.340916E-2,1.16951376E-1,2.5927199E-2,-5.6998674E-3,-9.526228E-3,7.138047E-3,-5.1954377E-2,-4.0781125E-2,4.4278327E-2,-7.263229E-2,9.6125506E-2,2.1647159E-2,8.698036E-2,-2.1534315E-3,2.3230433E-3,6.981744E-3,5.7603314E-4,2.9338354E-3,-5.7691718E-3,2.755829E-3,-2.669895E-3,-7.245142E-3,-3.0463652E-3,1.9068737E-3,6.748958E-3,-4.0202867E-3,-7.934563E-3,4.7336514E-3,-6.07172E-3,-1.6666785E-3,1.816337E-3,1.0367284E-3,-1.2978718E-3,2.6689249E-3,8.01096E-3,-5.511729E-4,-2.071915E-3,-6.726183E-3,-1.5948027E-3,7.3656216E-3,-2.6758995E-3,1.0885914E-2,-2.5997573E-4,-2.7071773E-3,-5.229865E-3,-2.8056786E-3,-1.1949062E-3,5.588144E-3,4.530861E-4,-5.897877E-4,-3.1017184E-3,-3.3966934E-3,-6.829511E-3,9.419607E-3,4.286456E-3,2.9990664E-3,-4.3392857E-4,-2.6576003E-4,3.579459E-3,-1.7557886E-6,-5.464739E-3,5.047549E-3,-5.1948274E-3,3.8182114E-3,1.2998324E-3,-1.0706499E-2,-1.9293091E-3,4.5148004E-3,1.0610021E-2,2.282166E-3,-1.7841597E-3,-2.1971252E-3,5.125183E-3],"categories":[],"categories_nodes":[],"categories_segments":[],"categories_sizes":[],"default_left":[0,0,0,0,0,0,0,0,0,0,0,0,0,0,0,0,0,0,0,0,0,0,0,0,0,0,0,0,0,0,0,0,0,0,0,0,0,0,0,0,0,0,0,0,0,0,0,0,0,0,0,0,0,0,0,0,0,0,0,0,0,0,0,0,0,0,0,0,0,0,0,0,0,0,0,0,0,0,0,0,0,0,0,0,0,0,0,0,0,0,0,0,0,0,0,0,0,0,0,0,0,0,0,0,0,0,0,0,0,0,0,0,0,0,0,0,0,0,0,0,0,0,0],"id":10,"left_children":[1,3,5,7,9,11,13,15,17,19,21,23,25,27,29,31,33,35,37,39,41,43,45,47,49,51,53,55,57,59,61,63,65,67,69,71,73,75,77,79,81,83,85,87,89,91,93,95,97,99,101,103,105,-1,-1,107,109,111,113,115,117,119,121,-1,-1,-1,-1,-1,-1,-1,-1,-1,-1,-1,-1,-1,-1,-1,-1,-1,-1,-1,-1,-1,-1,-1,-1,-1,-1,-1,-1,-1,-1,-1,-1,-1,-1,-1,-1,-1,-1,-1,-1,-1,-1,-1,-1,-1,-1,-1,-1,-1,-1,-1,-1,-1,-1,-1,-1,-1,-1,-1,-1],"loss_changes":[9.424699E1,4.6954414E1,2.8898468E1,7.341011E0,9.169337E0,1.4093838E0,1.4835281E1,9.351099E0,6.4129944E0,6.716557E0,2.8739204E0,6.1685705E-1,3.2804065E0,4.9190416E0,6.7934647E0,1.5141294E0,5.3027973E0,6.5718E0,3.0202103E0,3.930348E0,1.3363113E0,4.769521E0,2.3738613E0,2.0440001E0,6.3768435E-1,4.7355556E-1,3.297031E-2,1.6088426E0,5.5102615E0,6.303665E0,4.4035883E0,2.9733405E-1,1.0952735E0,7.930336E-1,2.7476435E0,7.2336864E-1,7.873088E-1,1.4950142E0,1.8776722E1,3.5620186E0,4.256609E0,2.1581602E0,3.471966E-2,1.5522528E-1,7.467778E-1,1.6743486E0,1.6958456E0,7.209387E-1,4.74279E-1,4.4535404E-1,2.8130674E-1,3.2735276E-1,1.101182E-1,0E0,0E0,3.063201E0,1.5599813E0,7.283165E0,7.0950985E0,1.0901152E0,5.3541946E0,4.251191E0,3.1546535E0,0E0,0E0,0E0,0E0,0E0,0E0,0E0,0E0,0E0,0E0,0E0,0E0,0E0,0E0,0E0,0E0,0E0,0E0,0E0,0E0,0E0,0E0,0E0,0E0,0E0,0E0,0E0,0E0,0E0,0E0,0E0,0E0,0E0,0E0,0E0,0E0,0E0,0E0,0E0,0E0,0E0,0E0,0E0,0E0,0E0,0E0,0E0,0E0,0E0,0E0,0E0,0E0,0E0,0E0,0E0,0E0,0E0,0E0,0E0,0E0],"parents":[2147483647,0,0,1,1,2,2,3,3,4,4,5,5,6,6,7,7,8,8,9,9,10,10,11,11,12,12,13,13,14,14,15,15,16,16,17,17,18,18,19,19,20,20,21,21,22,22,23,23,24,24,25,25,26,26,27,27,28,28,29,29,30,30,31,31,32,32,33,33,34,34,35,35,36,36,37,37,38,38,39,39,40,40,41,41,42,42,43,43,44,44,45,45,46,46,47,47,48,48,49,49,50,50,51,51,52,52,55,55,56,56,57,57,58,58,59,59,60,60,61,61,62,62],"right_children":[2,4,6,8,10,12,14,16,18,20,22,24,26,28,30,32,34,36,38,40,42,44,46,48,50,52,54,56,58,60,62,64,66,68,70,72,74,76,78,80,82,84,86,88,90,92,94,96,98,100,102,104,106,-1,-1,108,110,112,114,116,118,120,122,-1,-1,-1,-1,-1,-1,-1,-1,-1,-1,-1,-1,-1,-1,-1,-1,-1,-1,-1,-1,-1,-1,-1,-1,-1,-1,-1,-1,-1,-1,-1,-1,-1,-1,-1,-1,-1,-1,-1,-1,-1,-1,-1,-1,-1,-1,-1,-1,-1,-1,-1,-1,-1,-1,-1,-1,-1,-1,-1,-1],"split_conditions":[9.360397E-2,7E0,-1.2732996E0,4.6735922E-1,2.1E1,1.58E2,7.459254E-1,7E1,1.1E1,9.150242E-1,1.1E1,1.31E2,4E0,1.65E2,-5.3437257E-1,6.6E1,9.5E1,6E0,3.5E1,7.721566E-1,7.1E1,5E0,-6.450845E-2,1.27E2,-8.09017E-1,7.0710677E-1,8.636778E-1,6E0,-9.970012E-1,-9.9966663E-1,2.49E2,-3.0674362E-1,6.9E1,-1.1868788E0,1E2,4E0,5.4512806E-2,3.9014825E-1,4.2E1,8.899794E-1,3.45E2,6.6E1,-6.878028E-1,-1.235199E0,2.0049896E0,1E2,2.3E1,-2.5119007E-1,6E0,1.53E2,-6.321034E-1,1E0,2E0,-5.6998674E-3,-9.526228E-3,1.25E2,-8.977434E-1,7E0,2.11E2,-6.218853E-1,5.071091E-1,-1.3527051E0,-2.015372E-1,-2.1534315E-3,2.3230433E-3,6.981744E-3,5.7603314E-4,2.9338354E-3,-5.7691718E-3,2.755829E-3,-2.669895E-3,-7.245142E-3,-3.0463652E-3,1.9068737E-3,6.748958E-3,-4.0202867E-3,-7.934563E-3,4.7336514E-3,-6.07172E-3,-1.6666785E-3,1.816337E-3,1.0367284E-3,-1.2978718E-3,2.6689249E-3,8.01096E-3,-5.511729E-4,-2.071915E-3,-6.726183E-3,-1.5948027E-3,7.3656216E-3,-2.6758995E-3,1.0885914E-2,-2.5997573E-4,-2.7071773E-3,-5.229865E-3,-2.8056786E-3,-1.1949062E-3,5.588144E-3,4.530861E-4,-5.897877E-4,-3.1017184E-3,-3.3966934E-3,-6.829511E-3,9.419607E-3,4.286456E-3,2.9990664E-3,-4.3392857E-4,-2.6576003E-4,3.579459E-3,-1.7557886E-6,-5.464739E-3,5.047549E-3,-5.1948274E-3,3.8182114E-3,1.2998324E-3,-1.0706499E-2,-1.9293091E-3,4.5148004E-3,1.0610021E-2,2.282166E-3,-1.7841597E-3,-2.1971252E-3,5.125183E-3],"split_indices":[11,20,19,29,20,23,11,23,23,19,23,23,21,23,29,23,23,23,23,29,23,23,29,23,29,26,14,22,29,29,23,14,23,11,23,23,19,10,23,14,23,23,10,11,18,23,20,29,21,23,29,21,21,0,0,23,29,22,23,7,19,15,14,0,0,0,0,0,0,0,0,0,0,0,0,0,0,0,0,0,0,0,0,0,0,0,0,0,0,0,0,0,0,0,0,0,0,0,0,0,0,0,0,0,0,0,0,0,0,0,0,0,0,0,0,0,0,0,0,0,0,0,0],"split_type":[0,0,0,0,0,0,0,0,0,0,0,0,0,0,0,0,0,0,0,0,0,0,0,0,0,0,0,0,0,0,0,0,0,0,0,0,0,0,0,0,0,0,0,0,0,0,0,0,0,0,0,0,0,0,0,0,0,0,0,0,0,0,0,0,0,0,0,0,0,0,0,0,0,0,0,0,0,0,0,0,0,0,0,0,0,0,0,0,0,0,0,0,0,0,0,0,0,0,0,0,0,0,0,0,0,0,0,0,0,0,0,0,0,0,0,0,0,0,0,0,0,0,0],"sum_hessian":[6.9806E4,3.4799E4,3.5007E4,1.2928E4,2.1871E4,4.955E3,3.0052E4,5.337E3,7.591E3,1.79E4,3.971E3,4.65E3,3.05E2,1.7248E4,1.2804E4,5.14E2,4.823E3,8.59E2,6.732E3,1.6122E4,1.778E3,3.32E2,3.639E3,3.086E3,1.564E3,2.45E2,6E1,4.338E3,1.291E4,8.167E3,4.637E3,1.57E2,3.57E2,1.8E3,3.023E3,4.29E2,4.3E2,2.01E3,4.722E3,6.528E3,9.594E3,1.622E3,1.56E2,1.22E2,2.1E2,3.34E2,3.305E3,2.899E3,1.87E2,7.25E2,8.39E2,1.53E2,9.2E1,1.3E1,4.7E1,3.815E3,5.23E2,8.12E2,1.2098E4,2.27E2,7.94E3,3.088E3,1.549E3,9.9E1,5.8E1,2.68E2,8.9E1,2.6E1,1.774E3,2.54E2,2.769E3,2.53E2,1.76E2,3.16E2,1.14E2,2.88E2,1.722E3,4.43E2,4.279E3,5.686E3,8.42E2,6.867E3,2.727E3,1.404E3,2.18E2,6.5E1,9.1E1,1.04E2,1.8E1,1.9E2,2E1,3.7E1,2.97E2,2.377E3,9.28E2,1.158E3,1.741E3,1.12E2,7.5E1,4.22E2,3.03E2,7.74E2,6.5E1,4.5E1,1.08E2,4.6E1,4.6E1,3.198E3,6.17E2,2.75E2,2.48E2,2.5E2,5.62E2,4.39E3,7.708E3,4.3E1,1.84E2,7.562E3,3.78E2,2.177E3,9.11E2,1.64E2,1.385E3],"tree_param":{"num_deleted":"0","num_feature":"30","num_nodes":"123","size_leaf_vector":"1"}},{"base_weights":[-7.601008E-5,-3.707915E-2,3.228656E-2,-9.1748506E-2,-1.2003429E-2,-3.5732754E-2,4.395837E-2,-8.357588E-2,-1.525418E-1,1.7083643E-2,-2.8151702E-2,-1.6918927E-1,-3.3912566E-2,5.6693718E-2,6.274434E-3,-8.996494E-2,6.340772E-2,-1.5913436E-1,-1.1905492E-1,4.4512723E-2,-3.5269943E-4,3.1104162E-2,-3.410607E-2,-5.887501E-3,-9.255386E-3,-3.9633136E-2,7.871511E-2,7.041131E-2,-4.048423E-3,-2.325794E-3,3.4950867E-2,-1.7657844E-2,-9.657844E-2,1.0541675E-1,-2.9335897E-2,-1.3476218E-1,-1.6485132E-1,-6.9199465E-3,-1.08725704E-1,3.4405936E-2,9.60972E-2,7.0156157E-3,-3.9009888E-2,-5.0238602E-2,1.0734707E-1,-2.9019553E-2,-9.562679E-2,-5.593796E-2,-3.0863568E-2,1.1949062E-1,3.302994E-2,9.539748E-2,5.50824E-2,1.9214805E-2,-3.951209E-2,-2.7552942E-2,4.367072E-3,-4.6014834E-2,4.3495987E-2,-6.6214986E-3,2.8277328E-3,-3.8825367E-3,-7.6026493E-3,-4.2347624E-3,5.9560854E-3,-4.9018594E-3,2.9104552E-4,-7.1448567E-3,-6.1751446E-3,-8.885286E-3,-7.895037E-3,-5.4699457E-3,-2.1094806E-3,2.1378896E-3,3.0011352E-4,8.548859E-3,3.929897E-3,-1.796119E-4,8.321935E-3,9.002348E-5,-3.1278988E-3,-3.0774495E-3,-4.944725E-4,8.1213564E-4,7.3344135E-3,-2.5499188E-3,-9.074701E-4,-4.9626366E-3,7.3821745E-3,-3.6457877E-3,-1.844115E-3,-1.846658E-3,3.3673774E-3,9.422005E-3,4.4557583E-3,9.91756E-5,3.6619292E-3,-1.756221E-3,5.3499737E-3,-6.0040515E-4,3.2375106E-3,-3.690017E-5,7.7295015E-3,-1.1239859E-3,-3.1281058E-3,-1.096638E-3,-9.146596E-3,9.482616E-4,-8.936223E-4,1.395025E-3,-4.458062E-3,1.0349719E-3,3.3677702E-3],"categories":[],"categories_nodes":[],"categories_segments":[],"categories_sizes":[],"default_left":[0,0,0,0,0,0,0,0,0,0,0,0,0,0,0,0,0,0,0,0,0,0,0,0,0,0,0,0,0,0,0,0,0,0,0,0,0,0,0,0,0,0,0,0,0,0,0,0,0,0,0,0,0,0,0,0,0,0,0,0,0,0,0,0,0,0,0,0,0,0,0,0,0,0,0,0,0,0,0,0,0,0,0,0,0,0,0,0,0,0,0,0,0,0,0,0,0,0,0,0,0,0,0,0,0,0,0,0,0,0,0,0,0],"id":11,"left_children":[1,3,5,7,9,11,13,15,17,19,21,23,25,27,29,31,33,35,37,39,41,43,45,-1,-1,47,49,51,53,55,57,59,61,63,65,67,69,-1,71,73,75,77,79,81,83,85,87,89,91,93,95,97,99,101,103,105,107,109,111,-1,-1,-1,-1,-1,-1,-1,-1,-1,-1,-1,-1,-1,-1,-1,-1,-1,-1,-1,-1,-1,-1,-1,-1,-1,-1,-1,-1,-1,-1,-1,-1,-1,-1,-1,-1,-1,-1,-1,-1,-1,-1,-1,-1,-1,-1,-1,-1,-1,-1,-1,-1,-1,-1],"loss_changes":[8.343219E1,4.4559143E1,2.9507973E1,5.06546E0,1.0467878E1,1.3166981E0,1.5224087E1,8.468758E0,2.4817848E-1,3.805075E0,5.057132E0,3.7978172E-2,3.464271E0,1.975631E1,1.9765251E0,4.128525E0,1.4680144E0,1.1823273E-1,2.5513649E-2,1.6087179E0,1.3860121E0,8.123562E0,4.0721493E0,0E0,0E0,7.2936153E-1,4.803908E-1,7.4029465E0,3.605182E0,1.0411997E0,1.2812531E0,6.182696E0,8.296898E0,6.849077E-1,2.8557822E-1,3.9553642E-4,4.4488907E-2,0E0,1.5211105E-3,6.134398E-1,6.495962E-1,6.912274E0,7.4873614E-1,2.8872645E-1,2.420506E0,2.87296E0,8.9144516E-1,5.754466E-1,1.9857163E0,2.7013576E-1,1.5464821E-1,1.1138512E1,7.777706E0,7.1283584E0,6.781783E-1,1.1251109E0,1.5827124E0,5.669727E-1,9.08571E-1,0E0,0E0,0E0,0E0,0E0,0E0,0E0,0E0,0E0,0E0,0E0,0E0,0E0,0E0,0E0,0E0,0E0,0E0,0E0,0E0,0E0,0E0,0E0,0E0,0E0,0E0,0E0,0E0,0E0,0E0,0E0,0E0,0E0,0E0,0E0,0E0,0E0,0E0,0E0,0E0,0E0,0E0,0E0,0E0,0E0,0E0,0E0,0E0,0E0,0E0,0E0,0E0,0E0,0E0],"parents":[2147483647,0,0,1,1,2,2,3,3,4,4,5,5,6,6,7,7,8,8,9,9,10,10,11,11,12,12,13,13,14,14,15,15,16,16,17,17,18,18,19,19,20,20,21,21,22,22,25,25,26,26,27,27,28,28,29,29,30,30,31,31,32,32,33,33,34,34,35,35,36,36,38,38,39,39,40,40,41,41,42,42,43,43,44,44,45,45,46,46,47,47,48,48,49,49,50,50,51,51,52,52,53,53,54,54,55,55,56,56,57,57,58,58],"right_children":[2,4,6,8,10,12,14,16,18,20,22,24,26,28,30,32,34,36,38,40,42,44,46,-1,-1,48,50,52,54,56,58,60,62,64,66,68,70,-1,72,74,76,78,80,82,84,86,88,90,92,94,96,98,100,102,104,106,108,110,112,-1,-1,-1,-1,-1,-1,-1,-1,-1,-1,-1,-1,-1,-1,-1,-1,-1,-1,-1,-1,-1,-1,-1,-1,-1,-1,-1,-1,-1,-1,-1,-1,-1,-1,-1,-1,-1,-1,-1,-1,-1,-1,-1,-1,-1,-1,-1,-1,-1,-1,-1,-1,-1,-1],"split_conditions":[4.5283865E-2,6E0,-1.2732996E0,3.45E2,-5E-1,3.536761E-1,7.0710677E-1,3.38E2,1.3400197E0,-1.0660785E0,1.1E1,8.899794E-1,1.58E2,-3.0120306E-2,4.106908E-1,1.1E1,5E0,-1.5014468E0,-8.0784637E-1,9.237473E-1,3.45E2,6E0,2.3E1,-5.887501E-3,-9.255386E-3,7.8029585E-1,6.8371886E-1,-8.977434E-1,9.3985605E-1,-1.132879E0,-9.970012E-1,5E0,8.3355576E-1,-4.405188E-1,-6.618153E-1,1.0501911E-2,-8.0784637E-1,-6.9199465E-3,1.376928E0,2.5767627E-1,9.3250483E-1,3.4E2,2.5767627E-1,5E0,-3.286981E-1,-7.289344E-1,1.0516204E0,1.46E2,1.27E2,1E0,-1.3270924E0,-9.990741E-1,-8.382797E-1,8.958393E-1,4E0,2.23E2,-5.197438E-1,1.82E2,1.1529955E0,-6.6214986E-3,2.8277328E-3,-3.8825367E-3,-7.6026493E-3,-4.2347624E-3,5.9560854E-3,-4.9018594E-3,2.9104552E-4,-7.1448567E-3,-6.1751446E-3,-8.885286E-3,-7.895037E-3,-5.4699457E-3,-2.1094806E-3,2.1378896E-3,3.0011352E-4,8.548859E-3,3.929897E-3,-1.796119E-4,8.321935E-3,9.002348E-5,-3.1278988E-3,-3.0774495E-3,-4.944725E-4,8.1213564E-4,7.3344135E-3,-2.5499188E-3,-9.074701E-4,-4.9626366E-3,7.3821745E-3,-3.6457877E-3,-1.844115E-3,-1.846658E-3,3.3673774E-3,9.422005E-3,4.4557583E-3,9.91756E-5,3.6619292E-3,-1.756221E-3,5.3499737E-3,-6.0040515E-4,3.2375106E-3,-3.690017E-5,7.7295015E-3,-1.1239859E-3,-3.1281058E-3,-1.096638E-3,-9.146596E-3,9.482616E-4,-8.936223E-4,1.395025E-3,-4.458062E-3,1.0349719E-3,3.3677702E-3],"split_indices":[12,20,19,23,27,28,26,23,9,12,23,14,23,29,19,23,21,7,19,19,23,23,20,0,0,28,9,29,28,19,29,23,29,28,14,19,19,0,5,7,19,23,7,23,7,19,19,23,23,21,18,29,29,28,21,23,29,23,14,0,0,0,0,0,0,0,0,0,0,0,0,0,0,0,0,0,0,0,0,0,0,0,0,0,0,0,0,0,0,0,0,0,0,0,0,0,0,0,0,0,0,0,0,0,0,0,0,0,0,0,0,0,0],"split_type":[0,0,0,0,0,0,0,0,0,0,0,0,0,0,0,0,0,0,0,0,0,0,0,0,0,0,0,0,0,0,0,0,0,0,0,0,0,0,0,0,0,0,0,0,0,0,0,0,0,0,0,0,0,0,0,0,0,0,0,0,0,0,0,0,0,0,0,0,0,0,0,0,0,0,0,0,0,0,0,0,0,0,0,0,0,0,0,0,0,0,0,0,0,0,0,0,0,0,0,0,0,0,0,0,0,0,0,0,0,0,0,0,0],"sum_hessian":[6.9669E4,3.2504E4,3.7165E4,1.022E4,2.2284E4,5.443E3,3.1722E4,9.011E3,1.209E3,7.955E3,1.4329E4,7.2E1,5.371E3,2.3709E4,8.013E3,8.636E3,3.75E2,1.007E3,2.02E2,3.091E3,4.864E3,1.308E3,1.3021E4,1.9E1,5.3E1,5.112E3,2.59E2,1.9341E4,4.368E3,6.165E3,1.848E3,7.24E2,7.912E3,2.58E2,1.17E2,1.96E2,8.11E2,6.6E1,1.36E2,2.586E3,5.05E2,4.086E3,7.78E2,6.33E2,6.75E2,1.2028E4,9.93E2,1.786E3,3.326E3,1.36E2,1.23E2,7.352E3,1.1989E4,2.638E3,1.73E3,1.292E3,4.873E3,1.76E2,1.672E3,2.84E2,4.4E2,5.901E3,2.011E3,1.7E1,2.41E2,3.9E1,7.8E1,1.07E2,8.9E1,2.76E2,5.35E2,1.34E2,2E0,1.998E3,5.88E2,9.4E1,4.11E2,3.832E3,2.54E2,2.85E2,4.93E2,4.94E2,1.39E2,2.04E2,4.71E2,3.979E3,8.049E3,9.79E2,1.4E1,9.43E2,8.43E2,3.133E3,1.93E2,4E1,9.6E1,7E1,5.3E1,6E2,6.752E3,1.51E3,1.0479E4,2.3E3,3.38E2,9.96E2,7.34E2,1.248E3,4.4E1,2.942E3,1.931E3,6.5E1,1.11E2,8.56E2,8.16E2],"tree_param":{"num_deleted":"0","num_feature":"30","num_nodes":"113","size_leaf_vector":"1"}},{"base_weights":[-2.4316588E-4,-2.6194185E-2,4.1440506E-2,-6.08242E-2,-4.90989E-3,-1.2961089E-2,5.7061672E-2,-8.3741836E-2,-1.2854728E-2,6.0055437E-3,-2.9917141E-2,-3.2625873E-2,1.6057357E-2,9.711148E-2,3.8981847E-2,-1.4141822E-2,-8.9641415E-2,-4.4102672E-2,9.622833E-3,1.4825827E-2,-3.6329288E-2,-5.8873136E-2,-4.5335046E-3,-2.5293358E-2,-4.627525E-2,5.5539258E-2,-4.0135384E-2,-1.4870305E-3,1.0743566E-1,-2.40265E-2,4.534397E-2,-1.1322122E-1,4.8343766E-2,-1.3307394E-1,-7.874178E-2,1.1713388E-2,-5.5906348E-2,-1.8077384E-1,1.5406558E-2,8.491069E-3,1.3313137E-1,-6.1368253E-2,7.3270677E-3,-4.5348037E-2,-1.1949394E-1,1.390908E-1,-4.205225E-2,-3.1872172E-2,7.8256436E-2,-5.7026114E-2,-8.847437E-3,8.3996035E-2,-2.5266544E-3,-1.1088824E-1,3.5490422E-3,1.769762E-1,-6.3574925E-2,1.2677157E-1,5.0588656E-2,-4.8042566E-2,1.3720423E-1,8.104628E-2,2.9118551E-2,-6.2496234E-3,-2.1694922E-3,3.1133571E-3,-2.5559056E-3,-7.421583E-3,-4.7087376E-3,4.842194E-3,-4.4598323E-3,-5.0321794E-3,9.864364E-4,-1.3148469E-3,-3.963358E-3,-9.862187E-3,-3.339093E-3,5.8835174E-4,5.7716696E-3,8.0155395E-4,-2.3308408E-3,8.198037E-3,1.1510315E-3,-2.5192935E-3,-6.139222E-3,-1.0465103E-3,1.4478572E-3,-3.2913156E-3,-1.1807092E-3,-6.827907E-3,-2.4164778E-3,8.220209E-3,2.2464225E-3,-2.7644855E-3,-2.3907876E-4,-1.078367E-3,-2.8404507E-3,9.409196E-3,2.6839336E-3,-1.880363E-3,-3.6383767E-3,-7.597137E-3,1.9965913E-4,5.4490096E-3,1.2230594E-3,-6.621513E-3,2.0823895E-3,-8.702784E-3,-4.1802377E-3,1.843489E-3,-1.1909235E-2,1.1284965E-2,5.152141E-3,-1.6894445E-3,-6.4041764E-3,3.1970812E-3,6.9699674E-3,-5.7827693E-4,3.2239116E-3,6.0443166E-3,-3.3949402E-3,8.555594E-3,4.6794126E-3,-1.1461106E-3,4.716107E-3,4.034434E-3,4.4264525E-4],"categories":[],"categories_nodes":[],"categories_segments":[],"categories_sizes":[],"default_left":[0,0,0,0,0,0,0,0,0,0,0,0,0,0,0,0,0,0,0,0,0,0,0,0,0,0,0,0,0,0,0,0,0,0,0,0,0,0,0,0,0,0,0,0,0,0,0,0,0,0,0,0,0,0,0,0,0,0,0,0,0,0,0,0,0,0,0,0,0,0,0,0,0,0,0,0,0,0,0,0,0,0,0,0,0,0,0,0,0,0,0,0,0,0,0,0,0,0,0,0,0,0,0,0,0,0,0,0,0,0,0,0,0,0,0,0,0,0,0,0,0,0,0,0,0,0,0],"id":12,"left_children":[1,3,5,7,9,11,13,15,17,19,21,23,25,27,29,31,33,35,37,39,41,43,45,47,49,51,53,55,57,59,61,63,65,67,69,71,73,75,77,79,81,83,85,87,89,91,93,95,97,99,101,103,105,107,109,111,113,115,117,119,121,123,125,-1,-1,-1,-1,-1,-1,-1,-1,-1,-1,-1,-1,-1,-1,-1,-1,-1,-1,-1,-1,-1,-1,-1,-1,-1,-1,-1,-1,-1,-1,-1,-1,-1,-1,-1,-1,-1,-1,-1,-1,-1,-1,-1,-1,-1,-1,-1,-1,-1,-1,-1,-1,-1,-1,-1,-1,-1,-1,-1,-1,-1,-1,-1,-1],"loss_changes":[7.558723E1,3.1741858E1,2.2785164E1,1.8020523E1,7.280975E0,3.4141014E0,1.5079086E1,4.5536346E0,3.7237275E0,6.9343004E0,5.9569764E0,3.557303E-1,5.364576E0,6.594425E0,5.75473E0,5.379292E0,4.83049E0,1.4619503E0,3.3988924E0,1.1516218E1,3.5005875E0,3.098731E0,2.328462E1,1.5843213E0,5.0046015E-1,2.3465762E0,3.08501E0,6.8257008E0,6.439232E0,5.106184E0,7.549778E0,2.7076912E-1,7.4130535E-1,1.210701E0,1.5019356E1,3.5141036E-1,1.2644176E0,1.5767431E-1,1.0886073E0,6.062266E0,2.6474438E0,1.3664126E0,7.144958E-1,1.3768325E0,8.313112E-1,2.125904E0,1.6900177E0,5.599973E-1,3.6544466E-1,2.9285622E-1,5.132503E-1,1.4148531E0,2.6910956E0,6.420741E-1,4.9866157E0,5.4950285E-1,8.737774E-1,3.4622269E0,1.287056E0,3.8555813E0,2.368803E-1,5.624008E0,9.368626E0,0E0,0E0,0E0,0E0,0E0,0E0,0E0,0E0,0E0,0E0,0E0,0E0,0E0,0E0,0E0,0E0,0E0,0E0,0E0,0E0,0E0,0E0,0E0,0E0,0E0,0E0,0E0,0E0,0E0,0E0,0E0,0E0,0E0,0E0,0E0,0E0,0E0,0E0,0E0,0E0,0E0,0E0,0E0,0E0,0E0,0E0,0E0,0E0,0E0,0E0,0E0,0E0,0E0,0E0,0E0,0E0,0E0,0E0,0E0,0E0,0E0,0E0,0E0,0E0],"parents":[2147483647,0,0,1,1,2,2,3,3,4,4,5,5,6,6,7,7,8,8,9,9,10,10,11,11,12,12,13,13,14,14,15,15,16,16,17,17,18,18,19,19,20,20,21,21,22,22,23,23,24,24,25,25,26,26,27,27,28,28,29,29,30,30,31,31,32,32,33,33,34,34,35,35,36,36,37,37,38,38,39,39,40,40,41,41,42,42,43,43,44,44,45,45,46,46,47,47,48,48,49,49,50,50,51,51,52,52,53,53,54,54,55,55,56,56,57,57,58,58,59,59,60,60,61,61,62,62],"right_children":[2,4,6,8,10,12,14,16,18,20,22,24,26,28,30,32,34,36,38,40,42,44,46,48,50,52,54,56,58,60,62,64,66,68,70,72,74,76,78,80,82,84,86,88,90,92,94,96,98,100,102,104,106,108,110,112,114,116,118,120,122,124,126,-1,-1,-1,-1,-1,-1,-1,-1,-1,-1,-1,-1,-1,-1,-1,-1,-1,-1,-1,-1,-1,-1,-1,-1,-1,-1,-1,-1,-1,-1,-1,-1,-1,-1,-1,-1,-1,-1,-1,-1,-1,-1,-1,-1,-1,-1,-1,-1,-1,-1,-1,-1,-1,-1,-1,-1,-1,-1,-1,-1,-1,-1,-1,-1],"split_conditions":[3.5936457E-1,7E0,-1.1941727E0,-9.967645E-2,6.551564E-1,1.58E2,-8.977434E-1,1.1E1,-5.974947E-1,3.45E2,8.958393E-1,1.31E2,7E0,-9.981855E-1,-8.382797E-1,5E0,3.5E1,-8.82048E-1,-9.9966663E-1,3.4E2,-2.0578742E-2,2.1E1,7E1,1.27E2,7.0710677E-1,4E0,1.87E2,7E0,9.754485E-1,4.106908E-1,-5.3437257E-1,1.3880165E0,1.8643954E0,1.3400197E0,4.2E1,-5.135635E-2,-5.6670177E-1,1.3880165E0,9.899325E-1,3.16E2,-3.6171374E-1,2.2E1,-1.9667289E-1,-2.0578742E-2,6.3E1,9.754485E-1,2.4731508E-1,5E0,5E0,5.808003E-1,1.33E2,9.754485E-1,1.64E2,7E0,6E0,-3.8820878E-1,5E-1,1.64E2,1.64E2,6E0,5E0,-1.132879E0,-9.483616E-1,-6.2496234E-3,-2.1694922E-3,3.1133571E-3,-2.5559056E-3,-7.421583E-3,-4.7087376E-3,4.842194E-3,-4.4598323E-3,-5.0321794E-3,9.864364E-4,-1.3148469E-3,-3.963358E-3,-9.862187E-3,-3.339093E-3,5.8835174E-4,5.7716696E-3,8.0155395E-4,-2.3308408E-3,8.198037E-3,1.1510315E-3,-2.5192935E-3,-6.139222E-3,-1.0465103E-3,1.4478572E-3,-3.2913156E-3,-1.1807092E-3,-6.827907E-3,-2.4164778E-3,8.220209E-3,2.2464225E-3,-2.7644855E-3,-2.3907876E-4,-1.078367E-3,-2.8404507E-3,9.409196E-3,2.6839336E-3,-1.880363E-3,-3.6383767E-3,-7.597137E-3,1.9965913E-4,5.4490096E-3,1.2230594E-3,-6.621513E-3,2.0823895E-3,-8.702784E-3,-4.1802377E-3,1.843489E-3,-1.1909235E-2,1.1284965E-2,5.152141E-3,-1.6894445E-3,-6.4041764E-3,3.1970812E-3,6.9699674E-3,-5.7827693E-4,3.2239116E-3,6.0443166E-3,-3.3949402E-3,8.555594E-3,4.6794126E-3,-1.1461106E-3,4.716107E-3,4.034434E-3,4.4264525E-4],"split_indices":[11,20,19,11,28,23,29,23,19,23,28,23,22,29,29,23,23,29,29,23,9,20,23,23,27,21,23,22,9,19,29,9,18,9,23,11,28,9,28,23,28,20,28,9,23,9,19,21,21,28,23,9,23,20,21,19,27,23,23,22,21,19,28,0,0,0,0,0,0,0,0,0,0,0,0,0,0,0,0,0,0,0,0,0,0,0,0,0,0,0,0,0,0,0,0,0,0,0,0,0,0,0,0,0,0,0,0,0,0,0,0,0,0,0,0,0,0,0,0,0,0,0,0,0,0,0,0],"split_type":[0,0,0,0,0,0,0,0,0,0,0,0,0,0,0,0,0,0,0,0,0,0,0,0,0,0,0,0,0,0,0,0,0,0,0,0,0,0,0,0,0,0,0,0,0,0,0,0,0,0,0,0,0,0,0,0,0,0,0,0,0,0,0,0,0,0,0,0,0,0,0,0,0,0,0,0,0,0,0,0,0,0,0,0,0,0,0,0,0,0,0,0,0,0,0,0,0,0,0,0,0,0,0,0,0,0,0,0,0,0,0,0,0,0,0,0,0,0,0,0,0,0,0,0,0,0,0],"sum_hessian":[6.9874E4,4.3064E4,2.681E4,1.6392E4,2.6672E4,5.981E3,2.0829E4,1.1092E4,5.3E3,1.8568E4,8.104E3,3.565E3,2.416E3,6.477E3,1.4352E4,8.67E2,1.0225E4,2.217E3,3.083E3,1.5367E4,3.201E3,3.785E3,4.319E3,2.321E3,1.244E3,1.419E3,9.97E2,6.14E2,5.863E3,1.316E3,1.3036E4,3.35E2,5.32E2,2.049E3,8.176E3,3.87E2,1.83E3,9E1,2.993E3,1.4587E4,7.8E2,2.034E3,1.167E3,3.096E3,6.89E2,8.94E2,3.425E3,2.183E3,1.38E2,9.66E2,2.78E2,9.52E2,4.67E2,3.8E2,6.17E2,1.58E2,4.56E2,4.374E3,1.489E3,1.146E3,1.7E2,4.072E3,8.964E3,2.86E2,4.9E1,4.67E2,6.5E1,1.467E3,5.82E2,4.59E2,7.717E3,2.5E1,3.62E2,8.08E2,1.022E3,7.8E1,1.2E1,2.889E3,1.04E2,1.2832E4,1.755E3,6.09E2,1.71E2,1.727E3,3.07E2,5.06E2,6.61E2,1.593E3,1.503E3,5.55E2,1.34E2,7.04E2,1.9E2,2.527E3,8.98E2,1.546E3,6.37E2,2.4E1,1.14E2,4.34E2,5.32E2,2.2E1,2.56E2,6.7E2,2.82E2,1.18E2,3.49E2,1.13E2,2.67E2,5.43E2,7.4E1,9.4E1,6.4E1,3.13E2,1.43E2,7.33E2,3.641E3,2.72E2,1.217E3,1.2E2,1.026E3,9.4E1,7.6E1,4.61E2,3.611E3,2.528E3,6.436E3],"tree_param":{"num_deleted":"0","num_feature":"30","num_nodes":"127","size_leaf_vector":"1"}},{"base_weights":[-3.3368653E-6,-3.3890735E-2,2.9485133E-2,-8.341839E-2,-1.1502129E-2,-3.2593414E-2,4.0211536E-2,-7.564985E-2,-1.4073166E-1,1.5148204E-2,-2.613996E-2,-3.6026E-2,2.407154E-2,2.6588382E-2,7.054666E-2,-8.180062E-2,6.494869E-2,-1.10346444E-1,-1.4650029E-1,5.550397E-2,4.9034185E-3,-3.1768285E-2,2.7266249E-2,-2.7554184E-2,-5.234514E-2,7.111772E-2,-1.5042883E-1,4.1838307E-2,9.784152E-3,3.141299E-2,8.282072E-2,-1.3091027E-2,-8.844596E-2,1.05582416E-1,-2.4861682E-2,-6.425779E-3,-5.059236E-3,-1.239685E-1,-1.5188949E-1,4.2564686E-2,1.1061129E-1,-1.8724153E-2,1.453247E-2,-2.7013022E-2,-8.76872E-2,3.8340237E-2,-5.7596885E-2,-3.3076014E-2,5.9333198E-2,-1.1356136E-1,-4.638852E-2,3.0379739E-2,1.1721285E-1,-4.952671E-3,-8.16719E-3,3.333827E-2,1.20572485E-1,-7.49843E-2,1.9425144E-2,3.9661083E-2,-1.3860427E-1,9.959798E-2,3.7185423E-2,-5.928711E-3,2.8204008E-3,-3.559513E-3,-6.926838E-3,-3.9787195E-3,5.9514623E-3,-4.444024E-3,6.7333065E-5,-6.64702E-3,-5.7292483E-3,-8.224695E-3,-7.26884E-3,-1.6837206E-4,2.4741967E-3,6.6801175E-3,4.13623E-3,-5.50161E-3,-7.7281205E-4,5.4871133E-3,4.4906567E-4,-2.3122726E-3,-9.0988504E-4,-7.012574E-4,-4.7180806E-3,9.75419E-4,7.512571E-3,-2.2549834E-3,-4.6232245E-3,-2.595259E-3,-1.0875361E-3,4.77333E-3,3.288776E-4,-8.206804E-3,-3.578188E-3,-9.1461994E-4,-2.8041299E-3,3.5129E-3,-1.6796756E-4,8.251097E-3,4.768855E-3,1.11195E-3,3.8610466E-3,4.4128667E-3,7.605114E-3,5.4434384E-4,-7.6513267E-3,1.7866619E-3,-4.1784762E-4,-1.0858298E-3,2.7325798E-3,-5.4514958E-3,-1.2222311E-2,-4.472521E-3,5.1979306E-3,6.1137723E-3,1.2421462E-3],"categories":[],"categories_nodes":[],"categories_segments":[],"categories_sizes":[],"default_left":[0,0,0,0,0,0,0,0,0,0,0,0,0,0,0,0,0,0,0,0,0,0,0,0,0,0,0,0,0,0,0,0,0,0,0,0,0,0,0,0,0,0,0,0,0,0,0,0,0,0,0,0,0,0,0,0,0,0,0,0,0,0,0,0,0,0,0,0,0,0,0,0,0,0,0,0,0,0,0,0,0,0,0,0,0,0,0,0,0,0,0,0,0,0,0,0,0,0,0,0,0,0,0,0,0,0,0,0,0,0,0,0,0,0,0,0,0,0,0],"id":13,"left_children":[1,3,5,7,9,11,13,15,17,19,21,23,25,27,29,31,33,35,37,39,41,43,45,47,49,51,53,55,57,59,61,63,65,67,69,-1,-1,71,73,75,77,79,81,83,85,87,89,91,93,95,97,99,101,-1,-1,103,105,107,109,111,113,115,117,-1,-1,-1,-1,-1,-1,-1,-1,-1,-1,-1,-1,-1,-1,-1,-1,-1,-1,-1,-1,-1,-1,-1,-1,-1,-1,-1,-1,-1,-1,-1,-1,-1,-1,-1,-1,-1,-1,-1,-1,-1,-1,-1,-1,-1,-1,-1,-1,-1,-1,-1,-1,-1,-1,-1,-1],"loss_changes":[6.9594376E1,3.5931496E1,2.4798E1,4.480934E0,8.706716E0,1.0681291E0,1.3120373E1,7.689823E0,1.9469833E-1,3.271248E0,4.331131E0,7.1387815E-1,2.5885053E0,5.615342E0,4.723839E0,3.8863258E0,1.3638251E0,1.9622326E-2,1.0356903E-1,1.1375961E0,1.4363222E0,3.4632254E0,1.293457E0,1.6370444E0,6.390538E-1,4.62139E-1,2.827549E-2,7.684248E0,8.522943E0,3.3023462E0,5.7309036E0,5.519586E0,6.7001038E0,6.49343E-1,1.9642541E-1,0E0,0E0,1.604557E-3,4.2497635E-2,4.130094E-1,1.8385601E-1,5.4375E-1,2.3694463E0,2.0358438E0,5.0065184E-1,2.5597832E0,6.511378E-2,6.823242E-1,3.8824522E-1,3.1960058E-1,4.3802834E-1,1.791817E-1,1.0535848E-1,0E0,0E0,5.0491524E0,1.1267147E0,7.1388474E0,4.242422E0,2.0649328E0,3.1454086E-1,4.5235443E0,2.1131625E0,0E0,0E0,0E0,0E0,0E0,0E0,0E0,0E0,0E0,0E0,0E0,0E0,0E0,0E0,0E0,0E0,0E0,0E0,0E0,0E0,0E0,0E0,0E0,0E0,0E0,0E0,0E0,0E0,0E0,0E0,0E0,0E0,0E0,0E0,0E0,0E0,0E0,0E0,0E0,0E0,0E0,0E0,0E0,0E0,0E0,0E0,0E0,0E0,0E0,0E0,0E0,0E0,0E0,0E0,0E0,0E0],"parents":[2147483647,0,0,1,1,2,2,3,3,4,4,5,5,6,6,7,7,8,8,9,9,10,10,11,11,12,12,13,13,14,14,15,15,16,16,17,17,18,18,19,19,20,20,21,21,22,22,23,23,24,24,25,25,26,26,27,27,28,28,29,29,30,30,31,31,32,32,33,33,34,34,37,37,38,38,39,39,40,40,41,41,42,42,43,43,44,44,45,45,46,46,47,