{"learner":{"attributes":{"best_iteration":"268","best_score":"0.11293724820334873","scikit_learn":"{\"_estimator_type\": \"regressor\"}"},"feature_names":[],"feature_types":[],"gradient_booster":{"model":{"gbtree_model_param":{"num_parallel_tree":"1","num_trees":"319"},"iteration_indptr":[0,1,2,3,4,5,6,7,8,9,10,11,12,13,14,15,16,17,18,19,20,21,22,23,24,25,26,27,28,29,30,31,32,33,34,35,36,37,38,39,40,41,42,43,44,45,46,47,48,49,50,51,52,53,54,55,56,57,58,59,60,61,62,63,64,65,66,67,68,69,70,71,72,73,74,75,76,77,78,79,80,81,82,83,84,85,86,87,88,89,90,91,92,93,94,95,96,97,98,99,100,101,102,103,104,105,106,107,108,109,110,111,112,113,114,115,116,117,118,119,120,121,122,123,124,125,126,127,128,129,130,131,132,133,134,135,136,137,138,139,140,141,142,143,144,145,146,147,148,149,150,151,152,153,154,155,156,157,158,159,160,161,162,163,164,165,166,167,168,169,170,171,172,173,174,175,176,177,178,179,180,181,182,183,184,185,186,187,188,189,190,191,192,193,194,195,196,197,198,199,200,201,202,203,204,205,206,207,208,209,210,211,212,213,214,215,216,217,218,219,220,221,222,223,224,225,226,227,228,229,230,231,232,233,234,235,236,237,238,239,240,241,242,243,244,245,246,247,248,249,250,251,252,253,254,255,256,257,258,259,260,261,262,263,264,265,266,267,268,269,270,271,272,273,274,275,276,277,278,279,280,281,282,283,284,285,286,287,288,289,290,291,292,293,294,295,296,297,298,299,300,301,302,303,304,305,306,307,308,309,310,311,312,313,314,315,316,317,318,319],"tree_info":[0,0,0,0,0,0,0,0,0,0,0,0,0,0,0,0,0,0,0,0,0,0,0,0,0,0,0,0,0,0,0,0,0,0,0,0,0,0,0,0,0,0,0,0,0,0,0,0,0,0,0,0,0,0,0,0,0,0,0,0,0,0,0,0,0,0,0,0,0,0,0,0,0,0,0,0,0,0,0,0,0,0,0,0,0,0,0,0,0,0,0,0,0,0,0,0,0,0,0,0,0,0,0,0,0,0,0,0,0,0,0,0,0,0,0,0,0,0,0,0,0,0,0,0,0,0,0,0,0,0,0,0,0,0,0,0,0,0,0,0,0,0,0,0,0,0,0,0,0,0,0,0,0,0,0,0,0,0,0,0,0,0,0,0,0,0,0,0,0,0,0,0,0,0,0,0,0,0,0,0,0,0,0,0,0,0,0,0,0,0,0,0,0,0,0,0,0,0,0,0,0,0,0,0,0,0,0,0,0,0,0,0,0,0,0,0,0,0,0,0,0,0,0,0,0,0,0,0,0,0,0,0,0,0,0,0,0,0,0,0,0,0,0,0,0,0,0,0,0,0,0,0,0,0,0,0,0,0,0,0,0,0,0,0,0,0,0,0,0,0,0,0,0,0,0,0,0,0,0,0,0,0,0,0,0,0,0,0,0,0,0,0,0,0,0,0,0,0,0,0,0,0,0,0,0,0,0,0,0,0,0,0,0,0,0,0,0,0,0],"trees":[{"base_weights":[1.3179843E-4,-6.040045E-2,6.687549E-2,-1.3746563E-1,-1.5716922E-2,-6.2120385E-2,8.345903E-2,-1.5847953E-1,-5.0871238E-2,-2.0674225E-3,-7.7771604E-2,-1.2578041E-2,-6.7413926E-2,5.150671E-2,1.2597291E-1,-1.97028E-2,-1.710473E-1,-1.0239825E-1,-7.826671E-3,-2.7600985E-2,2.9191893E-2,4.1369945E-2,-8.810794E-2,-8.062129E-2,1.2713636E-1,-5.592701E-2,-8.115012E-2,6.2873036E-2,-1.5276457E-3,1.3628066E-1,-1.004231E-3,-1.9570367E-1,9.333508E-2,-8.1620745E-2,-1.8222654E-1,-1.2103489E-1,-2.8847666E-2,-1.319777E-1,4.1114567E-3,-1.1318981E-2,-6.7656085E-2,5.4361127E-2,-2.3163883E-2,-1.311952E-1,1.5739119E-1,-1.0390822E-1,-1.5745647E-2,-9.4875164E-2,-1.5618388E-2,1.4670925E-1,7.76474E-2,-7.302838E-2,1.1132549E-1,-1.1064004E-1,-4.565172E-2,8.9430265E-2,2.584286E-2,-2.027628E-2,1.2857129E-1,-8.708531E-2,1.4084828E-1,-1.3066454E-2,2.1689059E-1,-1.1274296E-2,-5.9538516E-3,2.6290799E-3,7.890172E-3,-8.65852E-3,4.169171E-3,-9.744046E-3,-5.595807E-3,-5.3761066E-3,-1.0499936E-2,-2.10251E-3,7.683251E-3,8.3404424E-4,-1.116887E-2,-2.5053511E-4,7.21038E-3,-9.156689E-4,4.871766E-3,-2.309601E-3,-4.258281E-3,2.0855963E-3,7.6258103E-3,7.60614E-4,-2.5930917E-3,-7.2434954E-3,-2.6659188E-3,5.133631E-3,1.22966515E-2,-4.2372323E-3,-7.6471097E-3,-1.8403456E-3,6.518313E-3,-4.400834E-3,-6.1360947E-3,-2.1386265E-3,6.7399815E-4,8.201363E-3,4.901149E-3,2.0442214E-3,4.053608E-3,-6.294943E-3,-3.2982496E-3,8.360066E-3,1.8542673E-3,-8.260449E-3,-5.003678E-3,-8.686579E-4,-4.1077705E-3,-2.760736E-3,4.746623E-3,-4.513428E-3,1.5003631E-3,-6.192718E-3,-3.938404E-4,9.772564E-3,-2.3635596E-3,-1.2289765E-2,-2.1453116E-3,9.66246E-3,6.301068E-3,-2.992569E-3,3.426019E-4,1.2907788E-2,4.6954156E-4],"categories":[],"categories_nodes":[],"categories_segments":[],"categories_sizes":[],"default_left":[0,0,0,0,0,0,0,0,0,0,0,0,0,0,0,0,0,0,0,0,0,0,0,0,0,0,0,0,0,0,0,0,0,0,0,0,0,0,0,0,0,0,0,0,0,0,0,0,0,0,0,0,0,0,0,0,0,0,0,0,0,0,0,0,0,0,0,0,0,0,0,0,0,0,0,0,0,0,0,0,0,0,0,0,0,0,0,0,0,0,0,0,0,0,0,0,0,0,0,0,0,0,0,0,0,0,0,0,0,0,0,0,0,0,0,0,0,0,0,0,0,0,0,0,0,0,0],"id":0,"left_children":[1,3,5,7,9,11,13,15,17,19,21,23,25,27,29,31,33,35,37,39,41,43,45,47,49,51,53,55,57,59,61,63,65,67,69,71,73,75,77,79,81,83,85,87,89,91,93,95,97,99,101,103,105,107,109,111,113,115,117,119,121,123,125,-1,-1,-1,-1,-1,-1,-1,-1,-1,-1,-1,-1,-1,-1,-1,-1,-1,-1,-1,-1,-1,-1,-1,-1,-1,-1,-1,-1,-1,-1,-1,-1,-1,-1,-1,-1,-1,-1,-1,-1,-1,-1,-1,-1,-1,-1,-1,-1,-1,-1,-1,-1,-1,-1,-1,-1,-1,-1,-1,-1,-1,-1,-1,-1],"loss_changes":[2.7169977E2,1.2143788E2,6.842563E1,2.3544144E1,1.8908607E1,9.5480824E-1,3.8492386E1,1.816156E1,5.6084127E0,1.4607164E1,4.9603825E0,3.3660874E0,5.1489353E-1,9.754696E0,1.5915726E1,1.7247133E1,9.53244E0,1.5742254E0,2.0444012E0,6.568617E0,1.0843744E1,6.4674826E0,4.2333107E0,2.190355E-1,1.0097098E-1,5.1451335E0,1.5620756E0,1.3102734E1,6.971337E0,1.1487045E1,2.4050965E0,7.467861E-1,1.3789225E0,1.6072195E1,7.5302734E0,1.0809908E0,5.703151E-1,1.6477952E0,1.6096983E0,5.450469E0,1.0900946E0,6.89312E0,2.9435086E0,1.30718E-1,9.09812E-1,2.843624E0,2.051204E0,2.644074E-2,3.5342768E-2,5.3059697E-2,1.0920614E-3,6.004114E-1,6.865537E-1,4.5455074E-1,7.0154977E-1,6.1811447E0,2.6945462E0,3.20724E0,4.242963E0,1.5740894E0,8.539124E0,8.0835456E-1,4.085765E-1,0E0,0E0,0E0,0E0,0E0,0E0,0E0,0E0,0E0,0E0,0E0,0E0,0E0,0E0,0E0,0E0,0E0,0E0,0E0,0E0,0E0,0E0,0E0,0E0,0E0,0E0,0E0,0E0,0E0,0E0,0E0,0E0,0E0,0E0,0E0,0E0,0E0,0E0,0E0,0E0,0E0,0E0,0E0,0E0,0E0,0E0,0E0,0E0,0E0,0E0,0E0,0E0,0E0,0E0,0E0,0E0,0E0,0E0,0E0,0E0,0E0,0E0,0E0,0E0],"parents":[2147483647,0,0,1,1,2,2,3,3,4,4,5,5,6,6,7,7,8,8,9,9,10,10,11,11,12,12,13,13,14,14,15,15,16,16,17,17,18,18,19,19,20,20,21,21,22,22,23,23,24,24,25,25,26,26,27,27,28,28,29,29,30,30,31,31,32,32,33,33,34,34,35,35,36,36,37,37,38,38,39,39,40,40,41,41,42,42,43,43,44,44,45,45,46,46,47,47,48,48,49,49,50,50,51,51,52,52,53,53,54,54,55,55,56,56,57,57,58,58,59,59,60,60,61,61,62,62],"right_children":[2,4,6,8,10,12,14,16,18,20,22,24,26,28,30,32,34,36,38,40,42,44,46,48,50,52,54,56,58,60,62,64,66,68,70,72,74,76,78,80,82,84,86,88,90,92,94,96,98,100,102,104,106,108,110,112,114,116,118,120,122,124,126,-1,-1,-1,-1,-1,-1,-1,-1,-1,-1,-1,-1,-1,-1,-1,-1,-1,-1,-1,-1,-1,-1,-1,-1,-1,-1,-1,-1,-1,-1,-1,-1,-1,-1,-1,-1,-1,-1,-1,-1,-1,-1,-1,-1,-1,-1,-1,-1,-1,-1,-1,-1,-1,-1,-1,-1,-1,-1,-1,-1,-1,-1,-1,-1],"split_conditions":[2.1112435E-1,7E0,-1.3624518E0,-2.0246491E-1,2.1E1,7E1,7.9501504E-1,1.1E1,-6.532313E-1,8.939186E-1,1.1E1,6.6E1,1.31E2,4.3035382E-3,4.3035382E-3,5E0,-7.638886E-1,2.56E2,-9.9887973E-1,3.15E2,3.45E2,5E0,8.030228E-2,-1.5904511E0,6.9E1,1.27E2,1.47E2,7.0710677E-1,3.09E2,-9.9966663E-1,2.79E2,4E0,5.160447E-3,3.09E2,-7.7097136E-1,2.43E2,-1.0853567E0,2.74E2,2.79E2,3.1E2,1.3E1,3.4E2,2.5478724E-1,-1.1756161E0,5.160447E-3,2.3E1,3.09E2,5E0,5E0,9.8747194E-1,-6.097663E-1,-6.244344E-1,6E0,1.33E2,1.52E2,-9.990741E-1,-9.990741E-1,-4.7789747E-1,3.14E2,-6.244344E-1,-9.441875E-1,-6.875816E-1,7.3215574E-1,-1.1274296E-2,-5.9538516E-3,2.6290799E-3,7.890172E-3,-8.65852E-3,4.169171E-3,-9.744046E-3,-5.595807E-3,-5.3761066E-3,-1.0499936E-2,-2.10251E-3,7.683251E-3,8.3404424E-4,-1.116887E-2,-2.5053511E-4,7.21038E-3,-9.156689E-4,4.871766E-3,-2.309601E-3,-4.258281E-3,2.0855963E-3,7.6258103E-3,7.60614E-4,-2.5930917E-3,-7.2434954E-3,-2.6659188E-3,5.133631E-3,1.22966515E-2,-4.2372323E-3,-7.6471097E-3,-1.8403456E-3,6.518313E-3,-4.400834E-3,-6.1360947E-3,-2.1386265E-3,6.7399815E-4,8.201363E-3,4.901149E-3,2.0442214E-3,4.053608E-3,-6.294943E-3,-3.2982496E-3,8.360066E-3,1.8542673E-3,-8.260449E-3,-5.003678E-3,-8.686579E-4,-4.1077705E-3,-2.760736E-3,4.746623E-3,-4.513428E-3,1.5003631E-3,-6.192718E-3,-3.938404E-4,9.772564E-3,-2.3635596E-3,-1.2289765E-2,-2.1453116E-3,9.66246E-3,6.301068E-3,-2.992569E-3,3.426019E-4,1.2907788E-2,4.6954156E-4],"split_indices":[10,20,19,10,20,23,10,23,19,29,23,23,23,29,29,23,28,23,28,23,23,23,13,19,23,23,23,26,23,29,23,23,19,23,6,23,19,23,23,23,20,23,6,10,19,20,23,21,21,6,13,6,21,23,23,29,29,6,23,6,29,19,19,0,0,0,0,0,0,0,0,0,0,0,0,0,0,0,0,0,0,0,0,0,0,0,0,0,0,0,0,0,0,0,0,0,0,0,0,0,0,0,0,0,0,0,0,0,0,0,0,0,0,0,0,0,0,0,0,0,0,0,0,0,0,0,0],"split_type":[0,0,0,0,0,0,0,0,0,0,0,0,0,0,0,0,0,0,0,0,0,0,0,0,0,0,0,0,0,0,0,0,0,0,0,0,0,0,0,0,0,0,0,0,0,0,0,0,0,0,0,0,0,0,0,0,0,0,0,0,0,0,0,0,0,0,0,0,0,0,0,0,0,0,0,0,0,0,0,0,0,0,0,0,0,0,0,0,0,0,0,0,0,0,0,0,0,0,0,0,0,0,0,0,0,0,0,0,0,0,0,0,0,0,0,0,0,0,0,0,0,0,0,0,0,0,0],"sum_hessian":[6.7248E4,3.5265E4,3.1983E4,1.2942E4,2.2323E4,3.643E3,2.834E4,1.0414E4,2.528E3,1.8299E4,4.024E3,3.52E2,3.291E3,1.6181E4,1.2159E4,8.65E2,9.549E3,1.15E3,1.378E3,1.0072E4,8.227E3,3.21E2,3.703E3,2.37E2,1.15E2,1.795E3,1.496E3,1.3325E4,2.856E3,1.1246E4,9.13E2,3.38E2,5.27E2,1.062E3,8.487E3,9.17E2,2.33E2,1.2E2,1.258E3,7.162E3,2.91E3,5.556E3,2.671E3,1.29E2,1.92E2,3.039E3,6.64E2,1.94E2,4.3E1,8.1E1,3.4E1,1.629E3,1.66E2,8.16E2,6.8E2,7.759E3,5.566E3,2.497E3,3.59E2,2.25E2,1.1021E4,8.66E2,4.7E1,2.42E2,9.6E1,3.24E2,2.03E2,6.83E2,3.79E2,7.191E3,1.296E3,7.98E2,1.19E2,2.18E2,1.5E1,4.6E1,7.4E1,1.182E3,7.6E1,6.73E3,4.32E2,1.309E3,1.601E3,4.923E3,6.33E2,1.143E3,1.528E3,1.09E2,2E1,1.2E2,7.2E1,2.187E3,8.52E2,5.81E2,8.3E1,1.59E2,3.5E1,2.2E1,2.1E1,5.8E1,2.3E1,4E0,3E1,1.9E2,1.439E3,9.4E1,7.2E1,1.3E2,6.86E2,3.84E2,2.96E2,2.84E2,7.475E3,1.92E2,5.374E3,2.66E2,2.231E3,2.6E2,9.9E1,4.8E1,1.77E2,2.428E3,8.593E3,2.58E2,6.08E2,3.9E1,8E0],"tree_param":{"num_deleted":"0","num_feature":"30","num_nodes":"127","size_leaf_vector":"1"}},{"base_weights":[-6.13778E-4,-5.848311E-2,6.161961E-2,-1.3382097E-1,-1.5492616E-2,-5.9075847E-2,7.744411E-2,-1.5114346E-1,-5.6226242E-2,-1.7849385E-3,-7.6560676E-2,-4.6987478E-2,-7.6329134E-2,4.5829907E-2,1.1853006E-1,-1.7495131E-2,-1.6338722E-1,-1.0384415E-1,-1.219129E-2,-2.7244942E-2,2.8264426E-2,3.4141887E-2,-8.649667E-2,-5.9673194E-2,9.977292E-2,-1.07179366E-1,-4.420464E-2,5.7116244E-2,-4.8787678E-3,1.281628E-1,-8.0579694E-4,-1.8306577E-1,8.948834E-2,-7.660532E-2,-1.7422077E-1,-1.1960693E-1,-2.8862787E-2,-2.327738E-2,1.2565804E-1,-1.1872384E-2,-6.4324595E-2,5.2638378E-2,-2.0828178E-2,-9.10091E-2,1.6989763E-1,-1.0112203E-1,-1.6265266E-2,-7.08408E-2,-1.8919215E-2,1.597379E-1,4.003191E-2,-1.6614795E-1,-9.533055E-2,-2.8394906E-2,-7.479886E-2,8.252211E-2,2.3124514E-2,-2.1960761E-2,1.0807693E-1,-8.707746E-2,1.3249692E-1,-1.3788948E-2,1.994222E-1,-1.05514005E-2,-5.4987827E-3,2.6183403E-3,7.50868E-3,-8.16323E-3,3.5521747E-3,-6.146248E-3,-9.527695E-3,-5.367715E-3,-1.0402543E-2,-2.0979827E-3,7.886051E-3,-3.2628732E-4,-7.639491E-3,3.551462E-4,1.2202765E-2,-9.327169E-4,4.731719E-3,-2.1313035E-3,-4.0869075E-3,4.443947E-3,1.0255119E-3,7.846725E-4,-2.457125E-3,-6.174526E-3,9.4769476E-4,5.124437E-3,1.3709955E-2,-4.102789E-3,-7.423509E-3,-1.7323726E-3,5.2024648E-3,-6.9867424E-3,-3.2283936E-3,5.0581763E-3,-2.9565748E-3,6.3192407E-3,1.1161804E-2,3.0710045E-3,-1.8948865E-3,-1.1285808E-2,-6.562777E-3,-5.5438196E-3,-1.3891502E-3,-2.3574268E-3,8.51687E-4,-5.291156E-3,-2.5031052E-3,3.2460175E-3,6.323013E-3,-4.504141E-3,1.3579872E-3,2.9630696E-3,-1.9192351E-3,9.354602E-3,-2.5392305E-3,-1.195944E-2,-2.1626006E-3,7.432601E-3,4.3199747E-3,-2.8412712E-3,2.846271E-4,1.2297126E-2,2.2378963E-4],"categories":[],"categories_nodes":[],"categories_segments":[],"categories_sizes":[],"default_left":[0,0,0,0,0,0,0,0,0,0,0,0,0,0,0,0,0,0,0,0,0,0,0,0,0,0,0,0,0,0,0,0,0,0,0,0,0,0,0,0,0,0,0,0,0,0,0,0,0,0,0,0,0,0,0,0,0,0,0,0,0,0,0,0,0,0,0,0,0,0,0,0,0,0,0,0,0,0,0,0,0,0,0,0,0,0,0,0,0,0,0,0,0,0,0,0,0,0,0,0,0,0,0,0,0,0,0,0,0,0,0,0,0,0,0,0,0,0,0,0,0,0,0,0,0,0,0],"id":1,"left_children":[1,3,5,7,9,11,13,15,17,19,21,23,25,27,29,31,33,35,37,39,41,43,45,47,49,51,53,55,57,59,61,63,65,67,69,71,73,75,77,79,81,83,85,87,89,91,93,95,97,99,101,103,105,107,109,111,113,115,117,119,121,123,125,-1,-1,-1,-1,-1,-1,-1,-1,-1,-1,-1,-1,-1,-1,-1,-1,-1,-1,-1,-1,-1,-1,-1,-1,-1,-1,-1,-1,-1,-1,-1,-1,-1,-1,-1,-1,-1,-1,-1,-1,-1,-1,-1,-1,-1,-1,-1,-1,-1,-1,-1,-1,-1,-1,-1,-1,-1,-1,-1,-1,-1,-1,-1,-1],"loss_changes":[2.4312721E2,1.1329479E2,6.213128E1,1.7074097E1,1.8644619E1,7.8290844E-1,3.7348328E1,1.6997269E1,4.8655276E0,1.3917921E1,4.494011E0,4.139063E0,1.5333681E0,9.302692E0,1.4375E1,1.5480111E1,8.934143E0,1.3143835E0,1.8474745E0,5.6126866E0,9.985367E0,5.7410808E0,3.8471203E0,9.2893314E-1,6.276847E-1,5.3683853E-1,3.664453E-1,1.1479507E1,5.7137184E0,1.0805847E1,2.433367E0,6.77804E-1,1.1883359E0,1.3548853E1,7.0645447E0,9.757252E-1,4.831323E-1,2.4245539E0,1.2615606E0,5.0313067E0,1.0869856E0,6.490548E0,2.864153E0,6.309694E-1,1.1108947E0,2.7872505E0,1.434539E0,6.841755E-1,2.1354833E0,1.5815806E-1,1.5233727E-1,2.4265409E-1,6.910243E-1,4.3018684E-1,1.9346905E-1,5.8757324E0,2.6008244E0,3.433292E0,4.8924093E0,1.516248E0,8.434387E0,7.3729E-1,5.158303E-1,0E0,0E0,0E0,0E0,0E0,0E0,0E0,0E0,0E0,0E0,0E0,0E0,0E0,0E0,0E0,0E0,0E0,0E0,0E0,0E0,0E0,0E0,0E0,0E0,0E0,0E0,0E0,0E0,0E0,0E0,0E0,0E0,0E0,0E0,0E0,0E0,0E0,0E0,0E0,0E0,0E0,0E0,0E0,0E0,0E0,0E0,0E0,0E0,0E0,0E0,0E0,0E0,0E0,0E0,0E0,0E0,0E0,0E0,0E0,0E0,0E0,0E0,0E0,0E0],"parents":[2147483647,0,0,1,1,2,2,3,3,4,4,5,5,6,6,7,7,8,8,9,9,10,10,11,11,12,12,13,13,14,14,15,15,16,16,17,17,18,18,19,19,20,20,21,21,22,22,23,23,24,24,25,25,26,26,27,27,28,28,29,29,30,30,31,31,32,32,33,33,34,34,35,35,36,36,37,37,38,38,39,39,40,40,41,41,42,42,43,43,44,44,45,45,46,46,47,47,48,48,49,49,50,50,51,51,52,52,53,53,54,54,55,55,56,56,57,57,58,58,59,59,60,60,61,61,62,62],"right_children":[2,4,6,8,10,12,14,16,18,20,22,24,26,28,30,32,34,36,38,40,42,44,46,48,50,52,54,56,58,60,62,64,66,68,70,72,74,76,78,80,82,84,86,88,90,92,94,96,98,100,102,104,106,108,110,112,114,116,118,120,122,124,126,-1,-1,-1,-1,-1,-1,-1,-1,-1,-1,-1,-1,-1,-1,-1,-1,-1,-1,-1,-1,-1,-1,-1,-1,-1,-1,-1,-1,-1,-1,-1,-1,-1,-1,-1,-1,-1,-1,-1,-1,-1,-1,-1,-1,-1,-1,-1,-1,-1,-1,-1,-1,-1,-1,-1,-1,-1,-1,-1,-1,-1,-1,-1,-1],"split_conditions":[1.3813801E-1,7E0,-1.3624518E0,-2.5112247E-1,2.1E1,1.31E2,7.2202873E-1,1.1E1,-6.532313E-1,8.939186E-1,1.1E1,1.27E2,1.46E2,4.3035382E-3,4.3035382E-3,5E0,-7.638886E-1,2.56E2,2.79E2,3.15E2,3.45E2,6E0,8.030228E-2,-3.4754023E-1,1.29E2,1.33E2,1.53E2,7.0710677E-1,3.09E2,-9.9966663E-1,2.79E2,4E0,5.160447E-3,3.09E2,4.8250774E-1,2.45E2,-1.0853567E0,4.3035382E-3,2.7127507E-1,3.1E2,1.3E1,1.7976658E-1,2.5478724E-1,5E0,5.160447E-3,2.3E1,3.09E2,-6.244344E-1,7E1,1.6421682E0,9.775975E-1,4.7874093E-1,1.2525455E0,1.0266503E0,1.55E2,3.9867157E-1,-9.990741E-1,7E1,3.14E2,-6.244344E-1,1E0,-6.875816E-1,7.3215574E-1,-1.05514005E-2,-5.4987827E-3,2.6183403E-3,7.50868E-3,-8.16323E-3,3.5521747E-3,-6.146248E-3,-9.527695E-3,-5.367715E-3,-1.0402543E-2,-2.0979827E-3,7.886051E-3,-3.2628732E-4,-7.639491E-3,3.551462E-4,1.2202765E-2,-9.327169E-4,4.731719E-3,-2.1313035E-3,-4.0869075E-3,4.443947E-3,1.0255119E-3,7.846725E-4,-2.457125E-3,-6.174526E-3,9.4769476E-4,5.124437E-3,1.3709955E-2,-4.102789E-3,-7.423509E-3,-1.7323726E-3,5.2024648E-3,-6.9867424E-3,-3.2283936E-3,5.0581763E-3,-2.9565748E-3,6.3192407E-3,1.1161804E-2,3.0710045E-3,-1.8948865E-3,-1.1285808E-2,-6.562777E-3,-5.5438196E-3,-1.3891502E-3,-2.3574268E-3,8.51687E-4,-5.291156E-3,-2.5031052E-3,3.2460175E-3,6.323013E-3,-4.504141E-3,1.3579872E-3,2.9630696E-3,-1.9192351E-3,9.354602E-3,-2.5392305E-3,-1.195944E-2,-2.1626006E-3,7.432601E-3,4.3199747E-3,-2.8412712E-3,2.846271E-4,1.2297126E-2,2.2378963E-4],"split_indices":[10,20,19,10,20,23,10,23,19,29,23,23,23,29,29,23,28,23,23,23,23,23,13,13,23,23,23,26,23,29,23,23,19,23,29,23,19,29,14,23,20,28,6,23,19,20,23,6,23,7,8,10,9,9,23,19,29,23,23,6,24,19,19,0,0,0,0,0,0,0,0,0,0,0,0,0,0,0,0,0,0,0,0,0,0,0,0,0,0,0,0,0,0,0,0,0,0,0,0,0,0,0,0,0,0,0,0,0,0,0,0,0,0,0,0,0,0,0,0,0,0,0,0,0,0,0,0],"split_type":[0,0,0,0,0,0,0,0,0,0,0,0,0,0,0,0,0,0,0,0,0,0,0,0,0,0,0,0,0,0,0,0,0,0,0,0,0,0,0,0,0,0,0,0,0,0,0,0,0,0,0,0,0,0,0,0,0,0,0,0,0,0,0,0,0,0,0,0,0,0,0,0,0,0,0,0,0,0,0,0,0,0,0,0,0,0,0,0,0,0,0,0,0,0,0,0,0,0,0,0,0,0,0,0,0,0,0,0,0,0,0,0,0,0,0,0,0,0,0,0,0,0,0,0,0,0,0],"sum_hessian":[6.7507E4,3.498E4,3.2527E4,1.2708E4,2.2272E4,3.77E3,2.8757E4,1.0388E4,2.32E3,1.819E4,4.082E3,2.219E3,1.551E3,1.6253E4,1.2504E4,8.72E2,9.516E3,1.114E3,1.206E3,9.847E3,8.343E3,3.36E2,3.746E3,2.043E3,1.76E2,7.9E2,7.61E2,1.3294E4,2.959E3,1.157E4,9.34E2,3.42E2,5.3E2,1.057E3,8.459E3,9.2E2,1.94E2,1.117E3,8.9E1,6.962E3,2.885E3,5.575E3,2.768E3,1.75E2,1.61E2,3.1E3,6.46E2,1.603E3,4.4E2,8.7E1,8.9E1,1.3E2,6.6E2,5.03E2,2.58E2,7.607E3,5.687E3,2.571E3,3.88E2,2.28E2,1.1342E4,8.78E2,5.6E1,2.46E2,9.6E1,3.3E2,2E2,6.66E2,3.91E2,2.045E3,6.414E3,8.1E2,1.1E2,1.82E2,1.2E1,9.9E2,1.27E2,4.5E1,4.4E1,6.546E3,4.16E2,1.286E3,1.599E3,2.619E3,2.956E3,1.209E3,1.559E3,1.35E2,4E1,9.9E1,6.2E1,2.212E3,8.88E2,5.61E2,8.5E1,1.32E2,1.471E3,1.1E2,3.3E2,5.9E1,2.8E1,7E1,1.9E1,4.6E1,8.4E1,5.36E2,1.24E2,3.56E2,1.47E2,1.13E2,1.45E2,5.433E3,2.174E3,1.95E2,5.492E3,4.32E2,2.139E3,2.59E2,1.29E2,5E1,1.78E2,8.397E3,2.945E3,2.73E2,6.05E2,4.5E1,1.1E1],"tree_param":{"num_deleted":"0","num_feature":"30","num_nodes":"127","size_leaf_vector":"1"}},{"base_weights":[2.716949E-4,-5.451951E-2,6.1093304E-2,-1.24233484E-1,-1.4112767E-2,-5.500333E-2,7.5858004E-2,-1.4300442E-1,-4.704646E-2,-1.3896702E-3,-7.1067125E-2,-4.255292E-2,-7.27335E-2,4.720774E-2,1.1523438E-1,-1.7825514E-2,-1.5441209E-1,-9.4442815E-2,-6.891944E-3,-2.4665182E-2,2.7008649E-2,3.3738263E-2,-8.000155E-2,-5.5416264E-2,1.0177586E-1,-9.984884E-2,-3.942977E-2,5.7925012E-2,-2.1180515E-3,1.2438319E-1,1.5818251E-3,-1.7587706E-1,8.2277566E-2,-7.033435E-2,-1.6499493E-1,-1.09935E-1,-2.8229643E-2,-1.2071134E-1,4.3326165E-3,-1.0621498E-2,-5.9980962E-2,5.0668236E-2,-2.030316E-2,-1.2021283E-1,1.3281466E-1,-4.515607E-3,-9.42665E-2,-6.689788E-2,-1.2944605E-2,1.5018527E-1,2.9432848E-2,-1.5378425E-1,-8.982049E-2,-1.4651712E-2,-7.380124E-2,-6.360317E-2,6.258824E-2,-1.9265288E-2,1.2122344E-1,-8.173749E-2,1.2838162E-1,-1.0150241E-2,1.9911817E-1,-1.0043255E-2,-5.36756E-3,2.425447E-3,6.992427E-3,-8.261851E-3,2.749529E-3,-8.866194E-3,-4.871737E-3,-4.918847E-3,-9.634981E-3,-2.0741292E-3,6.7402474E-3,4.8221112E-4,-1.0300279E-2,-2.1587657E-4,6.9460995E-3,-8.446385E-4,4.4871927E-3,-2.0248436E-3,-3.809075E-3,1.9561702E-3,7.0151663E-3,7.2173704E-4,-2.3271276E-3,3.326038E-4,-6.5556425E-3,7.5732055E-3,-3.6779873E-3,-3.085898E-3,7.831044E-3,-8.258746E-3,-3.8940662E-3,-6.9240765E-3,-3.038995E-3,4.865141E-3,-2.6202386E-3,6.139766E-3,1.1381614E-2,-7.9623325E-4,3.4620669E-3,-6.0979854E-3,-1.0997682E-2,-5.396443E-3,-1.8210119E-3,-2.0080574E-3,2.334917E-3,-1.693834E-3,-4.738916E-3,6.9927885E-3,-5.811477E-3,2.4103497E-3,4.896944E-3,-4.873975E-3,-1.4838697E-4,8.831288E-3,-1.9271265E-3,-1.1494187E-2,-2.0664202E-3,8.9958515E-3,5.688156E-3,-2.568501E-3,3.871474E-4,1.1507076E-2,3.7389455E-4],"categories":[],"categories_nodes":[],"categories_segments":[],"categories_sizes":[],"default_left":[0,0,0,0,0,0,0,0,0,0,0,0,0,0,0,0,0,0,0,0,0,0,0,0,0,0,0,0,0,0,0,0,0,0,0,0,0,0,0,0,0,0,0,0,0,0,0,0,0,0,0,0,0,0,0,0,0,0,0,0,0,0,0,0,0,0,0,0,0,0,0,0,0,0,0,0,0,0,0,0,0,0,0,0,0,0,0,0,0,0,0,0,0,0,0,0,0,0,0,0,0,0,0,0,0,0,0,0,0,0,0,0,0,0,0,0,0,0,0,0,0,0,0,0,0,0,0],"id":2,"left_children":[1,3,5,7,9,11,13,15,17,19,21,23,25,27,29,31,33,35,37,39,41,43,45,47,49,51,53,55,57,59,61,63,65,67,69,71,73,75,77,79,81,83,85,87,89,91,93,95,97,99,101,103,105,107,109,111,113,115,117,119,121,123,125,-1,-1,-1,-1,-1,-1,-1,-1,-1,-1,-1,-1,-1,-1,-1,-1,-1,-1,-1,-1,-1,-1,-1,-1,-1,-1,-1,-1,-1,-1,-1,-1,-1,-1,-1,-1,-1,-1,-1,-1,-1,-1,-1,-1,-1,-1,-1,-1,-1,-1,-1,-1,-1,-1,-1,-1,-1,-1,-1,-1,-1,-1,-1,-1],"loss_changes":[2.2482642E2,9.997618E1,5.4810127E1,1.8861954E1,1.6282469E1,7.933636E-1,3.1995468E1,1.4955551E1,4.8505487E0,1.2141646E1,3.8446484E0,3.9452403E0,1.3388867E0,8.680885E0,1.2421082E1,1.3874059E1,8.530289E0,1.1960411E0,1.764851E0,5.006116E0,9.26276E0,4.9426584E0,4.0709667E0,9.4955015E-1,6.049421E-1,4.291706E-1,5.686779E-1,7.648945E0,6.2034154E0,9.122421E0,2.066922E0,5.6062794E-1,1.0371938E0,1.2794784E1,7.0844116E0,8.869419E-1,4.874254E-1,1.3806903E0,1.465186E0,4.5484347E0,9.03471E-1,5.70259E0,2.5155041E0,1.764915E-1,7.6934934E-1,5.5585318E0,3.6818104E0,6.63394E-1,1.8148581E0,1.9265985E-1,1.2930124E-1,2.4061227E-1,6.6619396E-1,6.1222744E-1,2.312895E-1,5.3592005E0,6.6002274E0,3.282063E0,3.175609E0,1.2536411E0,8.150604E0,6.214176E-1,2.955451E-1,0E0,0E0,0E0,0E0,0E0,0E0,0E0,0E0,0E0,0E0,0E0,0E0,0E0,0E0,0E0,0E0,0E0,0E0,0E0,0E0,0E0,0E0,0E0,0E0,0E0,0E0,0E0,0E0,0E0,0E0,0E0,0E0,0E0,0E0,0E0,0E0,0E0,0E0,0E0,0E0,0E0,0E0,0E0,0E0,0E0,0E0,0E0,0E0,0E0,0E0,0E0,0E0,0E0,0E0,0E0,0E0,0E0,0E0,0E0,0E0,0E0,0E0,0E0,0E0],"parents":[2147483647,0,0,1,1,2,2,3,3,4,4,5,5,6,6,7,7,8,8,9,9,10,10,11,11,12,12,13,13,14,14,15,15,16,16,17,17,18,18,19,19,20,20,21,21,22,22,23,23,24,24,25,25,26,26,27,27,28,28,29,29,30,30,31,31,32,32,33,33,34,34,35,35,36,36,37,37,38,38,39,39,40,40,41,41,42,42,43,43,44,44,45,45,46,46,47,47,48,48,49,49,50,50,51,51,52,52,53,53,54,54,55,55,56,56,57,57,58,58,59,59,60,60,61,61,62,62],"right_children":[2,4,6,8,10,12,14,16,18,20,22,24,26,28,30,32,34,36,38,40,42,44,46,48,50,52,54,56,58,60,62,64,66,68,70,72,74,76,78,80,82,84,86,88,90,92,94,96,98,100,102,104,106,108,110,112,114,116,118,120,122,124,126,-1,-1,-1,-1,-1,-1,-1,-1,-1,-1,-1,-1,-1,-1,-1,-1,-1,-1,-1,-1,-1,-1,-1,-1,-1,-1,-1,-1,-1,-1,-1,-1,-1,-1,-1,-1,-1,-1,-1,-1,-1,-1,-1,-1,-1,-1,-1,-1,-1,-1,-1,-1,-1,-1,-1,-1,-1,-1,-1,-1,-1,-1,-1,-1],"split_conditions":[2.1112435E-1,7E0,-1.3624518E0,-2.0246491E-1,2.1E1,1.31E2,8.1934386E-1,1.1E1,-6.532313E-1,8.939186E-1,1.1E1,1.27E2,1.47E2,4.3035382E-3,4.3035382E-3,5E0,-7.638886E-1,2.56E2,-9.9887973E-1,3.15E2,3.45E2,5E0,-7.638886E-1,-3.4754023E-1,6E0,1.33E2,1.52E2,-9.990741E-1,3.09E2,-9.9966663E-1,2.79E2,4E0,5.160447E-3,-8.311706E-1,-7.7097136E-1,2.43E2,-1.0853567E0,2.74E2,2.79E2,3.1E2,1.3E1,3.4E2,2.5478724E-1,-1.5379445E-2,1.9911858E0,3.09E2,-4.559067E-1,-6.244344E-1,7E1,1.6421682E0,-3.8286645E-2,1.0266503E0,1.0266503E0,1.0266503E0,-6.8919295E-1,1.82E2,3.9867157E-1,5.591699E-2,3.14E2,-6.244344E-1,-9.441875E-1,-6.875816E-1,7.3215574E-1,-1.0043255E-2,-5.36756E-3,2.425447E-3,6.992427E-3,-8.261851E-3,2.749529E-3,-8.866194E-3,-4.871737E-3,-4.918847E-3,-9.634981E-3,-2.0741292E-3,6.7402474E-3,4.8221112E-4,-1.0300279E-2,-2.1587657E-4,6.9460995E-3,-8.446385E-4,4.4871927E-3,-2.0248436E-3,-3.809075E-3,1.9561702E-3,7.0151663E-3,7.2173704E-4,-2.3271276E-3,3.326038E-4,-6.5556425E-3,7.5732055E-3,-3.6779873E-3,-3.085898E-3,7.831044E-3,-8.258746E-3,-3.8940662E-3,-6.9240765E-3,-3.038995E-3,4.865141E-3,-2.6202386E-3,6.139766E-3,1.1381614E-2,-7.9623325E-4,3.4620669E-3,-6.0979854E-3,-1.0997682E-2,-5.396443E-3,-1.8210119E-3,-2.0080574E-3,2.334917E-3,-1.693834E-3,-4.738916E-3,6.9927885E-3,-5.811477E-3,2.4103497E-3,4.896944E-3,-4.873975E-3,-1.4838697E-4,8.831288E-3,-1.9271265E-3,-1.1494187E-2,-2.0664202E-3,8.9958515E-3,5.688156E-3,-2.568501E-3,3.871474E-4,1.1507076E-2,3.7389455E-4],"split_indices":[10,20,19,10,20,23,10,23,19,29,23,23,23,29,29,23,28,23,28,23,23,23,28,13,21,23,23,29,23,29,23,23,19,28,6,23,19,23,23,23,20,23,6,14,18,23,28,6,23,7,6,9,9,9,9,23,19,29,23,6,29,19,19,0,0,0,0,0,0,0,0,0,0,0,0,0,0,0,0,0,0,0,0,0,0,0,0,0,0,0,0,0,0,0,0,0,0,0,0,0,0,0,0,0,0,0,0,0,0,0,0,0,0,0,0,0,0,0,0,0,0,0,0,0,0,0,0],"split_type":[0,0,0,0,0,0,0,0,0,0,0,0,0,0,0,0,0,0,0,0,0,0,0,0,0,0,0,0,0,0,0,0,0,0,0,0,0,0,0,0,0,0,0,0,0,0,0,0,0,0,0,0,0,0,0,0,0,0,0,0,0,0,0,0,0,0,0,0,0,0,0,0,0,0,0,0,0,0,0,0,0,0,0,0,0,0,0,0,0,0,0,0,0,0,0,0,0,0,0,0,0,0,0,0,0,0,0,0,0,0,0,0,0,0,0,0,0,0,0,0,0,0,0,0,0,0,0],"sum_hessian":[6.7463E4,3.5491E4,3.1972E4,1.3022E4,2.2469E4,3.607E3,2.8365E4,1.0474E4,2.548E3,1.8367E4,4.102E3,2.121E3,1.486E3,1.642E4,1.1945E4,8.75E2,9.599E3,1.168E3,1.38E3,1.0094E4,8.273E3,3.22E2,3.78E3,1.948E3,1.73E2,8.18E2,6.68E2,1.3489E4,2.931E3,1.1055E4,8.9E2,3.39E2,5.36E2,1.074E3,8.525E3,9.46E2,2.22E2,1.23E2,1.257E3,7.223E3,2.871E3,5.515E3,2.758E3,1.26E2,1.96E2,6.01E2,3.179E3,1.533E3,4.15E2,1.03E2,7E1,1.26E2,6.92E2,3.89E2,2.79E2,4.98E2,1.2991E4,2.574E3,3.57E2,2.1E2,1.0845E4,8.41E2,4.9E1,2.47E2,9.2E1,3.39E2,1.97E2,6.11E2,4.63E2,7.208E3,1.317E3,8.32E2,1.14E2,2.06E2,1.6E1,4.9E1,7.4E1,1.182E3,7.5E1,6.799E3,4.24E2,1.305E3,1.566E3,4.887E3,6.28E2,1.187E3,1.571E3,1E1,1.16E2,1.8E2,1.6E1,4.44E2,1.57E2,5.95E2,2.584E3,1.19E2,1.414E3,1.09E2,3.06E2,7.8E1,2.5E1,3.3E1,3.7E1,8.7E1,3.9E1,5.16E2,1.76E2,2.75E2,1.14E2,9.7E1,1.82E2,1.02E2,3.96E2,9.236E3,3.755E3,4.43E2,2.131E3,2.65E2,9.2E1,4.4E1,1.66E2,2.394E3,8.451E3,2.54E2,5.87E2,4.2E1,7E0],"tree_param":{"num_deleted":"0","num_feature":"30","num_nodes":"127","size_leaf_vector":"1"}},{"base_weights":[4.6457996E-4,-5.2391276E-2,5.7005357E-2,-1.19797476E-1,-1.3647642E-2,-5.2825116E-2,7.1206644E-2,-1.3542163E-1,-4.751383E-2,-1.5676047E-3,-6.738228E-2,-4.012818E-2,-7.07112E-2,4.3930978E-2,1.0876978E-1,-1.6904812E-2,-1.46415E-1,-9.1474295E-2,-8.812515E-3,3.907574E-2,-1.4606783E-2,3.9582696E-2,-7.67054E-2,-5.1678333E-2,8.7080546E-2,-9.497434E-2,-3.9590266E-2,4.943717E-2,-3.9358005E-2,-1.0949203E-2,1.15048215E-1,-1.6888447E-1,7.680066E-2,-7.0025705E-2,-1.5597227E-1,-1.06697544E-1,-3.128873E-2,-1.8022161E-2,1.3194036E-1,1.9213742E-2,1.0725787E-1,-4.8838977E-2,-4.442918E-3,-1.1072287E-1,1.3856818E-1,-4.9800132E-3,-9.0713575E-2,-9.058584E-3,-6.159898E-2,1.354566E-1,2.6433436E-2,-1.4834379E-1,-8.545742E-2,-1.52364215E-2,-6.8530045E-2,6.793813E-2,1.8802945E-2,-4.8263855E-2,7.3772E-2,1.3481039E-2,-4.6412796E-2,1.4236943E-1,9.085512E-2,-9.601286E-3,-5.086171E-3,2.2205233E-3,6.6630724E-3,-7.4878284E-3,3.473914E-3,-8.495769E-3,-5.1630572E-3,-4.8281397E-3,-9.232915E-3,-1.8884068E-3,6.0607037E-3,-2.9058373E-4,-7.186603E-3,1.0437835E-2,-4.7543403E-4,-1.2725962E-3,1.5713827E-3,8.73661E-3,3.8097438E-3,-7.93245E-4,-2.9732962E-3,6.4111385E-4,-9.541525E-4,-4.493601E-3,-8.133516E-3,4.3239053E-3,1.0931222E-2,-3.222312E-3,7.358593E-3,-7.980049E-3,-3.7767112E-3,-3.955874E-3,5.1644817E-3,-5.3671445E-3,-2.7711352E-3,4.01011E-3,8.114955E-3,2.5946496E-3,-1.8628018E-3,-5.6469403E-3,-1.0048616E-2,-4.9227155E-3,-1.2749144E-3,-2.0261928E-3,2.245114E-3,-2.5750604E-3,-5.72412E-3,3.936354E-3,5.065269E-4,5.711812E-4,3.158529E-3,-5.661387E-3,-2.1673355E-3,1.2201468E-2,1.2151438E-3,-1.560091E-3,1.628867E-3,-1.7701049E-3,-5.4982165E-3,3.1201479E-3,7.601867E-3,3.562779E-3,7.308747E-3],"categories":[],"categories_nodes":[],"categories_segments":[],"categories_sizes":[],"default_left":[0,0,0,0,0,0,0,0,0,0,0,0,0,0,0,0,0,0,0,0,0,0,0,0,0,0,0,0,0,0,0,0,0,0,0,0,0,0,0,0,0,0,0,0,0,0,0,0,0,0,0,0,0,0,0,0,0,0,0,0,0,0,0,0,0,0,0,0,0,0,0,0,0,0,0,0,0,0,0,0,0,0,0,0,0,0,0,0,0,0,0,0,0,0,0,0,0,0,0,0,0,0,0,0,0,0,0,0,0,0,0,0,0,0,0,0,0,0,0,0,0,0,0,0,0,0,0],"id":3,"left_children":[1,3,5,7,9,11,13,15,17,19,21,23,25,27,29,31,33,35,37,39,41,43,45,47,49,51,53,55,57,59,61,63,65,67,69,71,73,75,77,79,81,83,85,87,89,91,93,95,97,99,101,103,105,107,109,111,113,115,117,119,121,123,125,-1,-1,-1,-1,-1,-1,-1,-1,-1,-1,-1,-1,-1,-1,-1,-1,-1,-1,-1,-1,-1,-1,-1,-1,-1,-1,-1,-1,-1,-1,-1,-1,-1,-1,-1,-1,-1,-1,-1,-1,-1,-1,-1,-1,-1,-1,-1,-1,-1,-1,-1,-1,-1,-1,-1,-1,-1,-1,-1,-1,-1,-1,-1,-1],"loss_changes":[2.013091E2,9.091987E1,5.076686E1,1.4344482E1,1.4351212E1,8.4355927E-1,2.9523026E1,1.3610214E1,3.8441958E0,9.567332E0,4.0498657E0,3.21047E0,1.1636119E0,7.659733E0,9.11348E0,1.2659266E1,6.9693146E0,9.6602154E-1,1.5618079E0,5.9362526E0,4.7553096E0,4.865593E0,3.750246E0,8.454952E-1,5.303832E-1,4.2819118E-1,4.7751164E-1,8.875923E0,1.04735E0,5.247881E-1,7.600952E0,5.073366E-1,9.99908E-1,1.1856157E1,6.2273865E0,6.49024E-1,2.1702538E-1,1.7336912E0,8.060391E-1,1.8540078E0,2.0595865E0,1.0955005E0,2.6643848E0,1.2618983E-1,8.026109E-1,5.5377507E0,3.253559E0,2.991278E0,4.5259237E-1,1.3678324E-1,1.348968E-1,2.1953297E-1,5.7337856E-1,5.644984E-1,2.366836E-1,6.08947E0,1.9306288E0,3.0207086E-1,6.3417816E-1,3.07343E-1,1.6894448E-1,4.1714935E0,6.616482E0,0E0,0E0,0E0,0E0,0E0,0E0,0E0,0E0,0E0,0E0,0E0,0E0,0E0,0E0,0E0,0E0,0E0,0E0,0E0,0E0,0E0,0E0,0E0,0E0,0E0,0E0,0E0,0E0,0E0,0E0,0E0,0E0,0E0,0E0,0E0,0E0,0E0,0E0,0E0,0E0,0E0,0E0,0E0,0E0,0E0,0E0,0E0,0E0,0E0,0E0,0E0,0E0,0E0,0E0,0E0,0E0,0E0,0E0,0E0,0E0,0E0,0E0,0E0,0E0],"parents":[2147483647,0,0,1,1,2,2,3,3,4,4,5,5,6,6,7,7,8,8,9,9,10,10,11,11,12,12,13,13,14,14,15,15,16,16,17,17,18,18,19,19,20,20,21,21,22,22,23,23,24,24,25,25,26,26,27,27,28,28,29,29,30,30,31,31,32,32,33,33,34,34,35,35,36,36,37,37,38,38,39,39,40,40,41,41,42,42,43,43,44,44,45,45,46,46,47,47,48,48,49,49,50,50,51,51,52,52,53,53,54,54,55,55,56,56,57,57,58,58,59,59,60,60,61,61,62,62],"right_children":[2,4,6,8,10,12,14,16,18,20,22,24,26,28,30,32,34,36,38,40,42,44,46,48,50,52,54,56,58,60,62,64,66,68,70,72,74,76,78,80,82,84,86,88,90,92,94,96,98,100,102,104,106,108,110,112,114,116,118,120,122,124,126,-1,-1,-1,-1,-1,-1,-1,-1,-1,-1,-1,-1,-1,-1,-1,-1,-1,-1,-1,-1,-1,-1,-1,-1,-1,-1,-1,-1,-1,-1,-1,-1,-1,-1,-1,-1,-1,-1,-1,-1,-1,-1,-1,-1,-1,-1,-1,-1,-1,-1,-1,-1,-1,-1,-1,-1,-1,-1,-1,-1,-1,-1,-1,-1],"split_conditions":[1.3813801E-1,7E0,-1.3624518E0,-2.0246491E-1,2.1E1,1.31E2,7.9501504E-1,1.1E1,-6.532313E-1,2.6E1,1.1E1,1.27E2,1.47E2,9.3383723E-1,9.5E1,5E0,-7.638886E-1,2.56E2,2.79E2,8.970987E-1,-9.377785E-1,5E0,-7.638886E-1,7E1,6E0,1.33E2,6E0,7.0710677E-1,9.5E1,4E0,3E0,4E0,5.160447E-3,3.09E2,8.800122E-1,2.45E2,-1.0853567E0,1E1,6.7835945E-1,6E0,1.1E1,-7.583058E-1,-6.8919295E-1,2.3E1,5.160447E-3,3.09E2,-4.559067E-1,6.5E1,-6.244344E-1,-1.8482359E-1,-7.5249106E-1,7.322582E-1,1.2525455E0,1.0266503E0,1.0266503E0,1E1,5.4798716E-1,6E0,-1.0640452E0,7.7E1,-1.1210469E0,1.32E2,3.8139504E-1,-9.601286E-3,-5.086171E-3,2.2205233E-3,6.6630724E-3,-7.4878284E-3,3.473914E-3,-8.495769E-3,-5.1630572E-3,-4.8281397E-3,-9.232915E-3,-1.8884068E-3,6.0607037E-3,-2.9058373E-4,-7.186603E-3,1.0437835E-2,-4.7543403E-4,-1.2725962E-3,1.5713827E-3,8.73661E-3,3.8097438E-3,-7.93245E-4,-2.9732962E-3,6.4111385E-4,-9.541525E-4,-4.493601E-3,-8.133516E-3,4.3239053E-3,1.0931222E-2,-3.222312E-3,7.358593E-3,-7.980049E-3,-3.7767112E-3,-3.955874E-3,5.1644817E-3,-5.3671445E-3,-2.7711352E-3,4.01011E-3,8.114955E-3,2.5946496E-3,-1.8628018E-3,-5.6469403E-3,-1.0048616E-2,-4.9227155E-3,-1.2749144E-3,-2.0261928E-3,2.245114E-3,-2.5750604E-3,-5.72412E-3,3.936354E-3,5.065269E-4,5.711812E-4,3.158529E-3,-5.661387E-3,-2.1673355E-3,1.2201468E-2,1.2151438E-3,-1.560091E-3,1.628867E-3,-1.7701049E-3,-5.4982165E-3,3.1201479E-3,7.601867E-3,3.562779E-3,7.308747E-3],"split_indices":[10,20,19,10,20,23,10,23,19,23,23,23,23,28,23,23,28,23,23,19,19,23,28,23,21,23,22,26,23,21,21,23,19,23,28,23,19,22,19,23,23,28,9,20,19,23,28,23,6,6,14,9,9,9,9,22,19,20,6,23,14,23,19,0,0,0,0,0,0,0,0,0,0,0,0,0,0,0,0,0,0,0,0,0,0,0,0,0,0,0,0,0,0,0,0,0,0,0,0,0,0,0,0,0,0,0,0,0,0,0,0,0,0,0,0,0,0,0,0,0,0,0,0,0,0,0,0],"split_type":[0,0,0,0,0,0,0,0,0,0,0,0,0,0,0,0,0,0,0,0,0,0,0,0,0,0,0,0,0,0,0,0,0,0,0,0,0,0,0,0,0,0,0,0,0,0,0,0,0,0,0,0,0,0,0,0,0,0,0,0,0,0,0,0,0,0,0,0,0,0,0,0,0,0,0,0,0,0,0,0,0,0,0,0,0,0,0,0,0,0,0,0,0,0,0,0,0,0,0,0,0,0,0,0,0,0,0,0,0,0,0,0,0,0,0,0,0,0,0,0,0,0,0,0,0,0,0],"sum_hessian":[6.7359E4,3.4814E4,3.2545E4,1.2706E4,2.2108E4,3.726E3,2.8819E4,1.0447E4,2.259E3,1.8051E4,4.057E3,2.181E3,1.545E3,1.6697E4,1.2122E4,8.87E2,9.56E3,1.057E3,1.202E3,4.384E3,1.3667E4,3.25E2,3.732E3,2E3,1.81E2,8.67E2,6.78E2,1.5662E4,1.035E3,6.04E2,1.1518E4,3.38E2,5.49E2,1.064E3,8.496E3,8.43E2,2.14E2,1.129E3,7.3E1,3.396E3,9.88E2,3.128E3,1.0539E4,1.29E2,1.96E2,6.1E2,3.122E3,3.78E2,1.622E3,1E2,8.1E1,1.29E2,7.38E2,3.69E2,3.09E2,9.764E3,5.898E3,9.6E2,7.5E1,3.58E2,2.46E2,5.407E3,6.111E3,2.5E2,8.8E1,3.5E2,1.99E2,6.77E2,3.87E2,6.717E3,1.779E3,7.48E2,9.5E1,2.06E2,8E0,1.03E3,9.9E1,4.7E1,2.6E1,7.29E2,2.667E3,3.1E2,6.78E2,7.63E2,2.365E3,4.836E3,5.703E3,9.4E1,3.5E1,1.2E2,7.6E1,4.39E2,1.71E2,5.62E2,2.56E3,2.33E2,1.45E2,1.91E2,1.431E3,3.4E1,6.6E1,5.8E1,2.3E1,7.9E1,5E1,6.06E2,1.32E2,2.6E2,1.09E2,2.27E2,8.2E1,8.228E3,1.536E3,5.058E3,8.4E2,6.6E1,8.94E2,1.6E1,5.9E1,1.07E2,2.51E2,2.11E2,3.5E1,5.84E2,4.823E3,4.514E3,1.597E3],"tree_param":{"num_deleted":"0","num_feature":"30","num_nodes":"127","size_leaf_vector":"1"}},{"base_weights":[-1.9865761E-4,-4.4919252E-2,6.0176726E-2,-1.0305119E-1,-1.1085839E-2,-4.1407365E-2,7.519357E-2,-1.2897258E-1,-3.419351E-2,-2.9916028E-3,-7.0934445E-2,-4.8582558E-2,1.6393626E-2,5.3560097E-2,1.126933E-1,-1.8166529E-2,-1.3889134E-1,-7.747712E-2,-1.1405486E-4,5.9504118E-2,-8.831225E-3,-8.675409E-2,3.6247183E-2,-3.476774E-2,-6.2570654E-2,1.0828945E-1,-1.1214144E-1,-8.1053795E-3,6.100358E-2,-4.014862E-3,1.19114734E-1,-1.5699042E-1,7.2534665E-2,-1.6030669E-1,-1.0931463E-1,-8.0252364E-2,1.6215344E-1,-5.393638E-3,1.2868454E-1,-2.5547177E-2,1.3974275E-1,-1.4464726E-2,4.6459083E-2,2.4575192E-2,-9.626772E-2,-4.341249E-2,9.545533E-2,1.1935445E-1,-4.2559255E-2,-5.2918483E-2,-8.837916E-2,1.4720272E-1,3.9845064E-2,-1.6312337E-1,1.8122228E-2,1.5354417E-1,-1.5205906E-2,7.6177515E-2,2.9913783E-2,2.5311159E-2,-4.1880943E-2,1.469408E-1,9.492637E-2,-8.9697065E-3,-4.901578E-3,1.9251036E-3,6.560637E-3,-8.702804E-3,-4.3330174E-3,-9.5782755E-3,-4.981186E-3,-5.2052895E-3,-2.8781947E-3,9.965017E-3,4.7303587E-3,2.3114937E-4,-6.4205923E-3,9.286318E-4,1.0982941E-2,1.1640897E-5,-2.1075434E-3,4.569391E-3,1.0486373E-2,2.651941E-4,-1.4928052E-3,3.2684463E-4,3.9297855E-3,-6.5064626E-3,5.9838262E-3,-5.996945E-3,-3.198279E-3,-6.188124E-3,-7.464112E-4,3.980591E-3,1.3811732E-2,-2.3085903E-3,6.3201576E-3,-3.2628446E-3,-1.3881252E-3,-2.983606E-3,7.1454546E-3,-5.4666987E-3,-3.0459992E-3,1.1699205E-2,5.6520184E-3,6.853572E-4,4.919486E-3,-6.6387164E-3,-1.17818E-2,-3.200355E-5,5.079067E-3,-4.8878687E-3,8.893547E-3,4.2794948E-4,-2.4016623E-3,4.2685727E-3,6.673163E-4,2.8327142E-3,7.775719E-4,1.3757714E-4,2.6743875E-3,-5.751213E-3,-1.6330371E-3,3.2393874E-3,7.912058E-3,3.8849325E-3,7.169315E-3],"categories":[],"categories_nodes":[],"categories_segments":[],"categories_sizes":[],"default_left":[0,0,0,0,0,0,0,0,0,0,0,0,0,0,0,0,0,0,0,0,0,0,0,0,0,0,0,0,0,0,0,0,0,0,0,0,0,0,0,0,0,0,0,0,0,0,0,0,0,0,0,0,0,0,0,0,0,0,0,0,0,0,0,0,0,0,0,0,0,0,0,0,0,0,0,0,0,0,0,0,0,0,0,0,0,0,0,0,0,0,0,0,0,0,0,0,0,0,0,0,0,0,0,0,0,0,0,0,0,0,0,0,0,0,0,0,0,0,0,0,0,0,0,0,0,0,0],"id":4,"left_children":[1,3,5,7,9,11,13,15,17,19,21,23,25,27,29,31,33,35,37,39,41,43,45,47,49,51,53,55,57,59,61,63,65,67,69,71,73,75,77,79,81,83,85,87,89,91,93,95,97,99,101,103,105,107,109,111,113,115,117,119,121,123,125,-1,-1,-1,-1,-1,-1,-1,-1,-1,-1,-1,-1,-1,-1,-1,-1,-1,-1,-1,-1,-1,-1,-1,-1,-1,-1,-1,-1,-1,-1,-1,-1,-1,-1,-1,-1,-1,-1,-1,-1,-1,-1,-1,-1,-1,-1,-1,-1,-1,-1,-1,-1,-1,-1,-1,-1,-1,-1,-1,-1,-1,-1,-1,-1],"loss_changes":[1.8211386E2,7.6208496E1,4.3785698E1,2.5439148E1,1.1865386E1,1.5340648E0,2.0279251E1,1.1379318E1,5.752811E0,7.875083E0,4.9508333E0,6.333995E-1,4.8431845E0,7.279873E0,6.8555527E0,1.0739338E1,6.002899E0,1.1555386E0,1.4851403E0,1.2587761E1,6.147378E0,2.6957722E0,1.7775486E0,1.99488E0,4.0211725E-1,6.3068604E-1,1.1385832E0,1.9639198E0,6.673519E0,5.3186065E-1,5.821541E0,4.27557E-1,1.025383E0,5.5653076E0,3.1652718E0,9.135027E-1,3.1327486E-2,2.5858064E0,8.5741246E-1,3.8353646E-1,3.1923504E0,5.449565E0,2.3408961E0,2.9728055E0,1.7838573E0,3.6663482E-1,5.9667134E-1,9.917605E-2,5.2816176E-1,1.5836813E0,2.4824238E-1,4.2417789E-1,1.3331209E-1,2.3939824E-1,7.679337E-2,4.5754957E-1,1.2782776E0,5.49189E0,1.7822919E0,1.7147917E-1,1.3719198E-1,3.731041E0,3.8634186E0,0E0,0E0,0E0,0E0,0E0,0E0,0E0,0E0,0E0,0E0,0E0,0E0,0E0,0E0,0E0,0E0,0E0,0E0,0E0,0E0,0E0,0E0,0E0,0E0,0E0,0E0,0E0,0E0,0E0,0E0,0E0,0E0,0E0,0E0,0E0,0E0,0E0,0E0,0E0,0E0,0E0,0E0,0E0,0E0,0E0,0E0,0E0,0E0,0E0,0E0,0E0,0E0,0E0,0E0,0E0,0E0,0E0,0E0,0E0,0E0,0E0,0E0,0E0,0E0],"parents":[2147483647,0,0,1,1,2,2,3,3,4,4,5,5,6,6,7,7,8,8,9,9,10,10,11,11,12,12,13,13,14,14,15,15,16,16,17,17,18,18,19,19,20,20,21,21,22,22,23,23,24,24,25,25,26,26,27,27,28,28,29,29,30,30,31,31,32,32,33,33,34,34,35,35,36,36,37,37,38,38,39,39,40,40,41,41,42,42,43,43,44,44,45,45,46,46,47,47,48,48,49,49,50,50,51,51,52,52,53,53,54,54,55,55,56,56,57,57,58,58,59,59,60,60,61,61,62,62],"right_children":[2,4,6,8,10,12,14,16,18,20,22,24,26,28,30,32,34,36,38,40,42,44,46,48,50,52,54,56,58,60,62,64,66,68,70,72,74,76,78,80,82,84,86,88,90,92,94,96,98,100,102,104,106,108,110,112,114,116,118,120,122,124,126,-1,-1,-1,-1,-1,-1,-1,-1,-1,-1,-1,-1,-1,-1,-1,-1,-1,-1,-1,-1,-1,-1,-1,-1,-1,-1,-1,-1,-1,-1,-1,-1,-1,-1,-1,-1,-1,-1,-1,-1,-1,-1,-1,-1,-1,-1,-1,-1,-1,-1,-1,-1,-1,-1,-1,-1,-1,-1,-1,-1,-1,-1,-1,-1],"split_conditions":[2.9627508E-1,-6.244344E-1,-1.3451841E0,-2.5112247E-1,2.2E1,1.58E2,9.409877E-1,1.1E1,-6.532313E-1,1.1E1,6.185558E-1,5.366156E-1,4E0,1.26E2,9.5E1,5E0,-1.0053146E0,2.79E2,2.79E2,6E0,7.8417224E-1,1.1E1,-6.875816E-1,7E1,1.31E2,9.775975E-1,6E0,-7.136949E-1,7.0710677E-1,4E0,3E0,4E0,5.160447E-3,-7.7097136E-1,6.3E1,1.56E2,-1.0640452E0,1E1,2.7127507E-1,2.5478724E-1,5.160447E-3,-6.8919295E-1,1E1,5E0,-6.4038295E-1,7E0,1E1,-1.3924699E0,6.0038483E-1,1.27E2,1.46E2,1.59E2,-1.1848549E0,7.322582E-1,1.4270828E0,6.3E1,-4.8555395E-1,1E1,1.83E2,8.8E1,7.8E1,1.32E2,3.8139504E-1,-8.9697065E-3,-4.901578E-3,1.9251036E-3,6.560637E-3,-8.702804E-3,-4.3330174E-3,-9.5782755E-3,-4.981186E-3,-5.2052895E-3,-2.8781947E-3,9.965017E-3,4.7303587E-3,2.3114937E-4,-6.4205923E-3,9.286318E-4,1.0982941E-2,1.1640897E-5,-2.1075434E-3,4.569391E-3,1.0486373E-2,2.651941E-4,-1.4928052E-3,3.2684463E-4,3.9297855E-3,-6.5064626E-3,5.9838262E-3,-5.996945E-3,-3.198279E-3,-6.188124E-3,-7.464112E-4,3.980591E-3,1.3811732E-2,-2.3085903E-3,6.3201576E-3,-3.2628446E-3,-1.3881252E-3,-2.983606E-3,7.1454546E-3,-5.4666987E-3,-3.0459992E-3,1.1699205E-2,5.6520184E-3,6.853572E-4,4.919486E-3,-6.6387164E-3,-1.17818E-2,-3.200355E-5,5.079067E-3,-4.8878687E-3,8.893547E-3,4.2794948E-4,-2.4016623E-3,4.2685727E-3,6.673163E-4,2.8327142E-3,7.775719E-4,1.3757714E-4,2.6743875E-3,-5.751213E-3,-1.6330371E-3,3.2393874E-3,7.912058E-3,3.8849325E-3,7.169315E-3],"split_indices":[10,6,19,10,20,23,10,23,19,23,13,15,21,23,23,23,10,23,23,23,13,23,19,23,23,8,21,19,26,21,21,23,19,6,23,23,6,22,14,6,19,9,20,23,10,22,22,15,10,23,23,23,18,9,6,23,13,22,23,23,23,23,19,0,0,0,0,0,0,0,0,0,0,0,0,0,0,0,0,0,0,0,0,0,0,0,0,0,0,0,0,0,0,0,0,0,0,0,0,0,0,0,0,0,0,0,0,0,0,0,0,0,0,0,0,0,0,0,0,0,0,0,0,0,0,0,0],"split_type":[0,0,0,0,0,0,0,0,0,0,0,0,0,0,0,0,0,0,0,0,0,0,0,0,0,0,0,0,0,0,0,0,0,0,0,0,0,0,0,0,0,0,0,0,0,0,0,0,0,0,0,0,0,0,0,0,0,0,0,0,0,0,0,0,0,0,0,0,0,0,0,0,0,0,0,0,0,0,0,0,0,0,0,0,0,0,0,0,0,0,0,0,0,0,0,0,0,0,0,0,0,0,0,0,0,0,0,0,0,0,0,0,0,0,0,0,0,0,0,0,0,0,0,0,0,0,0],"sum_hessian":[6.7447E4,3.8747E4,2.87E4,1.4254E4,2.4493E4,3.696E3,2.5004E4,1.0355E4,3.899E3,2.1576E4,2.917E3,3.288E3,4.08E2,1.5858E4,9.146E3,8.51E2,9.504E3,1.717E3,2.182E3,1.843E3,1.9733E4,2.542E3,3.75E2,1.656E3,1.632E3,2.38E2,1.7E2,1.708E3,1.415E4,4.77E2,8.669E3,3.36E2,5.15E2,5.51E3,3.994E3,1.698E3,1.9E1,2.097E3,8.5E1,8.95E2,9.48E2,1.7909E4,1.824E3,2E2,2.342E3,1.6E2,2.15E2,7.9E1,1.577E3,1.19E3,4.42E2,1.51E2,8.7E1,1.22E2,4.8E1,7.1E1,1.637E3,9.508E3,4.642E3,2.69E2,2.08E2,4.029E3,4.64E3,2.42E2,9.4E1,3.27E2,1.88E2,4.642E3,8.68E2,4.19E2,3.575E3,8.26E2,8.72E2,1.1E1,8E0,1.94E3,1.57E2,3.9E1,4.6E1,3.51E2,5.44E2,5.62E2,3.86E2,7.84E3,1.0069E4,8.14E2,1.01E3,7.6E1,1.24E2,1.35E3,9.92E2,4.1E1,1.19E2,1.99E2,1.6E1,3E0,7.6E1,6.21E2,9.56E2,1.151E3,3.9E1,2.49E2,1.93E2,4.1E1,1.1E2,6.1E1,2.6E1,8.8E1,3.4E1,4E1,8E0,6E0,6.5E1,9.5E2,6.87E2,8.294E3,1.214E3,1.621E3,3.021E3,1.5E2,1.19E2,2.2E1,1.86E2,4.88E2,3.541E3,3.425E3,1.215E3],"tree_param":{"num_deleted":"0","num_feature":"30","num_nodes":"127","size_leaf_vector":"1"}},{"base_weights":[-3.0908914E-4,-4.2773932E-2,5.7050847E-2,-9.871194E-2,-1.01653235E-2,-4.6131786E-2,7.0448466E-2,-1.2346004E-1,-3.2717064E-2,-9.819639E-5,-5.5605866E-2,-3.256816E-2,-5.9310187E-2,5.049878E-2,1.03742324E-1,-1.2311262E-2,-1.3346541E-1,-7.0415154E-2,-2.5887962E-3,-1.7313136E-2,2.4057297E-2,-6.810293E-2,3.540469E-2,1.15658276E-1,-4.0824592E-2,-5.331489E-2,-9.584839E-2,3.6503054E-2,8.632517E-2,1.1172298E-1,-2.112078E-3,-1.4980291E-1,7.154821E-2,-1.19414695E-1,-1.7829198E-1,-1.0052872E-1,-4.3705758E-2,-2.0802979E-1,3.6764788E-3,-2.7449887E-2,4.262442E-2,1.21246934E-1,1.4183493E-2,3.0841779E-2,-7.692813E-2,-3.937726E-2,8.36979E-2,-2.4453525E-3,1.2428228E-1,-6.1524767E-2,-2.5877677E-2,-7.8752935E-2,-4.382184E-2,-1.2076256E-2,-1.0448476E-1,4.2529482E-2,-3.5890054E-2,1.6000259E-1,7.525317E-2,-9.6754335E-2,1.1607041E-1,-1.2572382E-2,2.2041412E-1,-8.3068395E-3,-3.418764E-3,6.6822106E-3,2.3439843E-3,-6.7240186E-3,5.7179034E-3,-9.635743E-3,-4.2440416E-3,-5.4595447E-3,-2.3305055E-3,-2.426779E-3,7.7493167E-3,-1.1634469E-2,-5.166958E-3,-4.975626E-3,6.7331095E-4,-7.506787E-4,-2.8413415E-3,3.7559438E-3,2.3332893E-4,-7.147419E-4,7.521839E-3,6.958202E-5,4.6024127E-3,-3.8122875E-3,7.266504E-3,-2.9907196E-3,-5.9221066E-3,-5.7994574E-3,-6.143946E-4,3.471765E-3,1.2632112E-2,4.9530547E-3,8.599492E-3,-2.666772E-3,-4.5078928E-3,-1.684285E-3,1.3720947E-3,-4.800679E-3,-2.7976187E-3,-2.5382512E-3,7.1028247E-3,-2.9619567E-3,3.3935176E-3,-4.976382E-3,-8.6355405E-3,-3.8870776E-3,2.2959684E-3,-9.502747E-4,-3.3051718E-3,9.420778E-3,5.4642963E-3,1.1020927E-3,5.0689634E-3,-1.1533566E-2,-2.9777458E-3,8.304357E-3,5.07052E-3,-2.569953E-3,3.2990912E-4,6.4404397E-3,1.1679142E-2],"categories":[],"categories_nodes":[],"categories_segments":[],"categories_sizes":[],"default_left":[0,0,0,0,0,0,0,0,0,0,0,0,0,0,0,0,0,0,0,0,0,0,0,0,0,0,0,0,0,0,0,0,0,0,0,0,0,0,0,0,0,0,0,0,0,0,0,0,0,0,0,0,0,0,0,0,0,0,0,0,0,0,0,0,0,0,0,0,0,0,0,0,0,0,0,0,0,0,0,0,0,0,0,0,0,0,0,0,0,0,0,0,0,0,0,0,0,0,0,0,0,0,0,0,0,0,0,0,0,0,0,0,0,0,0,0,0,0,0,0,0,0,0,0,0],"id":5,"left_children":[1,3,5,7,9,11,13,15,17,19,21,23,25,27,29,31,33,35,37,39,41,43,45,47,49,51,53,55,57,59,61,63,65,67,69,71,73,75,77,79,81,83,85,87,89,91,93,-1,95,97,99,101,103,105,107,109,111,113,115,117,119,121,123,-1,-1,-1,-1,-1,-1,-1,-1,-1,-1,-1,-1,-1,-1,-1,-1,-1,-1,-1,-1,-1,-1,-1,-1,-1,-1,-1,-1,-1,-1,-1,-1,-1,-1,-1,-1,-1,-1,-1,-1,-1,-1,-1,-1,-1,-1,-1,-1,-1,-1,-1,-1,-1,-1,-1,-1,-1,-1,-1,-1,-1,-1],"loss_changes":[1.6404253E2,7.0586494E1,3.9607674E1,2.3271393E1,1.1183872E1,5.8668184E-1,1.6836922E1,1.1523987E1,4.4157224E0,8.323362E0,5.0454865E0,1.9934316E0,3.6049652E-1,7.948311E0,8.025726E0,9.891908E0,5.967285E0,1.3846588E0,2.7835708E0,7.1018653E0,7.99105E0,3.4070034E0,1.9390385E0,1.2813056E-1,4.7488976E-1,3.4332085E-1,1.6803408E-1,4.977206E0,3.621334E0,8.017838E0,1.5553415E0,4.2089987E-1,8.1019306E-1,2.5521294E1,3.0378723E0,3.736906E-1,8.8751924E-1,1.4117837E-1,2.121736E0,3.6514592E0,2.0853622E0,3.040697E0,7.5318856E0,3.9343672E0,2.5363598E0,4.3647727E-1,7.679827E-1,0E0,8.162832E-2,1.4643478E-1,3.7394744E-1,1.4771986E-1,1.3597465E0,9.074236E-2,5.450988E-2,4.2962933E0,4.4613612E-1,8.166361E-1,5.383417E0,8.87938E-1,6.3286743E0,4.7522122E-1,6.1022043E-3,0E0,0E0,0E0,0E0,0E0,0E0,0E0,0E0,0E0,0E0,0E0,0E0,0E0,0E0,0E0,0E0,0E0,0E0,0E0,0E0,0E0,0E0,0E0,0E0,0E0,0E0,0E0,0E0,0E0,0E0,0E0,0E0,0E0,0E0,0E0,0E0,0E0,0E0,0E0,0E0,0E0,0E0,0E0,0E0,0E0,0E0,0E0,0E0,0E0,0E0,0E0,0E0,0E0,0E0,0E0,0E0,0E0,0E0,0E0,0E0,0E0,0E0],"parents":[2147483647,0,0,1,1,2,2,3,3,4,4,5,5,6,6,7,7,8,8,9,9,10,10,11,11,12,12,13,13,14,14,15,15,16,16,17,17,18,18,19,19,20,20,21,21,22,22,23,23,24,24,25,25,26,26,27,27,28,28,29,29,30,30,31,31,32,32,33,33,34,34,35,35,36,36,37,37,38,38,39,39,40,40,41,41,42,42,43,43,44,44,45,45,46,46,48,48,49,49,50,50,51,51,52,52,53,53,54,54,55,55,56,56,57,57,58,58,59,59,60,60,61,61,62,62],"right_children":[2,4,6,8,10,12,14,16,18,20,22,24,26,28,30,32,34,36,38,40,42,44,46,48,50,52,54,56,58,60,62,64,66,68,70,72,74,76,78,80,82,84,86,88,90,92,94,-1,96,98,100,102,104,106,108,110,112,114,116,118,120,122,124,-1,-1,-1,-1,-1,-1,-1,-1,-1,-1,-1,-1,-1,-1,-1,-1,-1,-1,-1,-1,-1,-1,-1,-1,-1,-1,-1,-1,-1,-1,-1,-1,-1,-1,-1,-1,-1,-1,-1,-1,-1,-1,-1,-1,-1,-1,-1,-1,-1,-1,-1,-1,-1,-1,-1,-1,-1,-1,-1,-1,-1,-1],"split_conditions":[2.9627508E-1,7E0,-1.3624518E0,-2.5112247E-1,2.1E1,5.366156E-1,9.1665894E-1,1.1E1,-6.532313E-1,8.939186E-1,5.6335026E-1,7E1,6E0,3.9867157E-1,4.3035382E-3,5E0,9.413173E-1,1.56E2,-9.9966663E-1,7.8417224E-1,-3.536761E-1,1.1E1,-6.875816E-1,-1.3924699E0,6.4904237E-1,8.0647993E-1,6.7379504E-1,9.3985605E-1,4.3343633E-1,-9.9966663E-1,2.79E2,1.3898817E0,6.860684E-1,3.38E2,6E0,-9.30909E-2,2.79E2,1.3898817E0,-9.9887973E-1,3.15E2,9.775975E-1,-9.291005E-1,8.970987E-1,6E0,2.3E1,1.64E2,2.74E2,-2.4453525E-3,7.9501504E-1,8.4061843E-1,8.660254E-1,1.46E2,1.27E2,6.860684E-1,8.660254E-1,-9.990741E-1,4E0,9.775975E-1,2.25E2,6E0,-9.441875E-1,-6.875816E-1,2.032442E-1,-8.3068395E-3,-3.418764E-3,6.6822106E-3,2.3439843E-3,-6.7240186E-3,5.7179034E-3,-9.635743E-3,-4.2440416E-3,-5.4595447E-3,-2.3305055E-3,-2.426779E-3,7.7493167E-3,-1.1634469E-2,-5.166958E-3,-4.975626E-3,6.7331095E-4,-7.506787E-4,-2.8413415E-3,3.7559438E-3,2.3332893E-4,-7.147419E-4,7.521839E-3,6.958202E-5,4.6024127E-3,-3.8122875E-3,7.266504E-3,-2.9907196E-3,-5.9221066E-3,-5.7994574E-3,-6.143946E-4,3.471765E-3,1.2632112E-2,4.9530547E-3,8.599492E-3,-2.666772E-3,-4.5078928E-3,-1.684285E-3,1.3720947E-3,-4.800679E-3,-2.7976187E-3,-2.5382512E-3,7.1028247E-3,-2.9619567E-3,3.3935176E-3,-4.976382E-3,-8.6355405E-3,-3.8870776E-3,2.2959684E-3,-9.502747E-4,-3.3051718E-3,9.420778E-3,5.4642963E-3,1.1020927E-3,5.0689634E-3,-1.1533566E-2,-2.9777458E-3,8.304357E-3,5.07052E-3,-2.569953E-3,3.2990912E-4,6.4404397E-3,1.1679142E-2],"split_indices":[11,20,19,11,20,15,11,23,19,29,13,23,21,19,29,23,29,23,29,13,28,23,19,15,11,28,15,28,19,29,23,8,8,23,20,18,23,8,28,23,8,19,19,23,20,23,23,0,11,28,27,23,23,8,27,29,21,8,23,20,29,19,16,0,0,0,0,0,0,0,0,0,0,0,0,0,0,0,0,0,0,0,0,0,0,0,0,0,0,0,0,0,0,0,0,0,0,0,0,0,0,0,0,0,0,0,0,0,0,0,0,0,0,0,0,0,0,0,0,0,0,0,0,0,0],"split_type":[0,0,0,0,0,0,0,0,0,0,0,0,0,0,0,0,0,0,0,0,0,0,0,0,0,0,0,0,0,0,0,0,0,0,0,0,0,0,0,0,0,0,0,0,0,0,0,0,0,0,0,0,0,0,0,0,0,0,0,0,0,0,0,0,0,0,0,0,0,0,0,0,0,0,0,0,0,0,0,0,0,0,0,0,0,0,0,0,0,0,0,0,0,0,0,0,0,0,0,0,0,0,0,0,0,0,0,0,0,0,0,0,0,0,0,0,0,0,0,0,0,0,0,0,0],"sum_hessian":[6.7345E4,3.8697E4,2.8648E4,1.425E4,2.4447E4,3.292E3,2.5356E4,1.0363E4,3.887E3,2.0014E4,4.433E3,1.624E3,1.668E3,1.5857E4,9.499E3,8.56E2,9.507E3,1.726E3,2.161E3,1.1686E4,8.328E3,3.898E3,5.35E2,8.5E1,1.539E3,1.435E3,2.33E2,1.1404E4,4.453E3,8.833E3,6.66E2,3.24E2,5.32E2,7.241E3,2.266E3,8.1E2,9.16E2,6.3E1,2.098E3,9.996E3,1.69E3,7.67E2,7.561E3,3.19E2,3.579E3,2.1E2,3.25E2,4E0,8.1E1,6.44E2,8.95E2,3.88E2,1.047E3,2.2E1,2.11E2,1.0528E4,8.76E2,5.8E2,3.873E3,1.8E2,8.653E3,6.37E2,2.9E1,2.69E2,5.5E1,1.5E2,3.82E2,6.803E3,4.38E2,1.962E3,3.04E2,6.97E2,1.13E2,8.95E2,2.1E1,5E1,1.3E1,1.81E2,1.917E3,7.024E3,2.972E3,9.1E2,7.8E2,1.36E2,6.31E2,6.495E3,1.066E3,1.65E2,1.54E2,2.536E3,1.043E3,5.4E1,1.56E2,3.01E2,2.4E1,5.5E1,2.6E1,5.03E2,1.41E2,7.81E2,1.14E2,2.19E2,1.69E2,1.01E3,3.7E1,1.4E1,8E0,1.99E2,1.2E1,2.88E2,1.024E4,5.63E2,3.13E2,3.7E2,2.1E2,1.276E3,2.597E3,3.8E1,1.42E2,1.959E3,6.694E3,2.1E2,4.27E2,5E0,2.4E1],"tree_param":{"num_deleted":"0","num_feature":"30","num_nodes":"125","size_leaf_vector":"1"}},{"base_weights":[-2.8461282E-4,-4.4980314E-2,4.9662467E-2,-1.0887472E-1,-1.6090406E-2,-4.6116255E-2,6.208756E-2,-1.2686779E-1,-4.459748E-2,1.6156148E-2,-3.36231E-2,-3.4801204E-2,-6.2458802E-2,3.3611424E-2,8.839579E-2,-1.3251564E-2,-1.377938E-1,-1.165206E-1,-2.4996443E-2,5.5458225E-2,-3.4977011E-3,3.407366E-2,-3.9646033E-2,-4.580916E-2,8.872184E-2,-8.70536E-2,-3.568141E-2,-7.824018E-2,3.7082616E-2,9.616128E-2,-3.7009234E-3,-1.5590954E-1,7.677997E-2,-9.900101E-2,-1.5609552E-1,-1.0308955E-1,-1.0426935E-2,-7.34039E-2,-3.6137414E-3,4.163349E-2,1.1910029E-1,1.08138554E-1,-6.6335984E-3,-4.6700228E-2,1.1380419E-1,-6.457185E-2,-2.4693307E-2,-7.445841E-3,-5.385647E-2,1.2965806E-1,3.3874054E-2,-1.3020097E-1,-7.686387E-2,-1.9233324E-2,-5.9637435E-2,1.16810314E-1,-1.2781233E-1,4.2428188E-2,-3.9078925E-2,-7.317906E-2,9.94177E-2,-1.7762616E-2,6.397192E-2,-9.022985E-3,-4.45619E-3,2.0622283E-3,6.864046E-3,-6.9652E-3,5.954492E-3,-8.914886E-3,-4.4868123E-3,-6.630817E-3,-3.3289194E-3,-4.23589E-3,4.554532E-3,-6.2924656E-3,3.5223167E-4,2.9547983E-3,1.2185496E-3,6.4109743E-4,6.4656893E-3,4.044281E-3,1.6390828E-2,4.2087282E-4,-1.3477082E-3,-3.006552E-3,-4.4111566E-5,1.2350964E-3,7.4127535E-3,-2.7460947E-3,-5.39391E-3,-9.1961114E-4,-3.8548708E-3,-3.5306748E-3,4.688669E-3,-4.7246357E-3,-2.4247288E-3,5.3286063E-3,9.778822E-3,3.1189888E-3,-9.1194006E-4,-9.266021E-3,-5.037511E-3,-4.616896E-3,-1.5173797E-3,-1.8333851E-3,2.456105E-3,-2.1228392E-3,-5.300476E-3,6.788315E-3,4.117826E-3,6.113982E-4,-9.550504E-3,2.8662642E-3,3.4711498E-4,-2.4813453E-3,4.5347256E-3,-1.0536003E-2,-2.1749425E-3,5.6031826E-3,3.2188091E-3,-1.7972313E-3,6.643132E-4,-4.8315413E-3,4.510106E-3],"categories":[],"categories_nodes":[],"categories_segments":[],"categories_sizes":[],"default_left":[0,0,0,0,0,0,0,0,0,0,0,0,0,0,0,0,0,0,0,0,0,0,0,0,0,0,0,0,0,0,0,0,0,0,0,0,0,0,0,0,0,0,0,0,0,0,0,0,0,0,0,0,0,0,0,0,0,0,0,0,0,0,0,0,0,0,0,0,0,0,0,0,0,0,0,0,0,0,0,0,0,0,0,0,0,0,0,0,0,0,0,0,0,0,0,0,0,0,0,0,0,0,0,0,0,0,0,0,0,0,0,0,0,0,0,0,0,0,0,0,0,0,0,0,0],"id":6,"left_children":[1,3,5,7,9,11,13,15,17,19,21,23,25,27,29,31,33,35,37,39,41,43,45,47,49,51,53,55,57,59,61,63,65,67,69,71,-1,73,75,77,79,81,83,85,87,89,91,93,95,97,99,101,103,105,107,109,111,113,115,117,119,121,123,-1,-1,-1,-1,-1,-1,-1,-1,-1,-1,-1,-1,-1,-1,-1,-1,-1,-1,-1,-1,-1,-1,-1,-1,-1,-1,-1,-1,-1,-1,-1,-1,-1,-1,-1,-1,-1,-1,-1,-1,-1,-1,-1,-1,-1,-1,-1,-1,-1,-1,-1,-1,-1,-1,-1,-1,-1,-1,-1,-1,-1,-1],"loss_changes":[1.5023293E2,6.5555504E1,3.7824142E1,1.2783417E1,1.3828337E1,6.727724E-1,2.1072304E1,1.0722366E1,3.4087248E0,6.6547394E0,6.4614735E0,2.9397352E0,9.795017E-1,5.248662E0,1.0457657E1,9.76035E0,5.5798645E0,6.186981E-1,1.9694963E0,2.521926E0,2.0115762E0,8.345303E0,5.421322E0,6.117935E-1,3.9301908E-1,3.316083E-1,2.809791E-1,3.9502425E0,5.337055E0,7.443489E0,1.084051E0,4.6596003E-1,9.9620295E-1,2.2245775E1,7.870697E0,4.8060894E-1,0E0,1.0927236E0,1.7219281E0,7.1027374E-1,5.541048E-1,9.134227E-1,1.7092938E0,3.9624727E-1,1.9977493E0,2.2737427E0,3.0021057E0,2.2124763E0,3.5253477E-1,1.3285756E-1,1.15522355E-1,2.1995544E-1,4.513886E-1,5.0948E-1,2.2733963E-1,4.3026567E-2,2.8786612E0,6.4732857E0,1.1817101E0,1.0318065E0,5.8558807E0,5.328304E-1,8.3439445E-1,0E0,0E0,0E0,0E0,0E0,0E0,0E0,0E0,0E0,0E0,0E0,0E0,0E0,0E0,0E0,0E0,0E0,0E0,0E0,0E0,0E0,0E0,0E0,0E0,0E0,0E0,0E0,0E0,0E0,0E0,0E0,0E0,0E0,0E0,0E0,0E0,0E0,0E0,0E0,0E0,0E0,0E0,0E0,0E0,0E0,0E0,0E0,0E0,0E0,0E0,0E0,0E0,0E0,0E0,0E0,0E0,0E0,0E0,0E0,0E0,0E0,0E0],"parents":[2147483647,0,0,1,1,2,2,3,3,4,4,5,5,6,6,7,7,8,8,9,9,10,10,11,11,12,12,13,13,14,14,15,15,16,16,17,17,18,18,19,19,20,20,21,21,22,22,23,23,24,24,25,25,26,26,27,27,28,28,29,29,30,30,31,31,32,32,33,33,34,34,35,35,37,37,38,38,39,39,40,40,41,41,42,42,43,43,44,44,45,45,46,46,47,47,48,48,49,49,50,50,51,51,52,52,53,53,54,54,55,55,56,56,57,57,58,58,59,59,60,60,61,61,62,62],"right_children":[2,4,6,8,10,12,14,16,18,20,22,24,26,28,30,32,34,36,38,40,42,44,46,48,50,52,54,56,58,60,62,64,66,68,70,72,-1,74,76,78,80,82,84,86,88,90,92,94,96,98,100,102,104,106,108,110,112,114,116,118,120,122,124,-1,-1,-1,-1,-1,-1,-1,-1,-1,-1,-1,-1,-1,-1,-1,-1,-1,-1,-1,-1,-1,-1,-1,-1,-1,-1,-1,-1,-1,-1,-1,-1,-1,-1,-1,-1,-1,-1,-1,-1,-1,-1,-1,-1,-1,-1,-1,-1,-1,-1,-1,-1,-1,-1,-1,-1,-1,-1,-1,-1,-1,-1],"split_conditions":[2.1112435E-1,-7.7097136E-1,-1.3624518E0,-2.7545124E-1,-6.8919295E-1,1.31E2,6.9769996E-1,1.1E1,9.4E1,-1.078301E0,1.1E1,1.27E2,1.46E2,-9.990741E-1,4.3035382E-3,5E0,-3.375229E-1,9.1E1,-1.1198834E0,8.970987E-1,-7.9877937E-1,6E0,-7.311919E-1,7E1,6E0,1.33E2,1.52E2,1.82E2,9.3383723E-1,-9.9966663E-1,2.78E2,4E0,5.160447E-3,3.38E2,8.800122E-1,-6.875816E-1,-1.0426935E-2,-9.30909E-2,-9.9887973E-1,-1.4675615E0,6E0,2.14E2,2.5478724E-1,5E0,-3.3136052E-1,8.660254E-1,9.3383723E-1,6.5E1,-6.244344E-1,1.6421682E0,6.860684E-1,4.7874093E-1,1.0266503E0,1.2525455E0,1.0266503E0,9.775975E-1,6.123234E-17,8.660254E-1,9.5E1,-6.244344E-1,5E0,9.813065E-1,-1.0764672E0,-9.022985E-3,-4.45619E-3,2.0622283E-3,6.864046E-3,-6.9652E-3,5.954492E-3,-8.914886E-3,-4.4868123E-3,-6.630817E-3,-3.3289194E-3,-4.23589E-3,4.554532E-3,-6.2924656E-3,3.5223167E-4,2.9547983E-3,1.2185496E-3,6.4109743E-4,6.4656893E-3,4.044281E-3,1.6390828E-2,4.2087282E-4,-1.3477082E-3,-3.006552E-3,-4.4111566E-5,1.2350964E-3,7.4127535E-3,-2.7460947E-3,-5.39391E-3,-9.1961114E-4,-3.8548708E-3,-3.5306748E-3,4.688669E-3,-4.7246357E-3,-2.4247288E-3,5.3286063E-3,9.778822E-3,3.1189888E-3,-9.1194006E-4,-9.266021E-3,-5.037511E-3,-4.616896E-3,-1.5173797E-3,-1.8333851E-3,2.456105E-3,-2.1228392E-3,-5.300476E-3,6.788315E-3,4.117826E-3,6.113982E-4,-9.550504E-3,2.8662642E-3,3.4711498E-4,-2.4813453E-3,4.5347256E-3,-1.0536003E-2,-2.1749425E-3,5.6031826E-3,3.2188091E-3,-1.7972313E-3,6.643132E-4,-4.8315413E-3,4.510106E-3],"split_indices":[11,6,19,11,9,23,11,23,23,11,23,23,23,29,29,23,28,23,19,19,29,23,19,23,21,23,23,23,28,29,23,23,19,23,28,19,0,18,28,11,23,23,6,23,6,27,28,23,6,7,8,11,9,9,9,8,27,26,23,6,21,28,19,0,0,0,0,0,0,0,0,0,0,0,0,0,0,0,0,0,0,0,0,0,0,0,0,0,0,0,0,0,0,0,0,0,0,0,0,0,0,0,0,0,0,0,0,0,0,0,0,0,0,0,0,0,0,0,0,0,0,0,0,0,0],"split_type":[0,0,0,0,0,0,0,0,0,0,0,0,0,0,0,0,0,0,0,0,0,0,0,0,0,0,0,0,0,0,0,0,0,0,0,0,0,0,0,0,0,0,0,0,0,0,0,0,0,0,0,0,0,0,0,0,0,0,0,0,0,0,0,0,0,0,0,0,0,0,0,0,0,0,0,0,0,0,0,0,0,0,0,0,0,0,0,0,0,0,0,0,0,0,0,0,0,0,0,0,0,0,0,0,0,0,0,0,0,0,0,0,0,0,0,0,0,0,0,0,0,0,0,0,0],"sum_hessian":[6.7294E4,3.5514E4,3.178E4,1.1057E4,2.4457E4,3.649E3,2.8131E4,8.638E3,2.419E3,8.614E3,1.5843E4,2.158E3,1.491E3,1.351E4,1.4621E4,7.58E2,7.88E3,5.17E2,1.902E3,2.871E3,5.743E3,1.294E3,1.4549E4,1.982E3,1.76E2,7.76E2,7.15E2,4.06E2,1.3104E4,1.3484E4,1.137E3,2.93E2,4.65E2,2.528E3,5.352E3,4.53E2,6.4E1,5.82E2,1.32E3,2.36E3,5.11E2,1.56E2,5.587E3,6.43E2,6.51E2,5.454E3,9.095E3,3.44E2,1.638E3,1E2,7.6E1,1.46E2,6.3E2,4.25E2,2.9E2,8.2E1,3.24E2,1.2245E4,8.59E2,2.54E2,1.323E4,9.42E2,1.95E2,2.13E2,8E1,2.94E2,1.71E2,2.134E3,3.94E2,4.009E3,1.343E3,2.49E2,2.04E2,5.45E2,3.7E1,1.05E2,1.215E3,1.172E3,1.188E3,4.5E1,4.66E2,1.4E2,1.6E1,3.21E3,2.377E3,4.97E2,1.46E2,1.82E2,4.69E2,4.462E3,9.92E2,8.12E3,9.75E2,2.12E2,1.32E2,1.89E2,1.449E3,7.6E1,2.4E1,4.9E1,2.7E1,4.9E1,9.7E1,4.72E2,1.58E2,3.39E2,8.6E1,2.13E2,7.7E1,5.1E1,3.1E1,1.01E2,2.23E2,8.624E3,3.621E3,7.95E2,6.4E1,4.4E1,2.1E2,9.72E3,3.51E3,5.94E2,3.48E2,2.7E1,1.68E2],"tree_param":{"num_deleted":"0","num_feature":"30","num_nodes":"125","size_leaf_vector":"1"}},{"base_weights":[7.231754E-5,-3.8004294E-2,5.2389257E-2,-8.818736E-2,-8.65197E-3,-3.47402E-2,6.539059E-2,-1.10662304E-1,-2.8642017E-2,7.7582954E-4,-5.083499E-2,-4.096612E-2,1.1521789E-2,4.635424E-2,9.6909486E-2,-1.30939325E-2,-1.1964575E-1,-6.554686E-2,8.1084104E-4,-1.4522891E-2,2.2569405E-2,-6.2806986E-2,3.4093957E-2,-2.8048763E-2,-5.3421076E-2,9.624787E-2,-1.0486711E-1,3.4046497E-2,7.68242E-2,1.0484771E-1,-3.5428242E-3,-1.3726157E-1,6.283536E-2,-4.6803605E-2,-1.2912303E-1,-6.8413936E-2,1.4361349E-1,-1.9579254E-1,7.28376E-3,-2.4806779E-2,4.329395E-2,1.1546377E-1,1.2995395E-2,3.176488E-2,-7.137515E-2,-3.4908462E-2,7.870176E-2,1.0816472E-1,-3.5303373E-2,-4.7052838E-2,-8.965304E-2,1.8393828E-1,6.384575E-2,-1.6304186E-1,1.0376714E-2,3.9593503E-2,-2.9293112E-2,1.5113872E-1,6.534438E-2,-8.531037E-2,1.0884525E-1,-1.238861E-2,2.0351191E-1,-7.77298E-3,-4.3379255E-3,1.5984792E-3,5.7773096E-3,-6.1685517E-3,4.0956773E-3,-4.285415E-3,-7.1694027E-3,-2.6679842E-3,-5.4356162E-3,9.1609685E-3,4.0075122E-3,-1.0700735E-2,-4.9716323E-3,-4.0940484E-3,7.686719E-4,-6.5164344E-4,-2.6681402E-3,3.6774238E-3,3.059852E-4,-4.2127047E-4,7.1514854E-3,5.3550826E-5,4.280417E-3,-4.800344E-3,5.596969E-3,-2.7760358E-3,-5.457692E-3,-5.450132E-3,-4.3920355E-4,3.2277443E-3,1.2299066E-2,4.777186E-3,1.0569418E-2,-2.7082867E-3,-1.110273E-3,-1.868898E-3,-3.6948181E-3,-2.478156E-3,-4.8831943E-3,1.0822884E-2,4.4340002E-3,1.2922324E-3,5.830926E-3,-9.894724E-3,-5.6638117E-3,-4.6546097E-4,4.7408855E-3,-3.2393902E-3,2.122986E-3,-7.3381176E-4,-2.7567968E-3,8.892226E-3,5.174163E-3,4.7161724E-4,4.657204E-3,-1.0619553E-2,-2.4063324E-3,7.7508576E-3,4.7521493E-3,-1.784107E-3,9.083127E-4,6.12523E-3,1.1001821E-2],"categories":[],"categories_nodes":[],"categories_segments":[],"categories_sizes":[],"default_left":[0,0,0,0,0,0,0,0,0,0,0,0,0,0,0,0,0,0,0,0,0,0,0,0,0,0,0,0,0,0,0,0,0,0,0,0,0,0,0,0,0,0,0,0,0,0,0,0,0,0,0,0,0,0,0,0,0,0,0,0,0,0,0,0,0,0,0,0,0,0,0,0,0,0,0,0,0,0,0,0,0,0,0,0,0,0,0,0,0,0,0,0,0,0,0,0,0,0,0,0,0,0,0,0,0,0,0,0,0,0,0,0,0,0,0,0,0,0,0,0,0,0,0,0,0,0,0],"id":7,"left_children":[1,3,5,7,9,11,13,15,17,19,21,23,25,27,29,31,33,35,37,39,41,43,45,47,49,51,53,55,57,59,61,63,65,67,69,71,73,75,77,79,81,83,85,87,89,91,93,95,97,99,101,103,105,107,109,111,113,115,117,119,121,123,125,-1,-1,-1,-1,-1,-1,-1,-1,-1,-1,-1,-1,-1,-1,-1,-1,-1,-1,-1,-1,-1,-1,-1,-1,-1,-1,-1,-1,-1,-1,-1,-1,-1,-1,-1,-1,-1,-1,-1,-1,-1,-1,-1,-1,-1,-1,-1,-1,-1,-1,-1,-1,-1,-1,-1,-1,-1,-1,-1,-1,-1,-1,-1,-1],"loss_changes":[1.3422646E2,5.7442894E1,3.2154488E1,1.9257309E1,9.786072E0,1.0621262E0,1.4814415E1,9.156105E0,4.288083E0,6.7062793E0,4.5725183E0,5.2121735E-1,4.329288E0,5.77264E0,7.415512E0,8.324085E0,6.5984955E0,1.0598617E0,2.794778E0,7.0278435E0,7.3767266E0,3.1948757E0,1.714141E0,1.581935E0,3.7718487E-1,7.0996046E-1,1.2419837E0,3.8557653E0,3.769434E0,6.5603867E0,1.2516464E0,2.943964E-1,8.878803E-1,1.0880768E1,5.230194E0,1.042511E0,4.5639336E-2,1.0163188E-1,1.5347723E0,3.3728957E0,2.00712E0,2.6479235E0,6.5129395E0,3.3707907E0,2.1579819E0,4.229532E-1,7.839918E-1,8.532882E-2,3.7358356E-1,3.6290646E-1,7.416332E-2,1.9145083E-1,3.7200016E-1,1.9092202E-1,1.0560757E-1,3.0208712E0,3.331142E-1,7.350197E-1,5.966223E0,8.3088756E-1,5.364517E0,4.668317E-1,1.0525465E-2,0E0,0E0,0E0,0E0,0E0,0E0,0E0,0E0,0E0,0E0,0E0,0E0,0E0,0E0,0E0,0E0,0E0,0E0,0E0,0E0,0E0,0E0,0E0,0E0,0E0,0E0,0E0,0E0,0E0,0E0,0E0,0E0,0E0,0E0,0E0,0E0,0E0,0E0,0E0,0E0,0E0,0E0,0E0,0E0,0E0,0E0,0E0,0E0,0E0,0E0,0E0,0E0,0E0,0E0,0E0,0E0,0E0,0E0,0E0,0E0,0E0,0E0,0E0,0E0],"parents":[2147483647,0,0,1,1,2,2,3,3,4,4,5,5,6,6,7,7,8,8,9,9,10,10,11,11,12,12,13,13,14,14,15,15,16,16,17,17,18,18,19,19,20,20,21,21,22,22,23,23,24,24,25,25,26,26,27,27,28,28,29,29,30,30,31,31,32,32,33,33,34,34,35,35,36,36,37,37,38,38,39,39,40,40,41,41,42,42,43,43,44,44,45,45,46,46,47,47,48,48,49,49,50,50,51,51,52,52,53,53,54,54,55,55,56,56,57,57,58,58,59,59,60,60,61,61,62,62],"right_children":[2,4,6,8,10,12,14,16,18,20,22,24,26,28,30,32,34,36,38,40,42,44,46,48,50,52,54,56,58,60,62,64,66,68,70,72,74,76,78,80,82,84,86,88,90,92,94,96,98,100,102,104,106,108,110,112,114,116,118,120,122,124,126,-1,-1,-1,-1,-1,-1,-1,-1,-1,-1,-1,-1,-1,-1,-1,-1,-1,-1,-1,-1,-1,-1,-1,-1,-1,-1,-1,-1,-1,-1,-1,-1,-1,-1,-1,-1,-1,-1,-1,-1,-1,-1,-1,-1,-1,-1,-1,-1,-1,-1,-1,-1,-1,-1,-1,-1,-1,-1,-1,-1,-1,-1,-1,-1],"split_conditions":[3.3276823E-1,-6.244344E-1,-1.3451841E0,-2.0246491E-1,2.1E1,1.58E2,9.1665894E-1,1.1E1,-6.532313E-1,8.939186E-1,5.6335026E-1,5.366156E-1,4E0,3.9867157E-1,4.3035382E-3,5E0,-7.638886E-1,2.79E2,-9.9966663E-1,7.8417224E-1,-3.536761E-1,1.1E1,-6.875816E-1,7E1,6E0,1.59E2,6E0,9.3383723E-1,4.3343633E-1,-9.9966663E-1,2.79E2,4E0,5.160447E-3,3.09E2,4.8250774E-1,-3.0120306E-2,-1.0640452E0,-7.7097136E-1,-9.9887973E-1,3.15E2,7.0710677E-1,-9.291005E-1,8.970987E-1,5E0,2.3E1,1.64E2,2.74E2,8.4367263E-1,6.4904237E-1,1.31E2,2.032442E-1,7.0710677E-1,1.2572619E0,-1.5251449E0,1.4270828E0,-9.990741E-1,4E0,7.0710677E-1,2.25E2,-7.7097136E-1,-9.441875E-1,9.813065E-1,2.032442E-1,-7.77298E-3,-4.3379255E-3,1.5984792E-3,5.7773096E-3,-6.1685517E-3,4.0956773E-3,-4.285415E-3,-7.1694027E-3,-2.6679842E-3,-5.4356162E-3,9.1609685E-3,4.0075122E-3,-1.0700735E-2,-4.9716323E-3,-4.0940484E-3,7.686719E-4,-6.5164344E-4,-2.6681402E-3,3.6774238E-3,3.059852E-4,-4.2127047E-4,7.1514854E-3,5.3550826E-5,4.280417E-3,-4.800344E-3,5.596969E-3,-2.7760358E-3,-5.457692E-3,-5.450132E-3,-4.3920355E-4,3.2277443E-3,1.2299066E-2,4.777186E-3,1.0569418E-2,-2.7082867E-3,-1.110273E-3,-1.868898E-3,-3.6948181E-3,-2.478156E-3,-4.8831943E-3,1.0822884E-2,4.4340002E-3,1.2922324E-3,5.830926E-3,-9.894724E-3,-5.6638117E-3,-4.6546097E-4,4.7408855E-3,-3.2393902E-3,2.122986E-3,-7.3381176E-4,-2.7567968E-3,8.892226E-3,5.174163E-3,4.7161724E-4,4.657204E-3,-1.0619553E-2,-2.4063324E-3,7.7508576E-3,4.7521493E-3,-1.784107E-3,9.083127E-4,6.12523E-3,1.1001821E-2],"split_indices":[10,6,19,10,20,23,10,23,19,29,13,15,21,19,29,23,28,23,29,13,28,23,19,23,21,23,21,28,19,29,23,23,19,23,29,29,6,6,28,23,26,19,19,23,20,23,23,10,10,23,16,26,10,18,6,29,21,26,23,6,29,28,16,0,0,0,0,0,0,0,0,0,0,0,0,0,0,0,0,0,0,0,0,0,0,0,0,0,0,0,0,0,0,0,0,0,0,0,0,0,0,0,0,0,0,0,0,0,0,0,0,0,0,0,0,0,0,0,0,0,0,0,0,0,0,0,0],"split_type":[0,0,0,0,0,0,0,0,0,0,0,0,0,0,0,0,0,0,0,0,0,0,0,0,0,0,0,0,0,0,0,0,0,0,0,0,0,0,0,0,0,0,0,0,0,0,0,0,0,0,0,0,0,0,0,0,0,0,0,0,0,0,0,0,0,0,0,0,0,0,0,0,0,0,0,0,0,0,0,0,0,0,0,0,0,0,0,0,0,0,0,0,0,0,0,0,0,0,0,0,0,0,0,0,0,0,0,0,0,0,0,0,0,0,0,0,0,0,0,0,0,0,0,0,0,0,0],"sum_hessian":[6.7379E4,3.8997E4,2.8382E4,1.4391E4,2.4606E4,3.685E3,2.4697E4,1.0447E4,3.944E3,2.0112E4,4.494E3,3.248E3,4.37E2,1.5399E4,9.298E3,8.81E2,9.566E3,1.75E3,2.194E3,1.1817E4,8.295E3,3.939E3,5.55E2,1.596E3,1.652E3,2.53E2,1.84E2,1.097E4,4.429E3,8.617E3,6.81E2,3.34E2,5.47E2,1.102E3,8.464E3,1.727E3,2.3E1,6.9E1,2.125E3,1.0033E4,1.784E3,7.74E2,7.521E3,3.27E2,3.612E3,2.18E2,3.37E2,8E1,1.516E3,1.407E3,2.45E2,6.7E1,1.86E2,1.22E2,6.2E1,1.0087E4,8.83E2,5.91E2,3.838E3,1.77E2,8.44E3,6.54E2,2.7E1,2.44E2,9E1,3.46E2,2.01E2,6.91E2,4.11E2,2.095E3,6.369E3,1.259E3,4.68E2,1.3E1,1E1,5.7E1,1.2E1,1.76E2,1.949E3,7.105E3,2.928E3,9.83E2,8.01E2,1.41E2,6.33E2,6.461E3,1.06E3,1.26E2,2.01E2,2.546E3,1.066E3,5.6E1,1.62E2,3.12E2,2.5E1,7.3E1,7E0,6.2E2,8.96E2,1.036E3,3.71E2,4.2E1,2.03E2,4.9E1,1.8E1,1.09E2,7.7E1,7E1,5.2E1,5.1E1,1.1E1,2.69E2,9.818E3,5.65E2,3.18E2,3.77E2,2.14E2,1.275E3,2.563E3,3.9E1,1.38E2,1.94E3,6.5E3,3.71E2,2.83E2,6E0,2.1E1],"tree_param":{"num_deleted":"0","num_feature":"30","num_nodes":"127","size_leaf_vector":"1"}},{"base_weights":[-1.1843813E-4,-4.1087285E-2,4.369011E-2,-1.00488864E-1,-1.448664E-2,-3.5450533E-2,5.56203E-2,-1.1970385E-1,-5.7150863E-2,1.5738953E-2,-3.0944366E-2,-3.2241955E-2,-1.0612513E-1,2.895433E-2,8.189913E-2,-8.9909155E-3,-1.3202775E-1,-6.477941E-2,1.5748502E-1,5.2713852E-2,-2.7676201E-3,-5.91109E-2,-1.8715031E-2,-4.0355485E-2,9.135977E-2,-1.5993787E-1,1.1507822E-2,3.3776384E-2,-4.1670814E-2,8.92679E-2,-1.185578E-3,-1.3902852E-1,6.71812E-2,-1.1769843E-1,-1.6741973E-1,-4.2811487E-2,-1.0984825E-1,1.8897839E-1,-4.7222957E-2,3.9676677E-2,1.089785E-1,1.2409915E-2,-2.2942793E-2,-5.3940028E-2,-1.0964306E-1,5.3201646E-2,-2.5362732E-2,-3.5430014E-2,-6.771384E-2,1.6748983E-1,6.2883E-2,-1.3080788E-1,-2.2231308E-1,-1.0717304E-2,9.097499E-2,5.0288606E-2,9.560176E-3,-5.0354995E-2,8.282182E-2,-2.4749978E-2,9.3549594E-2,-1.5854567E-2,6.952488E-2,-8.0526825E-3,-3.9329375E-3,-7.711393E-4,4.227212E-3,-6.815251E-3,7.07687E-3,-8.602239E-3,-6.151462E-3,-2.5253862E-3,5.784863E-3,-6.1670514E-3,2.4255754E-3,-9.947708E-4,9.899125E-3,-7.604529E-3,3.832799E-3,2.4947333E-3,2.812685E-4,8.02228E-3,4.340336E-3,-8.533601E-4,1.2072175E-3,-2.107634E-3,-6.998261E-5,-3.907747E-3,-2.2313914E-3,-6.678658E-3,-4.1080206E-3,-1.7284146E-3,6.3498765E-3,-1.0115047E-3,-4.512845E-3,-1.3234691E-3,-2.4562904E-3,-3.4653998E-3,2.0918034E-3,1.0180632E-2,4.6390407E-3,9.082933E-4,5.035545E-3,-8.053704E-3,-4.08875E-3,-1.1763326E-2,-6.4743916E-3,-1.3142672E-3,5.8069074E-4,4.947323E-3,1.5710647E-3,3.0266352E-3,9.4596515E-5,-5.9245614E-4,1.0546077E-3,-1.6682533E-3,-3.5998472E-3,1.0496135E-2,7.87379E-5,9.89671E-3,-4.580464E-3,6.9046505E-3,4.1129845E-3,-1.591667E-3,5.8847E-4,7.1007693E-3,7.903739E-4],"categories":[],"categories_nodes":[],"categories_segments":[],"categories_sizes":[],"default_left":[0,0,0,0,0,0,0,0,0,0,0,0,0,0,0,0,0,0,0,0,0,0,0,0,0,0,0,0,0,0,0,0,0,0,0,0,0,0,0,0,0,0,0,0,0,0,0,0,0,0,0,0,0,0,0,0,0,0,0,0,0,0,0,0,0,0,0,0,0,0,0,0,0,0,0,0,0,0,0,0,0,0,0,0,0,0,0,0,0,0,0,0,0,0,0,0,0,0,0,0,0,0,0,0,0,0,0,0,0,0,0,0,0,0,0,0,0,0,0,0,0,0,0,0,0,0,0],"id":8,"left_children":[1,3,5,7,9,11,13,15,17,19,21,23,25,27,29,31,33,35,37,39,41,43,45,47,49,51,53,55,57,59,61,63,65,67,69,71,73,75,77,79,81,83,85,87,89,91,93,95,97,99,101,103,105,107,109,111,113,115,117,119,121,123,125,-1,-1,-1,-1,-1,-1,-1,-1,-1,-1,-1,-1,-1,-1,-1,-1,-1,-1,-1,-1,-1,-1,-1,-1,-1,-1,-1,-1,-1,-1,-1,-1,-1,-1,-1,-1,-1,-1,-1,-1,-1,-1,-1,-1,-1,-1,-1,-1,-1,-1,-1,-1,-1,-1,-1,-1,-1,-1,-1,-1,-1,-1,-1,-1],"loss_changes":[1.2104214E2,5.5065746E1,3.077319E1,8.969246E0,1.1974972E1,9.6486473E-1,1.9844276E1,1.0186905E1,5.4347734E0,5.8076196E0,5.367614E0,4.101318E0,1.172919E0,4.789316E0,8.732994E0,7.4283648E0,3.3877869E0,3.163519E0,7.4387574E-1,2.0723052E0,1.7325114E0,1.2268772E0,5.197607E0,5.143781E-1,5.357883E-1,2.0167732E-1,1.0517891E-1,5.262121E0,9.760941E-1,6.398575E0,1.207425E0,3.5564518E-1,6.7970705E-1,2.310453E1,3.7589645E-1,2.6323316E0,2.2452574E0,1.9013023E-1,2.1951286E-1,7.9997206E-1,5.931463E-1,1.1173141E0,1.0051613E0,9.6207714E-1,2.7642345E-1,5.9632854E0,3.3123045E0,3.9779425E-1,1.0488939E-1,1.6462016E-1,3.1110817E-1,1.1890769E-1,1.6429543E-2,1.6644904E-2,3.0624643E-3,3.879362E0,1.31791E0,3.068297E-1,6.0893726E-1,7.090174E0,6.339142E0,4.2588148E-1,7.765555E-1,0E0,0E0,0E0,0E0,0E0,0E0,0E0,0E0,0E0,0E0,0E0,0E0,0E0,0E0,0E0,0E0,0E0,0E0,0E0,0E0,0E0,0E0,0E0,0E0,0E0,0E0,0E0,0E0,0E0,0E0,0E0,0E0,0E0,0E0,0E0,0E0,0E0,0E0,0E0,0E0,0E0,0E0,0E0,0E0,0E0,0E0,0E0,0E0,0E0,0E0,0E0,0E0,0E0,0E0,0E0,0E0,0E0,0E0,0E0,0E0,0E0,0E0,0E0,0E0],"parents":[2147483647,0,0,1,1,2,2,3,3,4,4,5,5,6,6,7,7,8,8,9,9,10,10,11,11,12,12,13,13,14,14,15,15,16,16,17,17,18,18,19,19,20,20,21,21,22,22,23,23,24,24,25,25,26,26,27,27,28,28,29,29,30,30,31,31,32,32,33,33,34,34,35,35,36,36,37,37,38,38,39,39,40,40,41,41,42,42,43,43,44,44,45,45,46,46,47,47,48,48,49,49,50,50,51,51,52,52,53,53,54,54,55,55,56,56,57,57,58,58,59,59,60,60,61,61,62,62],"right_children":[2,4,6,8,10,12,14,16,18,20,22,24,26,28,30,32,34,36,38,40,42,44,46,48,50,52,54,56,58,60,62,64,66,68,70,72,74,76,78,80,82,84,86,88,90,92,94,96,98,100,102,104,106,108,110,112,114,116,118,120,122,124,126,-1,-1,-1,-1,-1,-1,-1,-1,-1,-1,-1,-1,-1,-1,-1,-1,-1,-1,-1,-1,-1,-1,-1,-1,-1,-1,-1,-1,-1,-1,-1,-1,-1,-1,-1,-1,-1,-1,-1,-1,-1,-1,-1,-1,-1,-1,-1,-1,-1,-1,-1,-1,-1,-1,-1,-1,-1,-1,-1,-1,-1,-1,-1,-1],"split_conditions":[1.3813801E-1,-7.7097136E-1,-1.3451841E0,-5.1873904E-1,-6.8919295E-1,1.62E2,6.9769996E-1,1.1E1,3.09E2,-1.078301E0,-8.683107E-1,1.58E2,1.64E2,9.3985605E-1,4.3035382E-3,5E0,9.413173E-1,9.3383723E-1,3.14E2,8.970987E-1,2.5478724E-1,9.659258E-1,1.1E1,9.775975E-1,1E0,7.322582E-1,1.0266503E0,7.0710677E-1,9.5E1,-9.990741E-1,2.78E2,4E0,6E0,3.39E2,8.970987E-1,9.14128E-1,9.5E1,7.009193E-1,-3.9709514E-1,2.5478724E-1,9.1438407E-1,-9.291005E-1,8.939186E-1,-4.7789747E-1,-7.6202685E-1,6E0,2.3E1,1.31E2,1.1112891E0,9.775975E-1,1.1599468E0,1.264707E0,1.618528E0,4.0132418E-1,-1.0705112E0,2.74E2,-8.190149E-1,4E0,-3.8286645E-2,1.82E2,-9.441875E-1,9.813065E-1,-9.30909E-2,-8.0526825E-3,-3.9329375E-3,-7.711393E-4,4.227212E-3,-6.815251E-3,7.07687E-3,-8.602239E-3,-6.151462E-3,-2.5253862E-3,5.784863E-3,-6.1670514E-3,2.4255754E-3,-9.947708E-4,9.899125E-3,-7.604529E-3,3.832799E-3,2.4947333E-3,2.812685E-4,8.02228E-3,4.340336E-3,-8.533601E-4,1.2072175E-3,-2.107634E-3,-6.998261E-5,-3.907747E-3,-2.2313914E-3,-6.678658E-3,-4.1080206E-3,-1.7284146E-3,6.3498765E-3,-1.0115047E-3,-4.512845E-3,-1.3234691E-3,-2.4562904E-3,-3.4653998E-3,2.0918034E-3,1.0180632E-2,4.6390407E-3,9.082933E-4,5.035545E-3,-8.053704E-3,-4.08875E-3,-1.1763326E-2,-6.4743916E-3,-1.3142672E-3,5.8069074E-4,4.947323E-3,1.5710647E-3,3.0266352E-3,9.4596515E-5,-5.9245614E-4,1.0546077E-3,-1.6682533E-3,-3.5998472E-3,1.0496135E-2,7.87379E-5,9.89671E-3,-4.580464E-3,6.9046505E-3,4.1129845E-3,-1.591667E-3,5.8847E-4,7.1007693E-3,7.903739E-4],"split_indices":[10,6,19,10,9,23,10,23,23,10,19,23,23,28,29,23,29,28,23,19,6,27,23,8,21,9,9,26,23,29,23,23,23,23,19,28,23,18,10,6,19,19,29,6,10,23,20,23,10,8,10,16,16,6,16,23,29,21,6,23,29,28,18,0,0,0,0,0,0,0,0,0,0,0,0,0,0,0,0,0,0,0,0,0,0,0,0,0,0,0,0,0,0,0,0,0,0,0,0,0,0,0,0,0,0,0,0,0,0,0,0,0,0,0,0,0,0,0,0,0,0,0,0,0,0,0,0],"split_type":[0,0,0,0,0,0,0,0,0,0,0,0,0,0,0,0,0,0,0,0,0,0,0,0,0,0,0,0,0,0,0,0,0,0,0,0,0,0,0,0,0,0,0,0,0,0,0,0,0,0,0,0,0,0,0,0,0,0,0,0,0,0,0,0,0,0,0,0,0,0,0,0,0,0,0,0,0,0,0,0,0,0,0,0,0,0,0,0,0,0,0,0,0,0,0,0,0,0,0,0,0,0,0,0,0,0,0,0,0,0,0,0,0,0,0,0,0,0,0,0,0,0,0,0,0,0,0],"sum_hessian":[6.7439E4,3.4849E4,3.259E4,1.0778E4,2.4071E4,4.269E3,2.8321E4,7.466E3,3.312E3,8.486E3,1.5585E4,4.085E3,1.84E2,1.4058E4,1.4263E4,7.48E2,6.718E3,3.199E3,1.13E2,2.83E3,5.656E3,4.717E3,1.0868E4,3.834E3,2.51E2,1.26E2,5.8E1,1.316E4,8.98E2,1.3101E4,1.162E3,2.76E2,4.72E2,4.785E3,1.933E3,2.152E3,1.047E3,9.8E1,1.5E1,2.299E3,5.31E2,3.228E3,2.428E3,4.281E3,4.36E2,9.19E2,9.949E3,3.251E3,5.83E2,6.7E1,1.84E2,8.8E1,3.8E1,4.6E1,1.2E1,7.824E3,5.336E3,8.4E2,5.8E1,4.74E2,1.2627E4,9.63E2,1.99E2,2.01E2,7.5E1,8.2E1,3.9E2,4.465E3,3.2E2,1.748E3,1.85E2,2.053E3,9.9E1,9.65E2,8.2E1,4E0,9.4E1,8E0,7E0,1.768E3,5.31E2,1.58E2,3.73E2,9.19E2,2.309E3,1.283E3,1.145E3,1.187E3,3.094E3,2.31E2,2.05E2,4.2E2,4.99E2,9.221E3,7.28E2,1.967E3,1.284E3,5.75E2,8E0,4.4E1,2.3E1,8.5E1,9.9E1,5.3E1,3.5E1,3.2E1,6E0,2.7E1,1.9E1,1E1,2E0,6.457E3,1.367E3,1.868E3,3.468E3,4.72E2,3.68E2,2.2E1,3.6E1,1.09E2,3.65E2,2.551E3,1.0076E4,6.1E2,3.53E2,8.4E1,1.15E2],"tree_param":{"num_deleted":"0","num_feature":"30","num_nodes":"127","size_leaf_vector":"1"}},{"base_weights":[1.2440827E-5,-3.945318E-2,4.2183224E-2,-9.593252E-2,-1.3991523E-2,-3.374317E-2,5.34016E-2,-1.1489393E-1,-5.30006E-2,1.4712481E-2,-2.9628899E-2,-4.941839E-2,-1.9806996E-2,3.1923786E-2,8.341783E-2,-2.4802811E-2,-1.242064E-1,-3.1203704E-2,-1.3097541E-1,4.8811745E-2,-3.2614036E-3,3.2023635E-2,-3.5315424E-2,-8.308798E-2,-4.5087866E-2,8.610566E-2,-2.5885677E-2,2.1020647E-2,6.0737688E-2,9.067646E-2,-4.289775E-3,-1.3598736E-1,5.7891883E-2,-6.473299E-2,-1.3712753E-1,-3.7472278E-2,1.1640217E-1,-1.4502318E-1,-1.0162124E-1,3.769938E-2,9.9539325E-2,1.0692116E-2,-2.2350855E-2,-4.311774E-2,1.04093716E-1,-3.0101439E-2,-9.625318E-2,-3.656102E-2,-1.0721053E-1,-4.0660195E-2,-7.166842E-2,-3.2714214E-3,1.06544025E-1,-3.4840222E-2,3.9506864E-2,-8.72705E-2,2.385646E-2,8.057831E-2,2.6594011E-2,-6.5947555E-2,9.383493E-2,-1.4196617E-2,1.6226812E-1,-7.8012743E-3,-4.161567E-3,1.2120589E-3,5.544637E-3,6.115316E-3,-5.2154874E-3,-5.012739E-3,-7.7301986E-3,-2.6411426E-3,1.8009801E-3,8.8967355E-3,3.019206E-3,-5.7083094E-3,-7.599961E-3,-6.011836E-3,-3.4552512E-3,2.3543753E-3,3.3036232E-4,7.536962E-3,3.913545E-3,-9.7265077E-4,1.0811914E-3,-1.3760484E-3,3.561457E-3,-2.72889E-3,-9.241673E-5,9.4800425E-4,6.9339275E-3,-2.6023802E-3,-8.578579E-4,-6.0769753E-3,-2.9320752E-3,-8.292555E-4,-4.18042E-3,-7.338581E-3,-2.1085357E-3,-2.802246E-3,-1.57029E-3,-4.2347303E-3,-2.0159206E-3,8.040613E-3,4.356963E-3,-2.5946418E-5,-2.2546463E-3,-5.8107795E-3,3.123842E-3,6.0516517E-3,-5.9916223E-3,1.4730968E-3,-1.6917987E-3,-4.6557336E-4,4.744671E-3,6.222921E-3,5.5723585E-4,-9.430708E-3,-1.5923254E-3,5.338574E-3,2.8114405E-3,-2.3742612E-3,3.1110936E-5,9.279967E-3,-5.4496975E-4],"categories":[],"categories_nodes":[],"categories_segments":[],"categories_sizes":[],"default_left":[0,0,0,0,0,0,0,0,0,0,0,0,0,0,0,0,0,0,0,0,0,0,0,0,0,0,0,0,0,0,0,0,0,0,0,0,0,0,0,0,0,0,0,0,0,0,0,0,0,0,0,0,0,0,0,0,0,0,0,0,0,0,0,0,0,0,0,0,0,0,0,0,0,0,0,0,0,0,0,0,0,0,0,0,0,0,0,0,0,0,0,0,0,0,0,0,0,0,0,0,0,0,0,0,0,0,0,0,0,0,0,0,0,0,0,0,0,0,0,0,0,0,0,0,0],"id":9,"left_children":[1,3,5,7,9,11,13,15,17,19,21,23,25,27,29,31,33,35,37,39,41,43,45,47,49,51,53,55,57,59,61,63,65,67,69,71,73,75,77,79,81,83,85,87,89,91,93,95,97,99,101,-1,103,105,107,109,111,113,115,117,119,121,123,-1,-1,-1,-1,-1,-1,-1,-1,-1,-1,-1,-1,-1,-1,-1,-1,-1,-1,-1,-1,-1,-1,-1,-1,-1,-1,-1,-1,-1,-1,-1,-1,-1,-1,-1,-1,-1,-1,-1,-1,-1,-1,-1,-1,-1,-1,-1,-1,-1,-1,-1,-1,-1,-1,-1,-1,-1,-1,-1,-1,-1,-1],"loss_changes":[1.1230338E2,5.012504E1,2.778741E1,8.810875E0,1.0785082E1,9.16522E-1,1.8320518E1,6.2992706E0,5.6386137E0,5.193842E0,5.4541874E0,2.8436852E-1,1.4347045E0,5.204073E0,7.547081E0,6.4899054E0,5.2228165E0,2.406385E0,2.842245E-1,1.6450801E0,1.478565E0,7.1203823E0,4.5218735E0,2.4748635E-1,2.0339656E-1,3.8172126E-1,1.2339814E0,3.6939573E0,3.0788174E0,5.422081E0,1.4989105E0,3.052101E-1,7.196357E-1,9.021489E0,3.5880127E0,2.8121057E0,3.546306E-1,8.7693214E-2,1.3575363E-1,7.0053315E-1,5.59896E-1,1.0572487E0,1.1360321E0,3.0447876E-1,1.9730177E0,3.726202E0,1.0599632E0,7.1918845E-2,3.7204838E-1,2.1251607E-1,9.82697E-2,0E0,9.866452E-2,6.516695E-1,9.158036E-1,2.0968137E0,3.7898755E0,3.7016678E0,2.528082E0,9.017171E-1,5.215042E0,4.2278624E-1,2.080735E-1,0E0,0E0,0E0,0E0,0E0,0E0,0E0,0E0,0E0,0E0,0E0,0E0,0E0,0E0,0E0,0E0,0E0,0E0,0E0,0E0,0E0,0E0,0E0,0E0,0E0,0E0,0E0,0E0,0E0,0E0,0E0,0E0,0E0,0E0,0E0,0E0,0E0,0E0,0E0,0E0,0E0,0E0,0E0,0E0,0E0,0E0,0E0,0E0,0E0,0E0,0E0,0E0,0E0,0E0,0E0,0E0,0E0,0E0,0E0,0E0,0E0,0E0],"parents":[2147483647,0,0,1,1,2,2,3,3,4,4,5,5,6,6,7,7,8,8,9,9,10,10,11,11,12,12,13,13,14,14,15,15,16,16,17,17,18,18,19,19,20,20,21,21,22,22,23,23,24,24,25,25,26,26,27,27,28,28,29,29,30,30,31,31,32,32,33,33,34,34,35,35,36,36,37,37,38,38,39,39,40,40,41,41,42,42,43,43,44,44,45,45,46,46,47,47,48,48,49,49,50,50,52,52,53,53,54,54,55,55,56,56,57,57,58,58,59,59,60,60,61,61,62,62],"right_children":[2,4,6,8,10,12,14,16,18,20,22,24,26,28,30,32,34,36,38,40,42,44,46,48,50,52,54,56,58,60,62,64,66,68,70,72,74,76,78,80,82,84,86,88,90,92,94,96,98,100,102,-1,104,106,108,110,112,114,116,118,120,122,124,-1,-1,-1,-1,-1,-1,-1,-1,-1,-1,-1,-1,-1,-1,-1,-1,-1,-1,-1,-1,-1,-1,-1,-1,-1,-1,-1,-1,-1,-1,-1,-1,-1,-1,-1,-1,-1,-1,-1,-1,-1,-1,-1,-1,-1,-1,-1,-1,-1,-1,-1,-1,-1,-1,-1,-1,-1,-1,-1,-1,-1,-1],"split_conditions":[1.3813801E-1,6E0,-1.3451841E0,-1.1291692E-1,-6.8919295E-1,-3.4754023E-1,7.9501504E-1,1.1E1,9.3383723E-1,-1.0296434E0,1.1E1,-3.3136052E-1,7E1,3.9867157E-1,4.3035382E-3,5E0,4.6735922E-1,8.9963084E-1,-2.9978004E-1,8.970987E-1,2.5478724E-1,6E0,2.3E1,5E0,6E0,6.5E1,1.4275633E0,-9.990741E-1,6.1377907E-1,-9.9966663E-1,2.79E2,4E0,5.160447E-3,7E1,-3.375229E-1,5.702423E-1,-1.2105821E0,7.322582E-1,-6.875816E-1,2.5478724E-1,9.1438407E-1,-9.4645643E-1,7.9797363E-1,5E0,-3.3136052E-1,-7.311919E-1,-5.1873904E-1,-6.244344E-1,-1.4409062E0,2E0,-1.4582621E0,-3.2714214E-3,-1.1210469E0,1.31E2,-6.979991E-1,4E0,9.3985605E-1,-9.970012E-1,-8.653073E-1,-6.244344E-1,5E0,-6.875816E-1,7.3215574E-1,-7.8012743E-3,-4.161567E-3,1.2120589E-3,5.544637E-3,6.115316E-3,-5.2154874E-3,-5.012739E-3,-7.7301986E-3,-2.6411426E-3,1.8009801E-3,8.8967355E-3,3.019206E-3,-5.7083094E-3,-7.599961E-3,-6.011836E-3,-3.4552512E-3,2.3543753E-3,3.3036232E-4,7.536962E-3,3.913545E-3,-9.7265077E-4,1.0811914E-3,-1.3760484E-3,3.561457E-3,-2.72889E-3,-9.241673E-5,9.4800425E-4,6.9339275E-3,-2.6023802E-3,-8.578579E-4,-6.0769753E-3,-2.9320752E-3,-8.292555E-4,-4.18042E-3,-7.338581E-3,-2.1085357E-3,-2.802246E-3,-1.57029E-3,-4.2347303E-3,-2.0159206E-3,8.040613E-3,4.356963E-3,-2.5946418E-5,-2.2546463E-3,-5.8107795E-3,3.123842E-3,6.0516517E-3,-5.9916223E-3,1.4730968E-3,-1.6917987E-3,-4.6557336E-4,4.744671E-3,6.222921E-3,5.5723585E-4,-9.430708E-3,-1.5923254E-3,5.338574E-3,2.8114405E-3,-2.3742612E-3,3.1110936E-5,9.279967E-3,-5.4496975E-4],"split_indices":[10,20,19,13,9,13,10,23,28,10,23,6,23,19,29,23,29,28,10,19,6,23,20,22,21,23,10,29,15,29,23,23,19,23,28,29,6,9,19,6,19,19,13,23,6,19,10,6,19,21,19,0,14,23,15,21,28,29,29,6,21,19,19,0,0,0,0,0,0,0,0,0,0,0,0,0,0,0,0,0,0,0,0,0,0,0,0,0,0,0,0,0,0,0,0,0,0,0,0,0,0,0,0,0,0,0,0,0,0,0,0,0,0,0,0,0,0,0,0,0,0,0,0,0,0],"split_type":[0,0,0,0,0,0,0,0,0,0,0,0,0,0,0,0,0,0,0,0,0,0,0,0,0,0,0,0,0,0,0,0,0,0,0,0,0,0,0,0,0,0,0,0,0,0,0,0,0,0,0,0,0,0,0,0,0,0,0,0,0,0,0,0,0,0,0,0,0,0,0,0,0,0,0,0,0,0,0,0,0,0,0,0,0,0,0,0,0,0,0,0,0,0,0,0,0,0,0,0,0,0,0,0,0,0,0,0,0,0,0,0,0,0,0,0,0,0,0,0,0,0,0,0,0],"sum_hessian":[6.7476E4,3.4856E4,3.262E4,1.083E4,2.4026E4,4.199E3,2.8421E4,7.511E3,3.319E3,8.473E3,1.5553E4,1.975E3,2.224E3,1.6568E4,1.1853E4,7.04E2,6.807E3,2.595E3,7.24E2,2.924E3,5.549E3,1.313E3,1.424E4,2.23E2,1.752E3,1.2E2,2.104E3,1.2021E4,4.547E3,1.0947E4,9.06E2,3E2,4.04E2,1.216E3,5.591E3,2.49E3,1.05E2,4.87E2,2.37E2,2.4E3,5.24E2,3.206E3,2.343E3,6.43E2,6.7E2,1.3119E4,1.121E3,7.7E1,1.46E2,1.504E3,2.48E2,1.4E1,1.06E2,1.851E3,2.53E2,3.06E2,1.1715E4,2.875E3,1.672E3,2.16E2,1.0731E4,8.56E2,5E1,2.16E2,8.4E1,2.48E2,1.56E2,2.12E2,1.004E3,1.8E3,3.791E3,2.06E3,4.3E2,4.9E1,5.6E1,9.3E1,3.94E2,1.49E2,8.8E1,1.843E3,5.57E2,1.52E2,3.72E2,8.53E2,2.353E3,2.221E3,1.22E2,5.03E2,1.4E2,1.94E2,4.76E2,4.866E3,8.253E3,6.69E2,4.52E2,5.5E1,2.2E1,9E1,5.6E1,5.63E2,9.41E2,1.74E2,7.4E1,2.6E1,8E1,4.26E2,1.425E3,3.2E1,2.21E2,4.1E1,2.65E2,1.0678E4,1.037E3,3.95E2,2.48E3,2.27E2,1.445E3,4.6E1,1.7E2,7.983E3,2.748E3,2.63E2,5.93E2,4.4E1,6E0],"tree_param":{"num_deleted":"0","num_feature":"30","num_nodes":"125","size_leaf_vector":"1"}},{"base_weights":[3.454409E-4,-3.25969E-2,4.5160644E-2,-8.2009524E-2,-1.021345E-2,-1.1957869E-2,6.1033975E-2,-1.0253092E-1,-2.6215822E-2,4.5189098E-2,-1.5206657E-2,3.213353E-2,-3.4386676E-2,8.112768E-2,3.0657053E-2,-1.0961176E-2,-1.1104031E-1,-5.7922978E-2,3.6782457E-4,-2.7716994E-2,1.13763124E-1,-2.6072592E-2,9.631387E-3,6.468754E-2,-7.644636E-2,-3.0057484E-2,-1.7454186E-1,9.8205894E-2,2.9884137E-2,-6.655778E-3,5.8982737E-2,-1.2770447E-1,6.40938E-2,-1.3020912E-1,-7.909783E-2,-6.0575597E-2,1.6148332E-1,-2.002048E-1,7.6398333E-3,-4.1481446E-2,-8.035274E-3,7.4895136E-2,1.706801E-1,-4.8386235E-2,-1.313575E-2,-1.2738777E-2,3.0666033E-2,2.8136432E-2,1.154052E-1,-1.15663454E-1,5.602589E-2,-4.129791E-2,1.1349726E-1,-1.389277E-2,-1.2686214E-1,8.289204E-2,1.6525792E-1,1.6429394E-2,7.079528E-2,2.1025153E-2,-9.292879E-2,8.403466E-2,2.0629107E-3,-7.4138916E-3,-3.4788158E-3,3.980152E-3,-2.0184682E-3,-7.2567738E-3,-4.819704E-3,-4.8373058E-3,-1.7631733E-4,2.2442807E-3,-3.2787917E-3,8.839993E-3,3.1837728E-3,-5.4932926E-3,-1.0227042E-2,3.079282E-3,-5.153019E-4,-2.886049E-3,8.9653436E-4,1.8395067E-3,-1.8227849E-3,-1.2382224E-3,4.75415E-3,1.0044233E-2,3.3179556E-3,-2.070789E-3,-4.081491E-3,-1.0686144E-3,2.019829E-3,-9.823651E-4,3.8228382E-3,5.3967483E-4,3.0935E-3,3.5080498E-3,-1.5363463E-3,6.938947E-3,2.2369714E-3,-8.559982E-3,-4.762491E-3,5.262281E-3,-1.0657132E-3,-1.6459111E-3,-6.354164E-3,7.997625E-3,2.9487466E-3,-7.341587E-3,-3.2889426E-3,5.3429618E-3,1.6286526E-3,7.048522E-3,1.04109235E-2,1.8372238E-3,-1.708541E-3,2.2511154E-3,4.5055794E-3,3.020589E-4,6.5914243E-3,-7.1408274E-3,-1.4393356E-3,5.0602197E-3,9.447609E-4,-1.1869533E-3,6.953412E-3],"categories":[],"categories_nodes":[],"categories_segments":[],"categories_sizes":[],"default_left":[0,0,0,0,0,0,0,0,0,0,0,0,0,0,0,0,0,0,0,0,0,0,0,0,0,0,0,0,0,0,0,0,0,0,0,0,0,0,0,0,0,0,0,0,0,0,0,0,0,0,0,0,0,0,0,0,0,0,0,0,0,0,0,0,0,0,0,0,0,0,0,0,0,0,0,0,0,0,0,0,0,0,0,0,0,0,0,0,0,0,0,0,0,0,0,0,0,0,0,0,0,0,0,0,0,0,0,0,0,0,0,0,0,0,0,0,0,0,0,0,0,0,0,0,0],"id":10,"left_children":[1,3,5,7,9,11,13,15,17,19,21,23,25,27,29,31,33,35,37,39,41,43,45,47,49,51,53,55,57,59,61,63,65,67,69,71,73,75,77,79,81,83,85,87,89,91,93,95,97,99,101,103,105,-1,107,109,111,113,115,117,119,121,123,-1,-1,-1,-1,-1,-1,-1,-1,-1,-1,-1,-1,-1,-1,-1,-1,-1,-1,-1,-1,-1,-1,-1,-1,-1,-1,-1,-1,-1,-1,-1,-1,-1,-1,-1,-1,-1,-1,-1,-1,-1,-1,-1,-1,-1,-1,-1,-1,-1,-1,-1,-1,-1,-1,-1,-1,-1,-1,-1,-1,-1,-1],"loss_changes":[9.938423E1,4.2911827E1,2.5858704E1,1.3846802E1,7.387987E0,6.1353602E0,1.3620079E1,6.8892746E0,2.7427912E0,1.1041969E1,6.611711E0,7.39956E0,2.489746E0,1.1752052E1,9.3931675E0,6.606095E0,4.9438095E0,8.7347174E-1,2.5846498E0,2.8980917E-1,2.504757E0,4.918845E0,3.5088005E0,2.9813495E0,2.5157502E0,6.4430165E0,5.7064366E-1,1.03305435E1,1.8477948E0,9.162772E0,7.2037315E0,3.424716E-1,7.4685967E-1,2.537445E0,4.050127E0,7.7653694E-1,1.5707582E-2,1.8143654E-3,1.6560935E0,6.088749E-1,5.6443024E-1,1.3664329E0,1.4392662E0,1.4458151E0,4.7579618E0,2.2284837E0,2.3823838E0,2.320019E0,1.1070518E0,4.0656137E-1,4.2478263E-1,2.6562967E0,7.250924E-1,0E0,9.5245E-2,9.889381E0,1.9238968E0,2.6009347E0,4.096465E-1,4.822301E0,2.9782E0,3.9215279E0,5.464888E0,0E0,0E0,0E0,0E0,0E0,0E0,0E0,0E0,0E0,0E0,0E0,0E0,0E0,0E0,0E0,0E0,0E0,0E0,0E0,0E0,0E0,0E0,0E0,0E0,0E0,0E0,0E0,0E0,0E0,0E0,0E0,0E0,0E0,0E0,0E0,0E0,0E0,0E0,0E0,0E0,0E0,0E0,0E0,0E0,0E0,0E0,0E0,0E0,0E0,0E0,0E0,0E0,0E0,0E0,0E0,0E0,0E0,0E0,0E0,0E0,0E0,0E0],"parents":[2147483647,0,0,1,1,2,2,3,3,4,4,5,5,6,6,7,7,8,8,9,9,10,10,11,11,12,12,13,13,14,14,15,15,16,16,17,17,18,18,19,19,20,20,21,21,22,22,23,23,24,24,25,25,26,26,27,27,28,28,29,29,30,30,31,31,32,32,33,33,34,34,35,35,36,36,37,37,38,38,39,39,40,40,41,41,42,42,43,43,44,44,45,45,46,46,47,47,48,48,49,49,50,50,51,51,52,52,54,54,55,55,56,56,57,57,58,58,59,59,60,60,61,61,62,62],"right_children":[2,4,6,8,10,12,14,16,18,20,22,24,26,28,30,32,34,36,38,40,42,44,46,48,50,52,54,56,58,60,62,64,66,68,70,72,74,76,78,80,82,84,86,88,90,92,94,96,98,100,102,104,106,-1,108,110,112,114,116,118,120,122,124,-1,-1,-1,-1,-1,-1,-1,-1,-1,-1,-1,-1,-1,-1,-1,-1,-1,-1,-1,-1,-1,-1,-1,-1,-1,-1,-1,-1,-1,-1,-1,-1,-1,-1,-1,-1,-1,-1,-1,-1,-1,-1,-1,-1,-1,-1,-1,-1,-1,-1,-1,-1,-1,-1,-1,-1,-1,-1,-1,-1,-1,-1],"split_conditions":[3.3276823E-1,6E0,-1.2065748E0,-2.0246491E-1,1.1E1,-8.977434E-1,-5.197438E-1,1.1E1,-6.532313E-1,6E0,1.6421682E0,7E0,2.23E2,9.775975E-1,2.49E2,5E0,-9.079995E-1,2.78E2,-9.9966663E-1,-1.774494E-2,5.160447E-3,-7.311919E-1,-1.774494E-2,-1.3276165E0,1.87E2,2.18E2,6E0,2.28E2,2.25E2,9E0,1E1,4E0,1.8493983E0,3.38E2,3.09E2,-9.441875E-1,1.3419181E0,1.1982133E0,-2.7298847E-1,5E0,3E0,3E0,9.775975E-1,2.2E1,6.461585E-1,7.9797363E-1,8.695894E-1,4E0,9.775975E-1,6E0,-1.0997823E0,8E0,-7.9877937E-1,-1.389277E-2,-6.885985E-1,7E0,-3.0673906E-1,1.83E2,-3.3270237E-1,6E0,-4.4437817E-1,5E0,5.5601746E-1,-7.4138916E-3,-3.4788158E-3,3.980152E-3,-2.0184682E-3,-7.2567738E-3,-4.819704E-3,-4.8373058E-3,-1.7631733E-4,2.2442807E-3,-3.2787917E-3,8.839993E-3,3.1837728E-3,-5.4932926E-3,-1.0227042E-2,3.079282E-3,-5.153019E-4,-2.886049E-3,8.9653436E-4,1.8395067E-3,-1.8227849E-3,-1.2382224E-3,4.75415E-3,1.0044233E-2,3.3179556E-3,-2.070789E-3,-4.081491E-3,-1.0686144E-3,2.019829E-3,-9.823651E-4,3.8228382E-3,5.3967483E-4,3.0935E-3,3.5080498E-3,-1.5363463E-3,6.938947E-3,2.2369714E-3,-8.559982E-3,-4.762491E-3,5.262281E-3,-1.0657132E-3,-1.6459111E-3,-6.354164E-3,7.997625E-3,2.9487466E-3,-7.341587E-3,-3.2889426E-3,5.3429618E-3,1.6286526E-3,7.048522E-3,1.04109235E-2,1.8372238E-3,-1.708541E-3,2.2511154E-3,4.5055794E-3,3.020589E-4,6.5914243E-3,-7.1408274E-3,-1.4393356E-3,5.0602197E-3,9.447609E-4,-1.1869533E-3,6.953412E-3],"split_indices":[10,20,19,10,23,29,29,23,19,23,7,22,23,8,23,23,10,23,29,8,19,19,8,19,23,23,20,23,23,22,22,23,18,23,23,29,8,13,19,23,23,21,8,20,13,13,29,21,8,20,18,22,29,0,18,22,19,23,19,22,29,21,29,0,0,0,0,0,0,0,0,0,0,0,0,0,0,0,0,0,0,0,0,0,0,0,0,0,0,0,0,0,0,0,0,0,0,0,0,0,0,0,0,0,0,0,0,0,0,0,0,0,0,0,0,0,0,0,0,0,0,0,0,0,0],"split_type":[0,0,0,0,0,0,0,0,0,0,0,0,0,0,0,0,0,0,0,0,0,0,0,0,0,0,0,0,0,0,0,0,0,0,0,0,0,0,0,0,0,0,0,0,0,0,0,0,0,0,0,0,0,0,0,0,0,0,0,0,0,0,0,0,0,0,0,0,0,0,0,0,0,0,0,0,0,0,0,0,0,0,0,0,0,0,0,0,0,0,0,0,0,0,0,0,0,0,0,0,0,0,0,0,0,0,0,0,0,0,0,0,0,0,0,0,0,0,0,0,0,0,0,0,0],"sum_hessian":[6.7317E4,3.8798E4,2.8519E4,1.2095E4,2.6703E4,6.202E3,2.2317E4,8.842E3,3.253E3,2.207E3,2.4496E4,2.091E3,4.111E3,1.3431E4,8.886E3,7.52E2,8.09E3,1.483E3,1.77E3,1.07E3,1.137E3,1.7041E4,7.455E3,1.609E3,4.82E2,3.989E3,1.22E2,1.0073E4,3.358E3,3.835E3,5.051E3,2.94E2,4.58E2,5.054E3,3.036E3,1.466E3,1.7E1,6.1E1,1.709E3,6.29E2,4.41E2,6.77E2,4.6E2,6.253E3,1.0788E4,3.613E3,3.842E3,9.36E2,6.73E2,3.72E2,1.1E2,3.7E3,2.89E2,3.7E1,8.5E1,8.202E3,1.871E3,2.528E3,8.3E2,2.904E3,9.31E2,3.507E3,1.544E3,2.16E2,7.8E1,3.99E2,5.9E1,3.504E3,1.55E3,2.461E3,5.75E2,6.6E1,1.4E3,1.4E1,3E0,4E0,5.7E1,4.26E2,1.283E3,4.94E2,1.35E2,1.71E2,2.7E2,1.14E2,5.63E2,3.56E2,1.04E2,5.171E3,1.082E3,9.35E3,1.438E3,3.354E3,2.59E2,2.348E3,1.494E3,5.46E2,3.9E2,5.05E2,1.68E2,9.8E1,2.74E2,6.7E1,4.3E1,3.372E3,3.28E2,1.55E2,1.34E2,6.3E1,2.2E1,5.555E3,2.647E3,1.198E3,6.73E2,1.804E3,7.24E2,3.57E2,4.73E2,2.559E3,3.45E2,5.23E2,4.08E2,2.775E3,7.32E2,1.3E3,2.44E2],"tree_param":{"num_deleted":"0","num_feature":"30","num_nodes":"125","size_leaf_vector":"1"}},{"base_weights":[3.907231E-5,-3.478082E-2,3.8688693E-2,-8.6069375E-2,-1.1886244E-2,2.0517814E-3,5.9415378E-2,-1.0530704E-1,-4.4736855E-2,1.4170239E-2,-2.6205726E-2,-2.982975E-2,2.5428059E-2,4.248595E-2,9.072364E-2,-1.3075584E-2,-1.1515959E-1,-5.156792E-2,1.4940135E-1,5.5911466E-2,1.9627227E-3,2.8420608E-2,-3.1159634E-2,2.7250273E-2,-3.565382E-2,3.3756725E-2,-5.6889925E-2,1.03596095E-2,5.398172E-2,1.5281661E-1,7.651625E-2,-1.2240506E-1,6.2842704E-2,-1.2190091E-1,-5.3285267E-2,-3.133578E-2,-9.835127E-2,1.9061515E-1,-5.0044093E-2,4.26846E-2,1.0565778E-1,-2.1358114E-2,1.37510095E-2,-3.7193794E-2,8.992241E-2,-2.6227754E-2,-8.7645315E-2,-6.5364994E-2,1.1573825E-1,-4.736298E-2,-2.4314735E-2,4.8371606E-2,-4.393455E-3,-7.399169E-2,1.07147425E-1,2.4237212E-2,-6.0186803E-2,1.0800153E-1,4.4866897E-2,1.8930145E-1,-6.786621E-2,-1.4089975E-1,8.587557E-2,-7.011682E-3,-3.5054057E-3,6.0485187E-3,1.7084435E-3,-4.413714E-3,-7.044922E-3,6.1152466E-3,-7.018277E-3,-9.616444E-4,-5.975354E-3,-5.4543945E-3,2.2590363E-3,5.926782E-3,1.1033588E-2,-6.4042457E-3,3.4121E-3,-2.3194505E-3,2.2873036E-3,-3.2019976E-4,6.024675E-3,-2.640421E-3,-3.5649302E-4,-8.9207676E-4,1.2718643E-3,-2.4718563E-3,2.4479383E-4,6.1179516E-3,5.1339687E-4,-2.6968343E-3,-8.923813E-4,-5.5189715E-3,-2.2894654E-3,-3.6787675E-3,-1.6265236E-3,4.3193526E-3,8.211062E-3,-2.740647E-3,-1.7746544E-3,-2.7194738E-3,-8.235091E-4,3.7607343E-3,1.2844222E-3,-1.1615249E-3,1.0871245E-3,-2.219647E-3,-6.2402673E-3,1.0553623E-2,-2.0279766E-4,-4.8934494E-4,2.8752086E-3,1.091244E-3,-6.3820854E-3,4.227482E-3,7.4238763E-3,-4.2151385E-3,2.672077E-3,1.008815E-2,4.551429E-3,-8.2484883E-4,-5.872916E-3,-4.896981E-3,-1.0904328E-2,2.1459635E-3,4.797858E-3],"categories":[],"categories_nodes":[],"categories_segments":[],"categories_sizes":[],"default_left":[0,0,0,0,0,0,0,0,0,0,0,0,0,0,0,0,0,0,0,0,0,0,0,0,0,0,0,0,0,0,0,0,0,0,0,0,0,0,0,0,0,0,0,0,0,0,0,0,0,0,0,0,0,0,0,0,0,0,0,0,0,0,0,0,0,0,0,0,0,0,0,0,0,0,0,0,0,0,0,0,0,0,0,0,0,0,0,0,0,0,0,0,0,0,0,0,0,0,0,0,0,0,0,0,0,0,0,0,0,0,0,0,0,0,0,0,0,0,0,0,0,0,0,0,0,0,0],"id":11,"left_children":[1,3,5,7,9,11,13,15,17,19,21,23,25,27,29,31,33,35,37,39,41,43,45,47,49,51,53,55,57,59,61,63,65,67,69,71,73,75,77,79,81,83,85,87,89,91,93,95,97,99,101,103,105,107,109,111,113,115,117,119,121,123,125,-1,-1,-1,-1,-1,-1,-1,-1,-1,-1,-1,-1,-1,-1,-1,-1,-1,-1,-1,-1,-1,-1,-1,-1,-1,-1,-1,-1,-1,-1,-1,-1,-1,-1,-1,-1,-1,-1,-1,-1,-1,-1,-1,-1,-1,-1,-1,-1,-1,-1,-1,-1,-1,-1,-1,-1,-1,-1,-1,-1,-1,-1,-1,-1],"loss_changes":[9.0360756E1,4.147512E1,2.4164288E1,8.663124E0,9.112595E0,8.570635E0,1.0768501E1,6.7575073E0,4.6015587E0,4.4136705E0,4.2660303E0,1.6182823E0,4.55087E0,4.8718395E0,6.28001E0,5.975468E0,2.7965164E0,3.1649446E0,9.7948813E-1,1.2851458E0,1.8430337E0,5.29376E0,4.02347E0,3.7036629E0,5.8503294E-1,3.3600712E0,1.7191782E0,3.4064732E0,4.779127E0,1.069729E1,1.1826527E1,2.6522112E-1,7.042322E-1,3.8581848E0,1.0139441E1,2.4926453E0,1.5613871E0,1.8615627E-1,2.0259479E-1,4.2480087E-1,6.840663E-1,1.0069073E0,1.6444976E0,3.2746887E-1,1.7479224E0,3.0854979E0,1.0987539E0,5.71844E-2,3.145342E-1,1.900363E-1,5.2875113E-1,2.6509857E0,8.22686E-1,8.261833E-1,6.7115134E-1,3.290934E0,3.1671412E0,1.3182793E0,9.214058E0,1.3764877E0,4.7954136E-1,7.7446985E-1,2.4067688E0,0E0,0E0,0E0,0E0,0E0,0E0,0E0,0E0,0E0,0E0,0E0,0E0,0E0,0E0,0E0,0E0,0E0,0E0,0E0,0E0,0E0,0E0,0E0,0E0,0E0,0E0,0E0,0E0,0E0,0E0,0E0,0E0,0E0,0E0,0E0,0E0,0E0,0E0,0E0,0E0,0E0,0E0,0E0,0E0,0E0,0E0,0E0,0E0,0E0,0E0,0E0,0E0,0E0,0E0,0E0,0E0,0E0,0E0,0E0,0E0,0E0,0E0,0E0,0E0],"parents":[2147483647,0,0,1,1,2,2,3,3,4,4,5,5,6,6,7,7,8,8,9,9,10,10,11,11,12,12,13,13,14,14,15,15,16,16,17,17,18,18,19,19,20,20,21,21,22,22,23,23,24,24,25,25,26,26,27,27,28,28,29,29,30,30,31,31,32,32,33,33,34,34,35,35,36,36,37,37,38,38,39,39,40,40,41,41,42,42,43,43,44,44,45,45,46,46,47,47,48,48,49,49,50,50,51,51,52,52,53,53,54,54,55,55,56,56,57,57,58,58,59,59,60,60,61,61,62,62],"right_children":[2,4,6,8,10,12,14,16,18,20,22,24,26,28,30,32,34,36,38,40,42,44,46,48,50,52,54,56,58,60,62,64,66,68,70,72,74,76,78,80,82,84,86,88,90,92,94,96,98,100,102,104,106,108,110,112,114,116,118,120,122,124,126,-1,-1,-1,-1,-1,-1,-1,-1,-1,-1,-1,-1,-1,-1,-1,-1,-1,-1,-1,-1,-1,-1,-1,-1,-1,-1,-1,-1,-1,-1,-1,-1,-1,-1,-1,-1,-1,-1,-1,-1,-1,-1,-1,-1,-1,-1,-1,-1,-1,-1,-1,-1,-1,-1,-1,-1,-1,-1,-1,-1,-1,-1,-1,-1],"split_conditions":[2.1112435E-1,6E0,-6.532313E-1,-5.1873904E-1,-6.8919295E-1,1.58E2,9.1665894E-1,1.1E1,3.09E2,-1.3459176E0,1.1E1,7E1,2.74E2,1.64E2,-9.441875E-1,5E0,8.8805735E-1,9.3383723E-1,3.14E2,8.970987E-1,-5.886885E-1,6E0,2.3E1,6.5E1,7.2202873E-1,7.0710677E-1,-1.0071404E0,1.52E2,1.82E2,1.82E2,-9.3228924E-1,4E0,6.860684E-1,-3.375229E-1,7E1,4.520722E-1,9.5E1,7.434555E-1,-3.9709514E-1,2.8973544E-1,6E0,-4.559067E-1,-9.377785E-1,5E0,-1.774494E-2,-9.4645643E-1,-4.457527E-1,6.3E1,-1.5729011E0,9.562348E-1,-1.4582621E0,3E0,-1.2065748E0,6.123234E-17,3.13E2,1.26E2,4.405188E-1,1.0266503E0,1.87E2,9.775975E-1,4.4208783E-1,7.322582E-1,1.33E2,-7.011682E-3,-3.5054057E-3,6.0485187E-3,1.7084435E-3,-4.413714E-3,-7.044922E-3,6.1152466E-3,-7.018277E-3,-9.616444E-4,-5.975354E-3,-5.4543945E-3,2.2590363E-3,5.926782E-3,1.1033588E-2,-6.4042457E-3,3.4121E-3,-2.3194505E-3,2.2873036E-3,-3.2019976E-4,6.024675E-3,-2.640421E-3,-3.5649302E-4,-8.9207676E-4,1.2718643E-3,-2.4718563E-3,2.4479383E-4,6.1179516E-3,5.1339687E-4,-2.6968343E-3,-8.923813E-4,-5.5189715E-3,-2.2894654E-3,-3.6787675E-3,-1.6265236E-3,4.3193526E-3,8.211062E-3,-2.740647E-3,-1.7746544E-3,-2.7194738E-3,-8.235091E-4,3.7607343E-3,1.2844222E-3,-1.1615249E-3,1.0871245E-3,-2.219647E-3,-6.2402673E-3,1.0553623E-2,-2.0279766E-4,-4.8934494E-4,2.8752086E-3,1.091244E-3,-6.3820854E-3,4.227482E-3,7.4238763E-3,-4.2151385E-3,2.672077E-3,1.008815E-2,4.551429E-3,-8.2484883E-4,-5.872916E-3,-4.896981E-3,-1.0904328E-2,2.1459635E-3,4.797858E-3],"split_indices":[12,20,19,12,9,23,12,23,23,12,23,23,23,23,29,23,28,28,23,19,14,23,20,23,12,26,19,23,23,23,29,23,8,28,23,29,23,18,12,18,23,28,19,23,8,19,12,23,19,28,19,21,19,27,23,23,28,9,23,8,19,9,23,0,0,0,0,0,0,0,0,0,0,0,0,0,0,0,0,0,0,0,0,0,0,0,0,0,0,0,0,0,0,0,0,0,0,0,0,0,0,0,0,0,0,0,0,0,0,0,0,0,0,0,0,0,0,0,0,0,0,0,0,0,0,0,0],"split_type":[0,0,0,0,0,0,0,0,0,0,0,0,0,0,0,0,0,0,0,0,0,0,0,0,0,0,0,0,0,0,0,0,0,0,0,0,0,0,0,0,0,0,0,0,0,0,0,0,0,0,0,0,0,0,0,0,0,0,0,0,0,0,0,0,0,0,0,0,0,0,0,0,0,0,0,0,0,0,0,0,0,0,0,0,0,0,0,0,0,0,0,0,0,0,0,0,0,0,0,0,0,0,0,0,0,0,0,0,0,0,0,0,0,0,0,0,0,0,0,0,0,0,0,0,0,0,0],"sum_hessian":[6.7142E4,3.5321E4,3.1821E4,1.09E4,2.4421E4,1.1498E4,2.0323E4,7.437E3,3.463E3,8.661E3,1.576E4,4.864E3,6.634E3,1.3192E4,7.131E3,7.18E2,6.719E3,3.346E3,1.17E2,1.959E3,6.702E3,1.31E3,1.445E4,4.5E2,4.414E3,6.025E3,6.09E2,3.477E3,9.715E3,1.326E3,5.805E3,2.94E2,4.24E2,6.058E3,6.61E2,2.337E3,1.009E3,9.7E1,2E1,1.549E3,4.1E2,2.25E3,4.452E3,6.34E2,6.76E2,1.3291E4,1.159E3,2.2E2,2.3E2,2.17E3,2.244E3,4.356E3,1.669E3,5.52E2,5.7E1,2.906E3,5.71E2,1.401E3,8.314E3,1.138E3,1.88E2,2.39E2,5.566E3,2.18E2,7.6E1,1.39E2,2.85E2,2.189E3,3.869E3,2.19E2,4.42E2,2.056E3,2.81E2,9.39E2,7E1,3E1,6.7E1,1.2E1,8E0,5.1E1,1.498E3,4.8E1,3.62E2,7E2,1.55E3,1.202E3,3.25E3,4.91E2,1.43E2,4.8E2,1.96E2,3.085E3,1.0206E4,7.5E2,4.09E2,1.75E2,4.5E1,1.45E2,8.5E1,1.331E3,8.39E2,4.63E2,1.781E3,1.994E3,2.362E3,9.7E2,6.99E2,3.5E2,2.02E2,2.9E1,2.8E1,1.437E3,1.469E3,2.58E2,3.13E2,8.89E2,5.12E2,5.17E2,7.797E3,1.009E3,1.29E2,9.3E1,9.5E1,1.55E2,8.4E1,1.059E3,4.507E3],"tree_param":{"num_deleted":"0","num_feature":"30","num_nodes":"127","size_leaf_vector":"1"}},{"base_weights":[-1.5551542E-4,-2.6948765E-2,4.6093583E-2,-6.307389E-2,-5.4410077E-3,-2.6535774E-2,5.7299096E-2,-8.722428E-2,-1.7291296E-2,2.017259E-3,-3.8437817E-2,-2.2619372E-2,-1.0186582E-1,6.3943245E-2,1.1080456E-3,-1.2069169E-2,-9.3999565E-2,-4.8377093E-2,4.6757087E-3,-2.1884862E-2,1.2359798E-2,2.0961335E-2,-5.2363347E-2,-3.0790888E-2,8.2450025E-2,-1.4941652E-1,1.1811666E-2,7.50809E-2,1.8223802E-2,-9.572622E-3,1.620677E-1,-9.145903E-2,6.305653E-2,-3.6563177E-2,-1.01517074E-1,1.6127262E-2,-5.802344E-2,-1.8856765E-1,9.970244E-3,-1.4115576E-2,-5.1168393E-2,6.512899E-2,7.581642E-3,-6.262714E-2,3.3081073E-2,-2.217368E-4,-6.072533E-2,-4.7093935E-2,-2.4530264E-2,1.6861229E-1,5.523617E-2,-1.8859172E-1,-9.83275E-2,-5.113977E-3,7.833307E-2,-3.4714535E-2,7.90359E-2,3.7278004E-2,5.933285E-3,4.663329E-3,-4.6968173E-2,2.3120931E-1,1.1649465E-1,-5.95974E-3,-2.5973923E-3,1.9176189E-3,6.841173E-3,-5.6475126E-3,3.2361168E-3,-7.3849745E-3,-4.606209E-3,-4.9587637E-3,1.6458571E-3,-3.039642E-3,7.2325314E-3,-1.0095017E-2,-3.965424E-3,-4.5318976E-3,8.2426186E-4,-1.9725392E-4,-1.4765778E-3,-1.8762719E-3,-6.188978E-3,-3.6666574E-4,6.510188E-3,3.3961125E-3,2.1646312E-4,-2.3704756E-3,-7.2690523E-3,3.4700043E-3,-2.93701E-5,-3.21798E-3,8.098134E-3,-6.3916347E-3,-2.3639007E-3,-2.944797E-3,-1.1547008E-3,2.406956E-3,-1.3934374E-3,9.999595E-3,4.7371215E-3,1.1736731E-3,4.613196E-3,-7.796503E-3,-1.1250818E-2,-7.0070513E-3,-3.603457E-3,-1.295038E-3,6.5353495E-4,1.6022479E-3,4.2949743E-3,9.482174E-3,-4.29878E-3,6.1308388E-3,3.47187E-3,9.0059155E-4,2.491745E-3,6.125285E-4,-2.261634E-3,3.8892224E-3,-1.3234459E-4,-1.8836408E-3,-9.001282E-3,1.18730245E-2,6.0602725E-3,4.2083706E-3,9.080339E-3],"categories":[],"categories_nodes":[],"categories_segments":[],"categories_sizes":[],"default_left":[0,0,0,0,0,0,0,0,0,0,0,0,0,0,0,0,0,0,0,0,0,0,0,0,0,0,0,0,0,0,0,0,0,0,0,0,0,0,0,0,0,0,0,0,0,0,0,0,0,0,0,0,0,0,0,0,0,0,0,0,0,0,0,0,0,0,0,0,0,0,0,0,0,0,0,0,0,0,0,0,0,0,0,0,0,0,0,0,0,0,0,0,0,0,0,0,0,0,0,0,0,0,0,0,0,0,0,0,0,0,0,0,0,0,0,0,0,0,0,0,0,0,0,0,0,0,0],"id":12,"left_children":[1,3,5,7,9,11,13,15,17,19,21,23,25,27,29,31,33,35,37,39,41,43,45,47,49,51,53,55,57,59,61,63,65,67,69,71,73,75,77,79,81,83,85,87,89,91,93,95,97,99,101,103,105,107,109,111,113,115,117,119,121,123,125,-1,-1,-1,-1,-1,-1,-1,-1,-1,-1,-1,-1,-1,-1,-1,-1,-1,-1,-1,-1,-1,-1,-1,-1,-1,-1,-1,-1,-1,-1,-1,-1,-1,-1,-1,-1,-1,-1,-1,-1,-1,-1,-1,-1,-1,-1,-1,-1,-1,-1,-1,-1,-1,-1,-1,-1,-1,-1,-1,-1,-1,-1,-1,-1],"loss_changes":[8.3487404E1,3.314521E1,2.0114998E1,1.7600727E1,6.581011E0,9.7245073E-1,7.993538E0,5.3057175E0,3.755284E0,5.3923845E0,4.0790186E0,2.7001843E0,8.828521E-1,9.748428E0,3.8954408E0,5.152888E0,4.124092E0,1.4177566E0,3.2994406E0,1.4981277E0,3.8383288E0,9.5131886E-1,1.7414007E0,2.9647303E-1,5.229578E-1,2.1161985E-1,5.557055E-2,6.6883163E0,8.7844443E-1,1.1314868E0,4.1735578E-1,4.5407462E-1,8.0387557E-1,8.5798E0,3.6531906E0,5.7823163E-1,1.1207004E0,1.0926509E-1,2.0583324E0,8.164363E-1,1.3634162E0,5.9613047E0,2.7397566E0,1.4296639E-1,1.0015187E0,5.762819E0,3.1000662E0,2.2750366E-1,5.129967E-1,1.06224656E-1,2.0247602E-1,4.1053295E-2,4.699385E-2,1.5458577E-2,7.497035E-4,6.180751E0,6.208008E0,3.5497165E-1,7.3816496E-1,8.2338446E-1,7.1799254E-1,9.03964E-3,1.678406E-1,0E0,0E0,0E0,0E0,0E0,0E0,0E0,0E0,0E0,0E0,0E0,0E0,0E0,0E0,0E0,0E0,0E0,0E0,0E0,0E0,0E0,0E0,0E0,0E0,0E0,0E0,0E0,0E0,0E0,0E0,0E0,0E0,0E0,0E0,0E0,0E0,0E0,0E0,0E0,0E0,0E0,0E0,0E0,0E0,0E0,0E0,0E0,0E0,0E0,0E0,0E0,0E0,0E0,0E0,0E0,0E0,0E0,0E0,0E0,0E0,0E0,0E0,0E0,0E0],"parents":[2147483647,0,0,1,1,2,2,3,3,4,4,5,5,6,6,7,7,8,8,9,9,10,10,11,11,12,12,13,13,14,14,15,15,16,16,17,17,18,18,19,19,20,20,21,21,22,22,23,23,24,24,25,25,26,26,27,27,28,28,29,29,30,30,31,31,32,32,33,33,34,34,35,35,36,36,37,37,38,38,39,39,40,40,41,41,42,42,43,43,44,44,45,45,46,46,47,47,48,48,49,49,50,50,51,51,52,52,53,53,54,54,55,55,56,56,57,57,58,58,59,59,60,60,61,61,62,62],"right_children":[2,4,6,8,10,12,14,16,18,20,22,24,26,28,30,32,34,36,38,40,42,44,46,48,50,52,54,56,58,60,62,64,66,68,70,72,74,76,78,80,82,84,86,88,90,92,94,96,98,100,102,104,106,108,110,112,114,116,118,120,122,124,126,-1,-1,-1,-1,-1,-1,-1,-1,-1,-1,-1,-1,-1,-1,-1,-1,-1,-1,-1,-1,-1,-1,-1,-1,-1,-1,-1,-1,-1,-1,-1,-1,-1,-1,-1,-1,-1,-1,-1,-1,-1,-1,-1,-1,-1,-1,-1,-1,-1,-1,-1,-1,-1,-1,-1,-1,-1,-1,-1,-1,-1,-1,-1,-1],"split_conditions":[3.9359018E-1,-6.244344E-1,-1.3451841E0,-2.0246491E-1,2.1E1,1.62E2,4.3035382E-3,1.1E1,-6.532313E-1,-8.7717384E-1,-6.450845E-2,1.58E2,1.64E2,9.775975E-1,3.09E2,6E0,-7.638886E-1,-8.82048E-1,-9.9966663E-1,5.4524046E-1,1.1E1,-1.3451841E0,-7.638886E-1,6.0038483E-1,1E0,-1.5251449E0,1.0266503E0,-9.990741E-1,1.2012956E0,5E0,-1.4146975E-1,4E0,1.381636E-2,-8.311706E-1,-4.7115952E-1,-7.834674E-3,2.79E2,-7.7097136E-1,-9.9887973E-1,3.15E2,1.31E2,6E0,-8.5874355E-1,1.2293249E0,-5.4884297E-1,3.09E2,-4.559067E-1,8.800122E-1,7E1,6.860684E-1,1.2572619E0,-1.3823138E-1,5E0,2.5478724E-1,3.122257E-1,7E0,-9.441875E-1,-4.8802376E-1,9E0,7E1,1.2525455E0,7.463575E-1,7.582161E-1,-5.95974E-3,-2.5973923E-3,1.9176189E-3,6.841173E-3,-5.6475126E-3,3.2361168E-3,-7.3849745E-3,-4.606209E-3,-4.9587637E-3,1.6458571E-3,-3.039642E-3,7.2325314E-3,-1.0095017E-2,-3.965424E-3,-4.5318976E-3,8.2426186E-4,-1.9725392E-4,-1.4765778E-3,-1.8762719E-3,-6.188978E-3,-3.6666574E-4,6.510188E-3,3.3961125E-3,2.1646312E-4,-2.3704756E-3,-7.2690523E-3,3.4700043E-3,-2.93701E-5,-3.21798E-3,8.098134E-3,-6.3916347E-3,-2.3639007E-3,-2.944797E-3,-1.1547008E-3,2.406956E-3,-1.3934374E-3,9.999595E-3,4.7371215E-3,1.1736731E-3,4.613196E-3,-7.796503E-3,-1.1250818E-2,-7.0070513E-3,-3.603457E-3,-1.295038E-3,6.5353495E-4,1.6022479E-3,4.2949743E-3,9.482174E-3,-4.29878E-3,6.1308388E-3,3.47187E-3,9.0059155E-4,2.491745E-3,6.125285E-4,-2.261634E-3,3.8892224E-3,-1.3234459E-4,-1.8836408E-3,-9.001282E-3,1.18730245E-2,6.0602725E-3,4.2083706E-3,9.080339E-3],"split_indices":[11,6,19,11,20,23,29,23,19,19,29,23,23,8,23,23,28,29,29,28,23,19,28,11,21,18,9,29,8,21,19,23,19,28,28,11,23,6,28,23,23,23,18,16,29,23,28,28,23,8,11,14,21,6,14,22,29,19,22,23,9,11,19,0,0,0,0,0,0,0,0,0,0,0,0,0,0,0,0,0,0,0,0,0,0,0,0,0,0,0,0,0,0,0,0,0,0,0,0,0,0,0,0,0,0,0,0,0,0,0,0,0,0,0,0,0,0,0,0,0,0,0,0,0,0,0,0],"split_type":[0,0,0,0,0,0,0,0,0,0,0,0,0,0,0,0,0,0,0,0,0,0,0,0,0,0,0,0,0,0,0,0,0,0,0,0,0,0,0,0,0,0,0,0,0,0,0,0,0,0,0,0,0,0,0,0,0,0,0,0,0,0,0,0,0,0,0,0,0,0,0,0,0,0,0,0,0,0,0,0,0,0,0,0,0,0,0,0,0,0,0,0,0,0,0,0,0,0,0,0,0,0,0,0,0,0,0,0,0,0,0,0,0,0,0,0,0,0,0,0,0,0,0,0,0,0,0],"sum_hessian":[6.7372E4,4.2659E4,2.4713E4,1.5919E4,2.674E4,3.303E3,2.141E4,1.0421E4,5.498E3,2.1811E4,4.929E3,3.141E3,1.62E2,1.9146E4,2.264E3,8.62E2,9.559E3,2.276E3,3.222E3,6.587E3,1.5224E4,9.36E2,3.993E3,2.915E3,2.26E2,1.14E2,4.8E1,1.5395E4,3.751E3,2.124E3,1.4E2,4.19E2,4.43E2,1.107E3,8.452E3,2.96E2,1.98E3,8.5E1,3.137E3,5.207E3,1.38E3,1.263E3,1.3961E4,1.18E2,8.18E2,5.52E2,3.441E3,8.07E2,2.108E3,5.3E1,1.73E2,6.3E1,5.1E1,3.9E1,9E0,5.35E2,1.486E4,1.47E3,2.281E3,1.539E3,5.85E2,5.4E1,8.6E1,2.45E2,1.74E2,3.33E2,1.1E2,6.31E2,4.76E2,1.426E3,7.026E3,3.7E1,2.59E2,1.954E3,2.6E1,7.5E1,1E1,1.9E2,2.947E3,3.138E3,2.069E3,1.163E3,2.17E2,5.98E2,6.65E2,7.13E2,1.3248E4,1.01E2,1.7E1,3.93E2,4.25E2,3.96E2,1.56E2,5.73E2,2.868E3,5.4E2,2.67E2,9.2E1,2.016E3,3.6E1,1.7E1,9.4E1,7.9E1,3.6E1,2.7E1,1.8E1,3.3E1,1.8E1,2.1E1,2E0,7E0,9.9E1,4.36E2,2.68E3,1.218E4,5.81E2,8.89E2,2.031E3,2.5E2,1.39E2,1.4E3,5.48E2,3.7E1,5E1,4E0,5.9E1,2.7E1],"tree_param":{"num_deleted":"0","num_feature":"30","num_nodes":"127","size_leaf_vector":"1"}},{"base_weights":[8.337421E-5,-2.514003E-2,4.3286514E-2,-6.309679E-2,-7.7216355E-3,-9.60299E-3,5.839398E-2,-9.612817E-3,-8.6292654E-2,1.3300394E-2,-1.8858025E-2,2.1984605E-2,-2.936107E-2,7.66262E-2,2.8879259E-2,-1.10407814E-1,-4.133462E-3,-6.8944027E-3,-9.305427E-2,-1.0250271E-2,3.3336367E-2,-3.8088672E-2,-7.0678964E-3,5.104444E-2,-7.18512E-2,-2.4978453E-2,-1.6465572E-1,6.274288E-2,1.3726847E-1,-1.0534656E-2,6.079713E-2,-1.23974286E-1,7.2412394E-2,-1.8552017E-1,-1.0980142E-3,-1.1010598E-1,5.854975E-2,-1.1219512E-1,-6.552986E-2,-2.8149888E-2,8.060633E-3,4.4717616E-4,4.5418505E-2,7.0507037E-3,-4.278314E-2,-1.5320744E-2,3.1283937E-2,8.6321816E-2,-1.4352222E-3,-1.1187354E-1,4.4429276E-2,-3.4916233E-2,1.2042139E-1,-1.3493583E-2,-1.23426E-1,8.009578E-2,2.278735E-2,1.5863898E-1,8.906989E-2,1.7249208E-2,-9.387345E-2,7.959111E-2,-3.495336E-3,-5.912535E-3,-8.392848E-3,4.306124E-3,2.4825376E-3,-9.826061E-3,-6.648965E-3,-1.6180683E-3,7.9130445E-4,-6.0532573E-3,-2.1100012E-3,4.8388573E-3,1.0116015E-3,-6.3239443E-3,-3.965281E-3,-3.947846E-3,5.5145152E-5,-2.1993092E-3,-2.689806E-4,1.71293E-3,-1.4734313E-4,2.1226828E-3,-5.49314E-4,1.9235561E-3,4.413744E-3,-2.7116227E-3,2.422046E-3,-2.4461113E-3,-5.850679E-4,-1.4633957E-3,4.0582154E-4,4.0101833E-3,2.360978E-4,3.135727E-3,6.955445E-3,-3.8015947E-3,2.7534547E-3,-8.062076E-3,-4.622169E-3,4.0046643E-3,-9.7485766E-4,-1.4293949E-3,-5.437536E-3,8.179485E-3,2.9946908E-3,-7.118543E-3,-3.2612327E-3,2.4820173E-3,7.2564133E-3,-3.287163E-3,2.1688335E-3,6.7957365E-3,9.9696955E-3,3.5637238E-3,5.896348E-3,9.453136E-5,6.5432466E-3,-7.0602605E-3,-1.2769402E-3,5.1080887E-3,8.527402E-4,-2.6481498E-3,4.2137797E-3],"categories":[],"categories_nodes":[],"categories_segments":[],"categories_sizes":[],"default_left":[0,0,0,0,0,0,0,0,0,0,0,0,0,0,0,0,0,0,0,0,0,0,0,0,0,0,0,0,0,0,0,0,0,0,0,0,0,0,0,0,0,0,0,0,0,0,0,0,0,0,0,0,0,0,0,0,0,0,0,0,0,0,0,0,0,0,0,0,0,0,0,0,0,0,0,0,0,0,0,0,0,0,0,0,0,0,0,0,0,0,0,0,0,0,0,0,0,0,0,0,0,0,0,0,0,0,0,0,0,0,0,0,0,0,0,0,0,0,0,0,0,0,0,0,0],"id":13,"left_children":[1,3,5,7,9,11,13,15,17,19,21,23,25,27,29,31,33,35,37,39,41,43,45,47,49,51,53,55,57,59,61,63,65,67,69,71,73,75,77,79,81,83,85,87,89,91,93,95,97,99,101,103,105,-1,107,109,111,113,115,117,119,121,123,-1,-1,-1,-1,-1,-1,-1,-1,-1,-1,-1,-1,-1,-1,-1,-1,-1,-1,-1,-1,-1,-1,-1,-1,-1,-1,-1,-1,-1,-1,-1,-1,-1,-1,-1,-1,-1,-1,-1,-1,-1,-1,-1,-1,-1,-1,-1,-1,-1,-1,-1,-1,-1,-1,-1,-1,-1,-1,-1,-1,-1,-1],"loss_changes":[7.316994E1,2.8028126E1,1.9777264E1,